svm_type c_svc
kernel_type rbf
gamma 0.10000000000000001
nr_class 5
total_sv 6354
rho 0.077223183929014103 0.20707939169084166 0.29925091642383334 0.045691895517339591 0.13438981285351273 -0.10725546674325258 -0.095897121776314265 0.22711175480991458 -0.011902736843553195 0.073943775444926071
label 3 2 4 1 0
probA -3.8831031743862798 -2.014237435562181 -3.7443731289604507 -2.5429613667437563 -2.677573560818677 -2.0059943100437581 -3.3136525552328742 -3.0545181849324536 -2.7794466367037187 -1.5914875638401129
probB -0.040486965045948148 -0.0019409824476361766 -0.085381224963805097 0.07230297359954832 0.01493182334605799 -0.0080806003450377036 0.10060949248241256 0.090724704777878709 0.044447063694478414 -0.012668982061411659
nr_sv 1178 896 1284 1504 1492
SV
0 0.93079046944952482 0 4.8571584691212601 1:1.4477378 2:-0.45506135 3:-1.4177126 4:-1.6546422 5:0.013265013 6:0.94506677 7:-0.37803429 8:-0.79548559 9:0.27965486 10:1.6804117 11:1.1506288 12:-2.697372 13:0.81632288 
0 8.9913417545016117 0 0 1:0.84902042 2:0.97900073 3:-0.044183387 4:0.37983873 5:1.0284457 6:0.70316291 7:-0.16036381 8:0.58623806 9:0.70924777 10:-1.1411791 11:0.022974692 12:-1.5503857 13:-1.2575248 
9.9689419359277771 5.8553918757731456 5.0470958476107564 0.73522234088452276 1:0.60045559 2:0.37453059 3:1.6745934 4:-0.73835177 5:-0.49041545 6:0.05088109 7:-0.91686422 8:0.45032531 9:-1.1414021 10:2.6499467 11:-1.4171832 12:2.0173211 13:0.59630772 
0 10 0 10 1:1.2689426 2:-0.87487201 3:-1.0872948 4:-0.60278778 5:0.55916961 6:0.37681148 7:-0.98111535 8:-0.86710621 9:-1.1108541 10:0.26515168 11:-1.0085881 12:-0.82429483 13:-0.51472534 
0 5.6755622587319694 0 4.8842450017099859 1:1.2125926 2:-0.26285225 3:-0.85196658 4:-1.159411 5:-0.68 6:0.43990734 7:-0.025260077 8:-1.4250544 9:2.2460691 10:0.27876045 11:1.7861024 12:-2.7234525 13:0.43536367 
0 10 0 0 1:1.2610784 2:-0.26838519 3:-0.14836183 4:-1.0710907 5:0.4431112 6:-1.0185965 7:-0.59636161 8:0.70279291 9:-0.27375232 10:1.6083539 11:0.033716857 12:-0.21882023 13:-0.38945736 
0 3.4031088094806115 0 0 1:1.07973 2:-0.70329001 3:-0.74861982 4:-2.1333701 5:1.5100676 6:0.36116639 7:-0.47650744 8:1.1869891 9:1.1909297 10:1.5643436 11:-0.65704201 12:0.91393805 13:-0.22583554 
2.3005973798744535 10 0.071696495431483889 0 1:0.69812564 2:-0.14731587 3:-1.3878266 4:-0.2444546 5:-1.0981015 6:0.51936003 7:-1.912442 8:-1.9169154 9:0.18190776 10:0.43392681 11:-0.58948235 12:-1.7052633 13:-0.47625865 
0 10 0 0 1:0.76282676 2:0.33363944 3:-0.25530841 4:0.06665734 5:0.21494287 6:0.4225972 7:0.9310553 8:-0.056304477 9:0.1750917 10:0.14455842 11:-0.56356574 12:-0.31870914 13:0.10113657 
0 4.7447706824653695 2.927765901408856 5.9261526099041673 1:0.68533936 2:-1.3261727 3:-0.3189263 4:-2.1085677 5:-0.47246535 6:-1.6603726 7:-0.17916521 8:-0.43305686 9:0.78239305 10:0.33540312 11:-0.80959016 12:-0.26872729 13:-1.1082644 
0 5.4535368122924979 0 0 1:0.99630275 2:0.89551848 3:-1.7533977 4:-0.83898687 5:-1.158064 6:-0.4821432 7:-0.59237822 8:-1.0180348 9:-1.3885357 10:2.0868004 11:0.31046339 12:0.52979573 13:1.8121275 
0 10 0 0 1:1.3664588 2:0.013936983 3:-0.56175176 4:-1.1155356 5:-1.5083691 6:-1.5179943 7:-0.54311326 8:-0.10737328 9:0.036243075 10:-0.22951604 11:-1.5518003 12:-0.73394544 13:-0.064603164 
0 0.78240478990677409 0 0 1:1.5678433 2:0.0353691 3:0.69174869 4:-2.2468475 5:-1.6929623 6:1.2892439 7:-0.41347674 8:0.95150182 9:0.2702125 10:-0.61294273 11:0.7703653 12:-1.0256447 13:-0.076358579 
0 4.4475523567456605 0 0 1:1.3971539 2:0.59750363 3:-0.72096316 4:-0.40360945 5:-0.83540682 6:-0.063453007 7:0.14775048 8:-0.23626579 9:-1.4266805 10:1.6114785 11:2.8050792 12:-2.5662282 13:1.2050379 
0 10 0 0 1:1.1898838 2:0.17642973 3:-0.89701584 4:-0.21891011 5:-0.42652813 6:1.4681867 7:-1.9470838 8:0.62689007 9:0.44472713 10:2.356313 11:-0.79637022 12:-0.72383863 13:-0.38768791 
0 0 0.2970805950422406 0 1:1.4934299 2:-0.66627033 3:-0.061366261 4:-0.27787671 5:-2.1042309 6:0.57040056 7:-0.93420638 8:1.1566061 9:-1.286017 10:3.2157546 11:1.1081667 12:0.11556355 13:1.7693393 
0 0 0 0.27556904356390344 1:1.5213636 2:-0.53531742 3:-1.317779 4:-1.6761804 5:0.72427305 6:-0.14455736 7:-0.72939479 8:0.88439658 9:0.43306343 10:2.0046674 11:0.75860414 12:0.12883619 13:0.25160723 
0 10 0 0 1:1.061664 2:0.57583687 3:-1.1119829 4:-1.3745994 5:-0.54890425 6:0.42434289 7:-0.7127814 8:-2.1946971 9:-0.58622948 10:-0.19403057 11:1.7758018 12:0.22481035 13:-0.029648319 
5.7339906270684935 9.8664538359679721 4.381456173046149 0 1:1.6207453 2:-0.74437655 3:0.99640376 4:-0.56886001 5:-0.74778161 6:-0.13880415 7:0.1161502 8:0.12892777 9:-1.3076875 10:2.3327012 11:0.42318837 12:-0.63674859 13:1.3665571 
0 0 0 7.6810977585671516 1:0.44704127 2:-0.50306443 3:-1.1196782 4:-1.0623858 5:1.3397694 6:1.068508 7:0.37239788 8:0.91542981 9:-0.31202469 10:0.43159286 11:-0.070611816 12:-0.09633321 13:0.10166692 
1.2392287021138362 0 0 0 1:0.83512847 2:0.066732505 3:-0.44354124 4:-3.1230961 5:-0.83602581 6:-0.3550039 7:-0.41515497 8:0.57063856 9:-0.20168123 10:1.7380737 11:-1.4347412 12:2.9669713 13:-1.1603474 
0 7.6396001846951709 0 0 1:1.3436673 2:-0.17977361 3:-0.53436348 4:-1.5716124 5:1.5863305 6:-1.8115562 7:-1.1010667 8:0.13831127 9:0.091732567 10:2.1926967 11:0.664096 12:0.024787335 13:-1.3397266 
2.3065345225986276 10 0 1.2466418185932782 1:0.9753452 2:-0.080258105 3:-0.38747936 4:0.0051701287 5:-0.56398281 6:-0.62924939 7:-1.5107951 8:-0.27650444 9:0.26499098 10:0.12124751 11:-1.4745579 12:-0.87679284 13:0.27958724 
0 2.3818492964528106 0 0 1:1.1531982 2:0.55098394 3:-0.97989682 4:-1.8160075 5:0.10790478 6:0.91650575 7:1.1425927 8:-1.7890908 9:0.69653009 10:-1.2028672 11:0.76807924 12:2.8162398 13:-0.24315319 
0 0 0 10 1:1.3256189 2:-0.87282507 3:-1.6315955 4:-1.0311334 5:0.74342522 6:1.7148876 7:0.040240305 8:-0.68679226 9:0.37654733 10:1.0263103 11:-0.11471637 12:-0.49592742 13:-0.47627584 
0 5.5502143391766747 0 2.9932346523948565 1:1.2560135 2:0.17364991 3:-0.99094271 4:-1.5692258 5:1.0470464 6:2.2405728 7:-0.28140776 8:1.1369218 9:-1.7071703 10:2.6969402 11:-0.84623227 12:-0.96115717 13:0.61340666 
0 10 0 0 1:0.99018019 2:0.097014429 3:-1.4050801 4:-0.68530484 5:-0.49970451 6:1.8706464 7:-0.59037826 8:0.0033636754 9:-0.01797318 10:1.0168429 11:-0.33192081 12:-0.23332262 13:0.30979872 
0 7.8752740430710704 0 6.5789292246937725 1:1.0111531 2:-0.73198343 3:0.02802792 4:-1.1702281 5:-0.02667641 6:2.4269605 7:-0.9370914 8:-0.86515233 9:-1.2378288 10:-0.049707217 11:-0.57097675 12:0.62197874 13:0.77966954 
0 10 0 0 1:1.1639597 2:-0.022666921 3:-2.1091103 4:-1.0119624 5:-0.34542076 6:-0.32715339 7:-1.6919895 8:-0.42614017 9:-1.2905683 10:1.1829324 11:-0.74720296 12:0.60452086 13:-1.4160125 
0 6.8726258805967442 0 0.8848558538740442 1:0.75273033 2:0.23063459 3:-1.012786 4:0.20057052 5:0.18778984 6:1.532173 7:1.4474123 8:1.4388159 9:-0.2162106 10:1.1201966 11:1.2117148 12:-1.150777 13:0.27175719 
0 4.5753282195504719 0 10 1:1.2104641 2:-0.12928087 3:-0.16229128 4:-0.43166773 5:1.4079646 6:2.3420258 7:0.73423258 8:-1.2721368 9:1.4847562 10:0.43400036 11:0.52806541 12:-0.059184624 13:0.3517126 
0 0 0 4.3995380236355999 1:1.1202073 2:-0.66153693 3:-1.8324471 4:-1.1367231 5:0.15079393 6:1.5906902 7:-0.58536751 8:0.19313519 9:-1.2979173 10:0.93907386 11:-1.1598674 12:-0.52612545 13:-0.89591601 
0 0.30958347109523149 0 0 1:1.4212435 2:-0.22528679 3:-1.984846 4:-1.1281749 5:-0.75101352 6:1.2810516 7:0.24557362 8:-0.8952366 9:-0.29200632 10:0.56702283 11:-0.60716467 12:0.46045341 13:-0.75961949 
0 0 1.3161141882400182 0 1:1.1530309 2:0.67258606 3:-0.78044221 4:-1.3522616 5:-2.448532 6:0.047140957 7:-0.68643883 8:0.35967022 9:1.1055117 10:0.74280511 11:0.83922683 12:0.18096273 13:1.2163597 
0.19473212592207811 0.37393009657352511 0 1.2323173850204929 1:1.3143212 2:-0.88806798 3:-1.2633726 4:-1.4775522 5:0.81301027 6:0.96034632 7:0.5100705 8:-0.45663894 9:2.2668984 10:-0.99135778 11:2.9584155 12:1.3614681 13:-1.6563218 
0 0 0 2.3618423157229125 1:0.86509803 2:-0.64074353 3:-1.1277481 4:-1.1419887 5:0.10417223 6:0.64297332 7:-1.5739113 8:1.4879418 9:-1.7575953 10:2.125952 11:-0.48253444 12:-1.3348425 13:-0.026276692 
0 0 0 2.9840862404907478 1:1.3248646 2:-0.42948228 3:-1.7003439 4:-1.2186854 5:-0.87189123 6:-0.24871617 7:0.42613203 8:-0.4362931 9:-1.9120679 10:-1.6043477 11:-1.8752566 12:0.6294959 13:0.42555605 
0 3.0604235075081743 0 0 1:1.5899215 2:1.0750843 3:-0.39976229 4:-1.1588973 5:-1.0022691 6:1.8423246 7:-0.36185215 8:1.2628514 9:-0.55272466 10:0.4283582 11:-0.64957545 12:0.038602799 13:0.66011707 
0 0.62042821405984916 0 4.6099377674172501 1:1.1947563 2:-0.64117135 3:-0.39570853 4:-1.2912387 5:0.37279547 6:0.6207289 7:0.2233009 8:1.7153632 9:-0.050256811 10:-2.2237783 11:-1.3704567 12:0.58448693 13:-1.8777957 
1.2677551869822068 0 1.1896501759750902 0 1:1.0013069 2:-1.0300125 3:-0.53329445 4:-1.6632288 5:-1.5388172 6:1.63803 7:-0.49872996 8:-0.087265837 9:-0.77361697 10:-1.7609602 11:-1.2572921 12:1.7946599 13:-2.1752556 
0 0 0.78469612565213331 1.3724187973502449 1:1.2600136 2:-0.90515766 3:-2.2499552 4:-2.1883545 5:3.4538125 6:1.0606062 7:-1.2084401 8:-0.57750316 9:-0.60618619 10:-1.6433028 11:0.63610316 12:-2.3646168 13:-0.34875494 
0 5.2497777626865663 1.6389391860959726 6.0069525640003505 1:1.1227068 2:0.13129074 3:-0.1526559 4:-0.50218364 5:0.33478401 6:0.061531045 7:0.93378547 8:1.9245555 9:-0.065833272 10:-1.0017379 11:-0.62070031 12:0.70584458 13:0.11595509 
1.2443370591562812 0 0 0.16148061501463623 1:0.59043683 2:0.15898092 3:-0.93894986 4:0.33663239 5:1.4175323 6:-0.4363472 7:-0.1638505 8:-0.12430576 9:0.85884256 10:0.015742264 11:-0.081599817 12:-0.72822136 13:-0.084310111 
0 0 0 5.1458966152621697 1:1.5208788 2:-1.1478574 3:-0.83419484 4:-2.1561841 5:1.5416993 6:1.8076625 7:-0.31400441 8:1.0524835 9:-0.088108993 10:0.69464854 11:-1.2584077 12:-0.57746387 13:-0.66158908 
0 1.022076395995132 0.67641479900666335 1.7058591763899411 1:1.2204073 2:0.64044526 3:-1.5302157 4:-0.18602794 5:-0.49841672 6:2.3402129 7:-1.2387683 8:0.31497123 9:-1.085426 10:-0.30050986 11:-0.51884174 12:0.9467967 13:1.6166641 
0.028171618649559426 0 0.70217789342072845 0 1:1.2910454 2:-1.0359981 3:-1.8543008 4:-1.1302574 5:2.3131446 6:2.9476072 7:1.7292917 8:-2.8590079 9:0.99797965 10:-0.39824556 11:-1.1177182 12:-0.97510141 13:0.93492575 
0 0 3.1711284205912036 3.1965929891748179 1:0.70778371 2:-0.95351152 3:-1.2415257 4:-0.55469429 5:0.90301298 6:1.3239526 7:-1.5220538 8:0.83503912 9:-2.2012025 10:-2.027736 11:-1.4239879 12:-2.7478075 13:-0.13451135 
0 0 3.8091482804920971 5.6786687744962716 1:0.62436119 2:-1.6876056 3:-0.27855704 4:-2.0074385 5:2.2081355 6:-0.37945768 7:0.59120343 8:-1.1372459 9:-0.4475411 10:-0.41459426 11:-1.3448426 12:-1.5458843 13:-1.5530318 
0 3.4179243358787015 0 0 1:1.2471312 2:0.39942906 3:0.5388713 4:-0.01207464 5:1.2444993 6:1.7678679 7:0.71030907 8:0.30964199 9:1.1862306 10:1.5030386 11:-0.085235669 12:-0.23041855 13:-0.0008555575 
0 10 0 0 1:1.4049703 2:-0.4287004 3:0.1205727 4:-0.55136338 5:-0.70828866 6:2.4132899 7:-1.6155709 8:-0.64923774 9:-1.2807829 10:0.28872727 11:2.2821683 12:-0.48329838 13:1.1190737 
0 10 0 0 1:1.441771 2:0.052024352 3:-0.32842117 4:-0.62244906 5:-1.8446326 6:1.4612582 7:0.33892342 8:0.35199807 9:-0.50198835 10:0.22058773 11:-0.8649029 12:-1.0495882 13:2.4317373 
0 0 0 1.4445207778882165 1:1.1684884 2:-0.63424107 3:-1.757545 4:-1.5954619 5:0.53176467 6:1.2331249 7:-1.0141393 8:-1.3593008 9:-0.090648692 10:0.95349115 11:-1.7253781 12:1.5098557 13:-1.4311402 
0 10 0 0 1:1.2539904 2:0.32095073 3:0.15338328 4:-0.94798129 5:-0.65647628 6:1.0126722 7:-0.32706153 8:-0.22335237 9:0.23855218 10:-0.80933825 11:1.4151859 12:-1.4073246 13:-0.4753513 
1.2856254133367258 10 3.1906298639570534 10 1:0.64187078 2:-0.51706922 3:-1.170237 4:-1.0941928 5:-1.1720619 6:0.42653006 7:-1.5626918 8:1.0466905 9:-0.22431167 10:-0.37023538 11:-0.81427341 12:-0.91383663 13:0.68480154 
0 0 0 5.1135811964615856 1:1.1440146 2:0.18858234 3:-0.54533069 4:-0.24956468 5:1.1524427 6:2.1476392 7:-0.38183745 8:1.2311551 9:-0.87757871 10:0.33163831 11:-0.62476666 12:-1.8397142 13:1.1470304 
0 10 0 0 1:1.223007 2:0.038704527 3:-0.40629595 4:-1.1011861 5:0.10757644 6:2.0683591 7:0.87484682 8:0.57311604 9:-0.7618714 10:1.9321998 11:-0.16343912 12:1.5492056 13:0.61721805 
0 5.1231874336055503 0 4.7544714600176556 1:1.3586216 2:-0.62799146 3:-0.74232652 4:-1.350809 5:0.27977273 6:1.0330137 7:1.3371268 8:-0.12497796 9:-1.4053562 10:1.3361269 11:-1.0251782 12:-1.4626316 13:-1.813864 
0 1.9130770594238409 0 0 1:1.6021596 2:-1.025703 3:-0.98594348 4:-0.72533086 5:-0.92249337 6:1.8381968 7:-2.2831163 8:1.4897501 9:-1.4548874 10:1.8116651 11:2.0300224 12:0.48730343 13:-1.1664485 
0 0 0 4.4617921239164664 1:1.5235079 2:-0.81284542 3:-0.36254139 4:-1.1796635 5:-0.3244055 6:0.89638123 7:-0.3323213 8:0.89140112 9:0.20890153 10:1.1434069 11:2.3792187 12:-1.9077543 13:-1.671177 
0 0 0 0.41408284853727029 1:0.86117701 2:-0.93812272 3:-0.86582036 4:-1.5728481 5:-0.45104438 6:2.3239225 7:-1.9489038 8:0.18887652 9:0.31697974 10:-1.7562369 11:0.44316931 12:-1.3320892 13:-0.24187497 
0 4.0348709206561653 0.0528818896669098 0 1:1.3238952 2:-0.4330505 3:0.1302966 4:-2.1121539 5:0.23654973 6:1.3965296 7:-0.46425783 8:1.0940001 9:-1.9509867 10:2.7439131 11:1.4511502 12:1.5306687 13:-0.67740485 
0 0 0 8.47196857295984 1:1.0984955 2:-1.4716318 3:-1.2098865 4:-1.5450934 5:1.9335854 6:1.8062777 7:0.3014329 8:-0.288133 9:-1.35106 10:0.82508173 11:-0.60621103 12:-1.0110884 13:1.1113645 
0 3.1131703688203687 0 0 1:1.701105 2:0.58255722 3:-0.97508718 4:-1.6206164 5:-0.71889996 6:0.42235568 7:-0.19698195 8:0.94252945 9:-1.1607517 10:-1.6349508 11:-1.5333856 12:-0.14960227 13:0.15375382 
0 2.3791743218634966 0 0 1:0.63674877 2:0.062392584 3:-1.5475814 4:-0.23639246 5:0.74398514 6:-0.083649642 7:-0.98937417 8:0.54240694 9:-1.4543466 10:0.33101299 11:-1.1552853 12:-0.36726658 13:-1.1912222 
0 5.2455611783554552 0 0 1:1.2091019 2:-0.61572759 3:-1.4919508 4:-1.6815066 5:0.11279953 6:-0.99030725 7:-0.46254514 8:-1.0822498 9:1.3921159 10:2.2491692 11:-1.6534495 12:0.65481548 13:-0.728602 
0 2.6479346419932059 0 0 1:1.160082 2:-0.66752945 3:-1.1370522 4:-1.2316453 5:-0.53707547 6:1.5030282 7:-1.2591177 8:0.44419365 9:0.58750559 10:1.6511667 11:-0.45756092 12:-0.91838722 13:0.1479373 
0 0 0 10 1:1.2758231 2:-0.021333191 3:-1.471862 4:-0.31480548 5:0.88900534 6:1.1013531 7:-0.20144449 8:-0.47486666 9:0.12896959 10:-0.56120344 11:-0.31555196 12:-2.6735372 13:0.17202575 
0 0 0 2.103602504857514 1:0.9487628 2:-0.25629358 3:-1.8416435 4:-0.69851686 5:1.9094839 6:1.9524616 7:-0.99886028 8:0.25122746 9:-2.573093 10:0.10577975 11:-0.048582767 12:-0.61655591 13:0.54007705 
0 10 0 0 1:1.0706092 2:0.41001425 3:-1.0517069 4:-1.6591952 5:0.74111498 6:0.47418962 7:-1.2330132 8:-0.44060282 9:-1.7784828 10:0.5315336 11:0.64597408 12:1.0904514 13:-1.9567714 
0 3.8567619877239276 0 0 1:0.95932205 2:-0.020372943 3:-0.17014138 4:-1.4853208 5:-0.87699513 6:0.84906835 7:0.36792985 8:1.6439142 9:-0.76774879 10:-1.7235785 11:-0.60248665 12:-0.23949005 13:-2.1336645 
0 10 0 0.16989738006609331 1:1.1033046 2:-0.16693209 3:-0.070281889 4:-0.46719392 5:-0.15528111 6:0.095008675 7:1.0781256 8:-0.25680587 9:-0.021732422 10:1.5818921 11:0.72305006 12:-0.028004882 13:0.34554172 
0 7.4348978375771075 0 0.74902257704865149 1:1.2000575 2:-0.19288907 3:-1.2731133 4:-0.73812986 5:0.99066596 6:1.7233658 7:-0.60488748 8:-0.15951244 9:0.073671188 10:0.14850529 11:0.32670008 12:-2.5193998 13:-0.15963029 
0 0 0 0.61837591608927989 1:0.87077407 2:-0.21366453 3:-1.4989348 4:-2.085507 5:-0.46638756 6:1.1133763 7:-1.0675589 8:-1.0795777 9:1.1205274 10:0.20604453 11:2.5554861 12:0.16040873 13:0.96435826 
0 10 0 0 1:0.89497739 2:0.1986877 3:-0.28209534 4:-0.50831144 5:-1.191492 6:1.7629728 7:-0.93294194 8:0.79517557 9:-0.89376511 10:-0.5112512 11:1.0790394 12:-0.7613871 13:0.036816412 
0 0 0 5.2728995628520154 1:0.51641725 2:-0.030166525 3:-2.8631444 4:-1.1709667 5:0.16857553 6:0.54713761 7:0.25417389 8:1.023276 9:-0.34299122 10:0.72943416 11:0.17706285 12:-0.065523279 13:1.0164231 
0 0 0 10 1:1.762113 2:-1.0276929 3:-1.2399859 4:-0.57980701 5:-0.057499649 6:0.21936354 7:0.37035835 8:-0.98439008 9:0.42007662 10:0.31263068 11:-0.31423801 12:-0.58407023 13:-1.0878932 
0 0.75861367579917593 0 0 1:0.94521197 2:0.35072551 3:-1.1938849 4:-1.3442961 5:-1.126887 6:-0.03457655 7:-0.72534383 8:-1.0688257 9:-0.65265371 10:0.62095719 11:2.2613968 12:-1.0423015 13:1.0896524 
0 10 0 0 1:1.1690737 2:-0.33598424 3:-0.51146831 4:-0.56451579 5:-0.32685868 6:0.066744309 7:-2.2227205 8:-0.72425559 9:-1.6697744 10:1.5161332 11:1.4040954 12:-1.371435 13:-0.81116471 
0 0.16011040953233838 0 0 1:1.3444409 2:0.0071771507 3:-0.29879637 4:-2.093126 5:-0.26501924 6:0.65684063 7:0.35261798 8:-0.60027197 9:-0.73935485 10:0.73463564 11:-0.018723614 12:-0.64272171 13:1.1434227 
0 0 0 2.3407073792313953 1:1.2415921 2:0.057078774 3:-1.3423081 4:-1.9224606 5:1.7693245 6:0.70212352 7:-0.82363867 8:-0.1036181 9:1.0484166 10:-0.78204972 11:0.093528033 12:0.30620914 13:-0.62403934 
0.089017883088342367 0 0.49641455019038733 0 1:0.81159875 2:0.11005012 3:-0.59496741 4:-3.1352019 5:-0.85104402 6:-0.30633626 7:-0.37829707 8:0.51697396 9:-0.42024549 10:1.6535881 11:-0.71662447 12:3.4151493 13:-0.19425656 
0.18280949975513242 0 0 0.64453963896347288 1:0.72484668 2:-0.8688037 3:-1.4494152 4:-2.9189123 5:0.95126909 6:0.31010479 7:-0.18291985 8:-0.10422312 9:2.3305992 10:0.9905443 11:0.45126308 12:-0.49571859 13:-1.8112351 
0 0 0 0.34890963011996706 1:1.0576017 2:-1.234248 3:-0.61261321 4:-1.8377399 5:-0.46330786 6:3.2998022 7:-1.2106601 8:0.3368058 9:-1.6763788 10:-0.19346015 11:0.72183256 12:-0.23021259 13:1.4952122 
0 10 0 0.05269045778046013 1:1.1653112 2:0.17822112 3:-0.4277008 4:0.89433356 5:0.69449837 6:0.44196353 7:-0.75929265 8:0.205594 9:0.71662625 10:0.24756374 11:2.1944659 12:0.12171633 13:1.187759 
0 0 0 0.93169048644671992 1:1.4098761 2:-0.22686618 3:-0.80470734 4:-2.9370395 5:-1.7820902 6:0.7688344 7:-0.57958299 8:0.89239583 9:1.0865201 10:-0.32382126 11:0.6124321 12:0.39936225 13:1.0247677 
0 0 0 0.69552279634884207 1:1.9283515 2:0.046165584 3:-0.68593345 4:-2.9839179 5:0.60239662 6:0.4691928 7:1.0382597 8:0.8637446 9:-1.1509226 10:0.36897957 11:-1.9545817 12:-0.12374758 13:0.66499104 
4.1103825214248353 10 2.969919101705814 0 1:1.2861173 2:0.08167268 3:0.031384234 4:-0.025202999 5:-0.6200983 6:0.38839934 7:0.41781941 8:-0.3612698 9:-0.91308196 10:1.7485417 11:-0.3864543 12:0.3893258 13:0.47424919 
0 10 0.54201272320241589 1.1015786301097652 1:1.0599337 2:-0.77618257 3:-1.0112613 4:-0.61782385 5:-1.3872715 6:0.69056156 7:-1.6569321 8:0.69829888 9:0.41313694 10:1.0802782 11:-1.5439388 12:0.056053276 13:0.20877814 
0 10 0 0 1:1.3205992 2:-0.11992647 3:-0.12265132 4:-1.8389415 5:-0.7144357 6:-0.46677638 7:-0.81788885 8:-1.0341592 9:-0.4494372 10:0.35341416 11:0.45646806 12:-0.99631473 13:-0.80642572 
0 9.3071258275545024 0 0 1:2.0221593 2:0.62362662 3:0.094120362 4:-1.1688878 5:1.2604883 6:-0.32567612 7:-0.42617427 8:-0.22082362 9:-1.149969 10:1.7063688 11:2.4400387 12:-0.31442027 13:0.083906637 
0 0 0 1.1186582472684479 1:1.2550027 2:-0.017084745 3:-1.273216 4:-0.36327649 5:0.60532267 6:0.8913303 7:0.051298349 8:0.65095876 9:0.27455797 10:0.73738294 11:0.89197563 12:-1.0585246 13:-0.70750365 
0 1.1716113456374018 0 0 1:1.2030219 2:0.27989484 3:0.40858249 4:-0.0073438837 5:1.3516569 6:1.2781239 7:1.6290647 8:0.43274366 9:1.0061971 10:0.81032075 11:0.0053970244 12:-0.26847106 13:-0.90269071 
0 0.53792325122090423 0 0 1:0.58088746 2:-1.4492426 3:-1.6980824 4:-1.7111048 5:0.13198357 6:1.61804 7:-0.86144389 8:0.52750908 9:1.2958758 10:1.5025132 11:-2.3910459 12:1.7747136 13:-0.99698682 
0 3.5465697523919504 0 0 1:1.1857765 2:0.20932816 3:-0.99841172 4:-1.2231142 5:-0.7036039 6:0.6117589 7:0.26711354 8:0.30081424 9:1.5237317 10:-1.9140696 11:0.80482402 12:-1.1941917 13:0.16556237 
0 3.2529480198990535 0 0 1:1.5467352 2:-0.43025138 3:-0.53299118 4:-0.76884373 5:-1.8954356 6:1.0564381 7:-0.1212682 8:-0.51475033 9:-0.70168407 10:-0.85126463 11:0.76648504 12:-0.83829501 13:0.60892538 
0 0.31762378784498468 0 1.0834375953049138 1:0.75363552 2:-0.26880789 3:-1.4863672 4:-1.6263708 5:-0.75958226 6:1.5065762 7:-0.35258902 8:-0.69276166 9:0.77992518 10:1.6445936 11:2.0458826 12:-2.1634181 13:0.25067896 
0 0 0 7.2556628817447804 1:1.369444 2:-0.54578739 3:-2.0321097 4:-0.90599513 5:-0.044931521 6:0.75144823 7:0.071144077 8:-1.0473349 9:0.17183234 10:-0.99301464 11:-0.15827562 12:-0.71406029 13:1.4566179 
0 0 1.7565783897107738 10 1:1.4298801 2:-1.2337486 3:-2.1452217 4:-1.36897 5:1.610068 6:1.0434608 7:-0.6235974 8:-0.41418018 9:0.41892129 10:-1.3702428 11:-1.0623811 12:0.0090263575 13:-1.9960609 
0.22191011164168431 10 0 0 1:1.4546885 2:0.7769099 3:-0.63603967 4:-1.0990257 5:-1.242827 6:-0.039588655 7:0.61057636 8:1.8245578 9:-0.096331774 10:0.33066381 11:-1.2346309 12:-0.87865923 13:-0.8115157 
0 0 0 6.7917263052097008 1:1.3992127 2:-0.66400594 3:-0.55763789 4:-1.0499348 5:0.2778225 6:-0.18226873 7:-1.3924564 8:0.64076078 9:-1.2467747 10:0.75938366 11:-0.94766121 12:-1.431876 13:0.21747868 
0.013199829381852827 10 0 0 1:1.3830603 2:0.90621015 3:0.1263217 4:-0.97531412 5:0.017089392 6:0.36907342 7:0.55228338 8:-0.65021695 9:-0.3883309 10:0.39943078 11:-0.21940444 12:0.72141738 13:0.21991993 
0 10 0 0 1:1.3399196 2:0.23694791 3:-0.61811857 4:-1.9751077 5:-0.26254903 6:0.052513128 7:-1.4507792 8:1.1779324 9:-1.5164798 10:1.2532648 11:-0.78198114 12:0.70841918 13:-0.82128593 
0 8.0166231150374365 0 0 1:1.2615067 2:0.091226445 3:-1.1256806 4:0.1354466 5:-0.79171001 6:2.1212525 7:-2.1536725 8:0.19417822 9:-0.47350621 10:2.2587597 11:-0.66147666 12:-0.37177022 13:0.73060072 
0 7.4479459855976735 0 0 1:1.1599334 2:0.19512742 3:-0.41534724 4:-0.57146835 5:-0.64212996 6:1.3215415 7:-0.28721762 8:-0.45241385 9:0.91186333 10:0.54929142 11:0.63691062 12:-0.19403532 13:-1.022158 
0 1.0419933642394286 0.03031910817893679 1.9693180104092696 1:1.4065142 2:-0.56095239 3:-1.4527245 4:-1.6384585 5:-0.068046764 6:0.75910099 7:-0.72480951 8:-1.0768913 9:0.73562932 10:1.4085296 11:1.423491 12:-4.0423553 13:1.9434942 
0.20867080257643797 10 0.37310145560427643 0 1:1.5487309 2:-0.36276579 3:0.053503026 4:-1.2192713 5:-0.2188752 6:-0.076480827 7:-0.7675933 8:0.25195545 9:-1.1808761 10:-0.86118867 11:3.4721853 12:0.015372498 13:-0.27240797 
0.32869443751818406 0 0.502991431731862 0.20453537633742538 1:0.72696527 2:-0.99821055 3:-0.54619435 4:-1.9476414 5:2.6143763 6:1.075334 7:0.88246231 8:0.93055599 9:2.3100929 10:0.5708454 11:-1.6809472 12:0.1268803 13:-2.2442167 
0 0 0 6.7388976310988538 1:1.2741892 2:-0.48236231 3:-1.1581409 4:-1.0715184 5:0.8476948 6:0.62306536 7:2.7913851 8:0.38969644 9:0.96941053 10:0.2724916 11:-0.49792245 12:1.3210407 13:-0.30289179 
0 0 1.6182163932392193 10 1:0.95195917 2:-1.0490192 3:-1.8012968 4:-0.5241544 5:0.99234149 6:2.9264556 7:0.13495525 8:-0.50768416 9:1.3454162 10:-0.90883712 11:0.59019889 12:-0.77941364 13:0.81048086 
0 0 0 4.3924068567721806 1:-0.07517691 2:0.13503341 3:-0.51526645 4:-0.39560459 5:0.92195985 6:3.0374998 7:1.0037095 8:-0.52538108 9:1.3597279 10:-0.4514581 11:-1.1521892 12:-0.70998633 13:0.46023403 
3.3755180487679048 1.1885514072235459 1.5750722283890402 0.77942391781679199 1:0.52765926 2:1.0699499 3:-0.29268105 4:-0.82823701 5:-0.66786896 6:0.74821064 7:0.56050408 8:-0.30170582 9:1.7836716 10:-0.58898776 11:0.4543236 12:0.78496772 13:-2.95311 
0 10 0 0 1:1.3197101 2:-0.1525858 3:-1.5034966 4:-1.3725126 5:-0.3688105 6:1.3015832 7:-1.417621 8:-0.14183045 9:-2.2159266 10:2.7602534 11:0.32270742 12:0.85307737 13:0.55087527 
0 7.0542824353681155 0 0 1:1.6481935 2:0.48679838 3:-0.14526257 4:-1.2898002 5:-1.444402 6:0.42768503 7:0.57482362 8:0.40486784 9:0.80367884 10:0.64908001 11:0.32317982 12:0.2738006 13:0.73800443 
4.9335998451335543 6.5618259040428537 2.0009963307411689 0 1:0.91048462 2:-0.12437495 3:-0.67492639 4:-0.88438112 5:-1.0583808 6:1.6741782 7:-0.040923067 8:-0.41335385 9:-1.2990502 10:0.59148214 11:-2.083814 12:0.44636732 13:-0.52086532 
2.7557287797010175 10 0 0 1:1.3872418 2:-0.25165694 3:0.023782705 4:-0.74823931 5:-1.0945103 6:0.13815239 7:0.013650259 8:-0.015721196 9:-0.10732197 10:-0.66044805 11:-0.090038353 12:-1.2747156 13:-1.2000485 
0.99237472862659759 4.0676679043310937 0.17331805110824788 0 1:1.2584938 2:0.80527311 3:-0.84676781 4:-0.54713744 5:0.0036067193 6:-1.3307227 7:1.0921184 8:-1.9958263 9:0.087635236 10:1.9260907 11:-0.18767326 12:-0.43322841 13:1.2305126 
0 10 0 0 1:1.7095014 2:0.40452193 3:-0.76604357 4:-1.092356 5:-0.085929729 6:0.41596203 7:0.0062977003 8:-0.16728087 9:-1.2577465 10:-0.40560374 11:-0.041253948 12:-0.054347356 13:-0.2084954 
0 10 0 0 1:1.2756621 2:-0.33728695 3:-0.69369289 4:-1.9198136 5:0.38471335 6:1.4869277 7:-0.70885874 8:-0.15271567 9:-1.8723748 10:1.4365138 11:-0.54337857 12:0.54583825 13:-1.1790122 
0 6.9318107152630688 0 0 1:1.5362675 2:1.0454289 3:-0.51007775 4:-0.91716248 5:-0.81235238 6:1.745274 7:0.09273708 8:1.5599496 9:-0.13655932 10:0.507067 11:-0.72294083 12:-0.68346212 13:-0.12358269 
0 10 0 0 1:1.6359614 2:0.57543676 3:-1.0480434 4:0.12425293 5:-0.67355157 6:0.94734849 7:-1.2110424 8:0.045238282 9:-1.5558408 10:0.47436229 11:1.0375742 12:0.99748808 13:0.51804532 
0 7.4309134445969915 0 10 1:1.1156997 2:-0.96504681 3:-1.4637749 4:-1.3832875 5:0.92322895 6:-0.45927791 7:-0.53050555 8:0.73481035 9:0.079010563 10:-0.10529495 11:-1.315558 12:0.6012713 13:-0.58468138 
0 0 0 4.9183340759579401 1:1.4879774 2:-0.89693168 3:-2.1129837 4:-0.80786889 5:0.55412615 6:1.3477797 7:0.22059402 8:-2.4093569 9:0.65298792 10:-1.5236115 11:-1.7697561 12:-2.6377905 13:0.41578798 
0 8.1705175475502472 0 0 1:1.1342718 2:-0.041411719 3:-1.4584185 4:-1.7534866 5:-0.77220672 6:1.9374691 7:-1.8859852 8:-0.13543005 9:-1.4202224 10:-0.57823314 11:-0.32307152 12:0.66767298 13:-0.095466398 
0 10 0 0 1:0.5042865 2:-0.84408849 3:-1.2291157 4:-1.6021064 5:0.37127102 6:0.048985282 7:-1.1755845 8:-0.30281057 9:0.44269429 10:2.2901794 11:0.12439873 12:-0.17199654 13:-0.53205207 
0 10 0 0 1:1.2007185 2:-0.11562322 3:-1.6056837 4:-0.96795995 5:-0.11233051 6:0.30480938 7:-1.7063752 8:-1.1738736 9:-0.73830088 10:0.96387307 11:-1.0072611 12:0.5149576 13:-1.3728422 
0 2.1327065164691694 0 0 1:1.2278409 2:0.019600898 3:-0.69279517 4:-2.1667206 5:-0.89955653 6:-0.49766367 7:-0.91938515 8:1.9320282 9:-0.14058992 10:1.4245062 11:1.0405509 12:0.31660851 13:0.052340009 
0 2.8276749431870529 0 0 1:1.4447446 2:-0.24276966 3:-0.75378132 4:-1.6430308 5:0.78962638 6:1.2461852 7:-0.99423176 8:0.49615632 9:-1.0079196 10:2.0772766 11:0.82953966 12:0.40272711 13:0.94320651 
0 9.787271104236801 0 5.0888284944941464 1:1.4227976 2:-0.53060681 3:-0.88722053 4:-1.2419358 5:0.067532518 6:1.3241647 7:0.62166512 8:-0.8909272 9:-0.34138659 10:2.5742755 11:-0.97736889 12:0.74157947 13:-0.59156226 
1.3420692211495344 0 0 0 1:0.60559259 2:-0.81390639 3:-0.67186987 4:-3.0503801 5:1.327908 6:0.055768592 7:-0.24767474 8:-1.2275165 9:1.3419777 10:0.16048055 11:0.61987945 12:0.17522368 13:-0.73012545 
0 0 4.0220163029015756 0 1:0.68683473 2:-0.94394163 3:-2.5291073 4:-1.5220765 5:1.9845704 6:1.2180863 7:0.91023434 8:-1.3090898 9:1.4453616 10:-1.7815416 11:0.72727043 12:-1.3559976 13:-0.9809696 
0 0.77021837128456427 0 0 1:1.2458381 2:0.31173483 3:-1.1361157 4:-1.9012332 5:-0.9280593 6:1.3775428 7:0.39269949 8:0.53872946 9:-1.1556979 10:-1.9994987 11:-2.0081254 12:-0.55874719 13:-0.52426667 
0 2.8717220837625899 0 0 1:1.3070813 2:-0.71110626 3:-0.318152 4:-1.4752952 5:-0.75663382 6:0.51205825 7:0.016027135 8:-1.0372197 9:-1.4158116 10:0.19276329 11:-0.1832126 12:0.83441973 13:-2.0474588 
2.9636455337360856 4.7989123881280324 4.993135056688879 10 1:1.136649 2:-1.0888452 3:-0.34150704 4:-0.64155507 5:-1.5961958 6:-0.049895792 7:-1.4646898 8:0.34518541 9:-0.046559499 10:0.90898212 11:-1.0420681 12:1.7264847 13:-0.11948632 
0 9.514509099813564 0 0 1:1.2436524 2:-0.29269909 3:-1.3894581 4:-1.5728347 5:-1.5419213 6:2.5116743 7:-0.91169107 8:-0.46904436 9:-0.88576432 10:-1.3343544 11:-0.048735298 12:1.3347764 13:-1.8220959 
0 7.3264050543357584 0 0 1:1.2302009 2:0.037248844 3:-1.0253745 4:-1.479578 5:-0.6509402 6:0.1635239 7:-0.95774365 8:-0.27594527 9:-0.36272349 10:1.2743607 11:0.92107965 12:1.8724042 13:0.69407593 
0 6.6542959961331496 0 0 1:1.3171863 2:-0.2434944 3:-1.608847 4:-0.64203511 5:0.15158217 6:0.7209301 7:-0.97618266 8:-0.91382212 9:0.62193695 10:0.95118175 11:0.31019569 12:-0.69494873 13:-2.2231662 
0 10 0 0 1:1.3335305 2:0.43365959 3:-0.708622 4:-1.9609986 5:-1.1661007 6:0.14264315 7:-0.56948621 8:0.67731175 9:-0.62040251 10:-0.28425603 11:-0.23282648 12:0.74451969 13:-0.60410119 
0 9.7101011474062631 6.8005682295656182 5.1722161615536439 1:1.4768038 2:-0.31446196 3:-0.02081714 4:-0.67543456 5:-0.5228908 6:0.54143435 7:1.0464541 8:0.20303926 9:0.76520654 10:2.1655427 11:-0.0044239493 12:0.20739306 13:-0.38506208 
0 10 0 0 1:1.4734956 2:0.89679515 3:-1.440479 4:-0.67780878 5:-0.66923664 6:0.63761399 7:-0.89331551 8:0.020860084 9:-1.3282854 10:0.33689265 11:0.41663258 12:-0.057431986 13:-0.039753174 
1.2826555835598616 0 0 0 1:0.64929995 2:-0.23745227 3:-0.63953599 4:-1.4300394 5:-1.1709793 6:0.83269055 7:-2.1503361 8:1.2821593 9:-0.072830259 10:0.72132477 11:-0.83653118 12:-1.923698 13:0.3501605 
0 10 0 0 1:1.4765705 2:0.0055007458 3:-0.80862866 4:-0.55062258 5:0.95171863 6:0.82575846 7:-1.4543953 8:-0.42905116 9:0.09378265 10:2.5412987 11:1.2874284 12:0.046083737 13:0.38110097 
0 10 0 0 1:0.86512744 2:0.39128183 3:-0.17168571 4:-0.082911247 5:0.71656309 6:2.4783407 7:-0.48869627 8:0.67424029 9:-0.58944524 10:0.75901426 11:0.91314779 12:-0.89523165 13:1.1982922 
0 0 0.87411723890337689 3.9345429722570708 1:1.1904163 2:-0.57122994 3:-1.2358373 4:-0.84432222 5:0.60984871 6:0.94403585 7:0.040940732 8:-0.053340622 9:-1.4275932 10:-1.117191 11:0.61880864 12:-2.2768476 13:1.8112478 
0 10 0 0 1:1.5368868 2:-0.50530725 3:-0.56110122 4:-0.55833673 5:0.024630066 6:0.65747014 7:-0.24225793 8:-1.2355032 9:1.6745497 10:1.181077 11:-0.17326304 12:-0.96295941 13:-0.52014945 
0 8.1514854710227169 0 0 1:1.238455 2:-0.5873781 3:-1.300058 4:-0.58117304 5:-0.58462131 6:0.58400573 7:-0.70184417 8:-1.3439097 9:0.70152364 10:1.8834159 11:1.3640503 12:-0.31871412 13:-0.16823153 
0 10 0 0 1:1.0039851 2:0.17612004 3:-0.72176712 4:-0.74053447 5:-1.0913067 6:0.285623 7:-0.25672005 8:-2.477519 9:1.1487642 10:-0.59152107 11:2.1689035 12:-0.36687213 13:0.54969283 
0 0.79273895677056472 0 0 1:1.2302697 2:0.14702117 3:-0.93848217 4:-1.740763 5:-1.1909858 6:2.4816174 7:-0.33115556 8:-0.87233905 9:-0.6670914 10:-1.2547806 11:-0.2889439 12:-2.7048264 13:-0.053113485 
0 0 0 10 1:0.99174646 2:-0.56690357 3:-1.0670644 4:-0.19289214 5:0.65957094 6:0.62035335 7:0.51514906 8:0.040017588 9:0.52418076 10:0.16876847 11:0.84720569 12:0.64151487 13:0.079343532 
0 10 0 0 1:1.3430508 2:0.26479704 3:-0.10725574 4:-1.0698824 5:-0.14793145 6:-0.59304627 7:-2.7216802 8:-0.46345212 9:-0.03764653 10:1.9043647 11:-0.062099839 12:0.58474719 13:-0.57714828 
0 10 0 0 1:1.376296 2:-0.28224036 3:-1.5713842 4:-1.8110581 5:-0.35934328 6:-0.67361509 7:-0.8693125 8:-0.68227338 9:-0.25519596 10:0.5420179 11:-0.38391948 12:0.80465666 13:-1.4023337 
10 2.3719264609143056 7.5480652510364168 0 1:0.50671976 2:-0.62995342 3:1.149654 4:-0.41573525 5:-2.1026572 6:-2.5852748 7:-0.73271035 8:0.2514716 9:-0.92221542 10:0.72239724 11:0.59426565 12:0.0049413874 13:1.0523668 
0 8.7968677217601332 0 0 1:1.1870813 2:0.85309004 3:0.24058768 4:-0.41333825 5:0.082500562 6:1.5479549 7:0.9371614 8:0.36223139 9:0.2591051 10:0.33400182 11:0.37990914 12:0.57193752 13:-0.45073159 
0 10 0 0 1:1.6255491 2:0.63320142 3:0.045827987 4:-1.5702583 5:-1.4704071 6:1.6655142 7:0.29725525 8:0.026443689 9:0.24561246 10:-1.2416736 11:0.18645738 12:-0.14916391 13:0.81979573 
0 10 0 0 1:1.7819922 2:0.58118637 3:-0.70434642 4:-0.93686463 5:-0.092327849 6:0.6652965 7:0.36219049 8:-0.57909963 9:-1.0169336 10:-0.18036055 11:0.51430952 12:0.38270043 13:-0.20083524 
3.4919492561265093 0 0 0 1:1.1063148 2:-0.53243248 3:-0.46727624 4:-1.7995493 5:-1.6695922 6:0.69595743 7:-0.40417223 8:-0.094331429 9:0.12631692 10:-0.78649153 11:-1.0394625 12:0.9148343 13:-2.4648767 
0 10 0 0 1:1.4557711 2:0.34914581 3:-1.426677 4:-1.0446778 5:0.015633868 6:2.1026436 7:-0.23507364 8:0.14271277 9:-1.3448009 10:0.98943308 11:-0.070750659 12:1.1445791 13:-1.2381188 
0 8.8902133208114886 0 0 1:1.3636159 2:0.6263012 3:-1.2893753 4:-0.69778142 5:-1.1119536 6:0.74815096 7:0.88383518 8:0.1034255 9:-0.28493762 10:-0.76452241 11:1.7379674 12:-0.49833844 13:1.4039324 
0 2.7596551067475734 0 0 1:1.2168896 2:-0.5098353 3:0.078531402 4:-1.5099975 5:-0.24683698 6:1.0758669 7:0.42759478 8:-0.095705427 9:1.3519503 10:-1.8926675 11:2.2886501 12:-1.5120294 13:0.7229067 
0 0 0.71419051993390692 0 1:1.2815975 2:-0.089967058 3:-1.0503197 4:-1.0456653 5:-1.6968075 6:2.3303334 7:1.0332069 8:1.5044674 9:-0.69187776 10:1.0954098 11:-1.3022256 12:-2.3364684 13:2.3379346 
0.71192601180693893 1.3071830936574489 0 0 1:1.0216789 2:-0.41477978 3:-0.36417863 4:-1.3528518 5:-0.53295368 6:0.6438696 7:-0.84593792 8:-1.2012063 9:-2.2432312 10:-0.72818383 11:-1.4700536 12:-0.25305213 13:-1.3949945 
0 10 0 0.66711339331267672 1:1.3396866 2:-0.72528532 3:0.49053353 4:0.11167686 5:-1.3859066 6:1.1519865 7:-0.79378037 8:0.27773589 9:0.62432784 10:0.83860545 11:1.9094122 12:-0.081653571 13:1.208855 
0 10 0.13254357686799378 7.8403952138578692 1:0.75015456 2:-0.39928592 3:-1.6347559 4:-0.33171248 5:-0.75615682 6:-0.2988821 7:-1.4699603 8:0.80695927 9:1.2593057 10:1.8982745 11:-0.30886693 12:0.7688346 13:0.80931813 
10 1.7251653806036988 0 0 1:0.13498241 2:-0.37094238 3:0.86158447 4:-1.5936604 5:-2.394606 6:0.64100541 7:-1.2928943 8:-0.1252965 9:-0.96331424 10:1.7627575 11:-1.4988827 12:-0.78498943 13:-0.20508761 
0 6.7858943173427955 0 0 1:1.2684043 2:-0.25199151 3:-1.8119767 4:-1.1184548 5:-0.64993681 6:1.071077 7:-1.8683489 8:0.12153533 9:-1.1563733 10:2.1792025 11:-0.76428936 12:-0.69706011 13:-0.30417475 
0 10 0 0 1:1.004862 2:-0.096053654 3:-0.5407165 4:-0.34134418 5:-1.4751854 6:1.8793498 7:-1.0089083 8:0.36979459 9:-0.94300489 10:-0.79104849 11:1.2164859 12:-0.31319748 13:0.45508022 
0 0.13656049543538135 0 0 1:1.5050018 2:0.21945978 3:-1.0999799 4:-1.1955972 5:-0.97610669 6:2.5189644 7:-0.83630258 8:-0.053570159 9:-0.4890896 10:-0.39339572 11:-0.24397569 12:-0.64758792 13:-1.8635332 
0.20269391137656409 0.09210719762915133 3.3929638419533612 0 1:1.2644704 2:-0.53623284 3:-1.0422564 4:-0.92160652 5:0.91913356 6:0.61299534 7:2.7933748 8:0.82343519 9:0.82076662 10:0.4153417 11:0.012445436 12:1.8511588 13:-0.61491595 
0 10 0 0 1:1.464675 2:0.51655852 3:-0.46612259 4:-0.61539794 5:-0.43522771 6:0.19985398 7:0.41672292 8:0.091825597 9:-0.04650048 10:-0.72644115 11:-0.1382945 12:-0.049225864 13:-0.15395691 
0 6.359705277454041 0 0 1:1.4359082 2:0.95359388 3:-0.79922589 4:-0.9853363 5:-0.59764214 6:0.3138239 7:0.19240211 8:0.28366278 9:0.38941445 10:0.070159673 11:1.4349025 12:0.30386001 13:2.1796867 
0 2.7203482911133752 0 0 1:0.87945635 2:-0.13110681 3:-1.0445992 4:-2.3335979 5:-2.32305 6:-0.25950285 7:-0.82335794 8:-1.5538656 9:0.74101874 10:-0.10684059 11:2.5238375 12:-1.8719471 13:2.8579504 
0 0.42468847496911399 4.4462399682091958 2.5236537834983563 1:1.3059211 2:-0.57037323 3:-1.3468396 4:-0.46366286 5:-0.52838886 6:-0.15240872 7:2.0574437 8:0.30908008 9:0.61272964 10:-1.1076685 11:-0.64357687 12:-0.47604591 13:-1.1312533 
0 2.9188840699411869 0 0 1:1.4600347 2:-0.53188749 3:-1.5695139 4:-1.2844303 5:-0.037338449 6:-0.49053747 7:0.85017554 8:-0.32322507 9:0.39560353 10:-0.19525787 11:0.30299988 12:1.3589957 13:-0.44831703 
0 10 0 0 1:1.3847636 2:0.17358488 3:-0.89023391 4:-1.1455653 5:-0.58729465 6:1.829314 7:-0.36308378 8:-0.091614317 9:0.0025625134 10:-0.39682641 11:-0.26383516 12:0.057165549 13:-1.0400888 
0.63140601041910605 0.20567351591444413 0.67628705900289265 0.58704046766907059 1:1.1522188 2:-0.8400126 3:-1.1439933 4:-1.2499381 5:-0.13963164 6:-0.033099528 7:3.0437091 8:-1.8058973 9:0.8766051 10:-2.6120613 11:-2.0733414 12:1.4027069 13:0.11519799 
0 10 0 0 1:1.2001583 2:-0.039500782 3:-0.9202677 4:-1.3127467 5:-0.21735019 6:0.61655454 7:-0.29039763 8:-0.83832908 9:-1.302628 10:1.3190807 11:-0.19954158 12:2.0997892 13:-0.10394408 
0 0 0 6.5409981314918895 1:0.81702808 2:-0.70516617 3:-1.0090106 4:-2.0757384 5:1.4535005 6:-0.40871591 7:0.64124211 8:-0.39522642 9:-0.67329187 10:0.71597461 11:0.23154473 12:-1.3629449 13:-1.1846867 
1.4111445929921631 5.7221882500639669 0 0 1:1.1241376 2:-0.4146426 3:0.26151662 4:0.33028441 5:-1.474084 6:0.89229234 7:-1.1151873 8:-0.040912562 9:1.3078063 10:1.2534286 11:2.8241861 12:-1.7333727 13:0.832119 
0 6.215282653313186 0 0 1:1.337985 2:-0.033969483 3:-0.22035704 4:-2.6343122 5:0.42259903 6:0.0094024556 7:-0.94641712 8:0.46261411 9:-0.012936065 10:0.94068211 11:0.0073937941 12:0.35729018 13:-0.90611751 
0 10 0.36738020084067918 7.0520721496541601 1:0.92060935 2:-0.83098052 3:-1.1988067 4:-1.0501287 5:-0.23365093 6:-0.10248994 7:-1.9184153 8:0.16699375 9:1.3470239 10:2.0335902 11:0.22976936 12:-1.0343449 13:1.9534602 
0.046527574700603425 0 0 0 1:1.1126508 2:-1.0184305 3:-1.339476 4:-1.1788835 5:1.4396401 6:0.28305387 7:0.66206813 8:-0.66437341 9:-3.2343418 10:3.3805764 11:-1.650527 12:-2.2038067 13:-0.016975079 
0 0 0 2.9880200510108188 1:0.86976977 2:-0.83908316 3:-1.2115994 4:-0.87519526 5:0.54795349 6:1.1705579 7:-1.7212126 8:0.77303686 9:-2.0001067 10:-1.725384 11:-0.48725353 12:-2.4818233 13:-0.053781629 
0 0.27713810834509045 0 0 1:1.3203905 2:0.34129292 3:-1.3036169 4:-1.7192034 5:2.5504946 6:0.41713209 7:0.30384987 8:0.60904792 9:-0.12067592 10:0.88150391 11:0.29804887 12:2.0621507 13:-1.922967 
0 0 0.47768945580102767 0 1:0.85798861 2:0.31669397 3:-0.39546884 4:-1.6190518 5:-2.2218207 6:0.94706387 7:-0.76073358 8:-0.38123138 9:0.73841198 10:-2.0175533 11:1.7542099 12:-2.2764008 13:0.81695384 
4.3480407768328382 0 10 10 1:0.64951794 2:-1.0960557 3:-0.42791605 4:-0.39911205 5:-0.93893758 6:0.60468527 7:1.7702369 8:-0.17356933 9:-1.1117495 10:-0.46520824 11:-0.50360921 12:-1.0445819 13:-1.4809627 
0 6.3042928847444992 0 0 1:1.5372592 2:1.0905599 3:-1.3497105 4:-0.4243001 5:-0.37769036 6:1.4072994 7:-0.1924155 8:-0.11731136 9:-0.4438085 10:0.74919305 11:0.78378803 12:0.83373956 13:-0.351394 
0 7.7016590845555051 0 0 1:1.3761519 2:0.11595487 3:-1.4733571 4:-1.297276 5:-1.3275642 6:0.97203327 7:-1.523417 8:-0.33880348 9:-2.118729 10:1.396046 11:-0.41925534 12:-0.91790082 13:1.2764912 
0 10 0 2.068471348335688 1:0.94248226 2:-0.29074935 3:-1.1467286 4:-0.19232366 5:-0.41697625 6:-0.24453368 7:-1.6436984 8:0.42576097 9:0.65310707 10:1.0858805 11:-1.2657518 12:0.93386664 13:-1.1326041 
0 0 0.96594756835627615 10 1:0.92567738 2:-1.0098171 3:-2.1086347 4:-0.783907 5:0.97298874 6:1.8002488 7:-0.5717604 8:0.3685091 9:-0.097214274 10:-0.19049452 11:-0.88589612 12:-2.6300309 13:-0.93141325 
0 0 0 1.4615243807676115 1:0.97896912 2:-0.93779266 3:-0.60069649 4:-1.3047875 5:1.8115185 6:2.9358634 7:0.12437201 8:-1.5970726 9:-1.4873699 10:0.80729903 11:-1.4876263 12:0.005374847 13:-1.033388 
0 2.0069750082758748 1.2430297344589287 4.7800932570498453 1:0.87561999 2:-0.26351798 3:-1.641005 4:0.056126682 5:-0.66624072 6:-1.0742242 7:-0.92997444 8:-0.90553897 9:-0.97950222 10:-1.4954862 11:0.3352679 12:0.5407499 13:0.24956175 
0 10 0 0 1:1.1769973 2:-0.73700272 3:-0.16367505 4:-0.96565073 5:-0.69088213 6:-0.20376062 7:-1.309118 8:-0.27968203 9:-0.11106808 10:2.4210381 11:-0.77851785 12:1.3324456 13:0.090284575 
0 5.9554581158094395 0 0 1:1.338057 2:0.024057909 3:-0.56770169 4:-1.0158969 5:-0.57682704 6:-0.12902517 7:-0.027157065 8:-1.4314141 9:0.3071256 10:0.26850417 11:0.39111018 12:-0.51408335 13:0.31221644 
0 1.7988605101908632 0 0 1:1.8727122 2:0.25934971 3:-0.83874536 4:-0.96620776 5:0.081543474 6:0.98635459 7:0.0093483503 8:-0.70930691 9:-2.3676121 10:-0.86745395 11:-0.82640556 12:0.70556529 13:0.81422233 
0 0 5.8592697504773001 5.9656239920101601 1:0.71257198 2:-0.68041278 3:-2.1872049 4:-0.53379214 5:0.22563421 6:0.38909435 7:0.46137067 8:-1.6974279 9:0.5295013 10:-1.5581857 11:-0.86192872 12:-0.81223107 13:0.96024682 
0.062831835119043472 4.7491220321219636 0 0 1:1.7200085 2:-0.046303376 3:-1.1953992 4:-0.45478116 5:-0.89497601 6:2.5304814 7:-1.3234908 8:-0.43550612 9:0.0063585799 10:1.0344794 11:-0.06617864 12:-0.70589154 13:-2.2698735 
1.9145826834751887 10 0.84483304781696567 0 1:0.61425491 2:0.32253991 3:-0.018935682 4:-1.3713077 5:-1.8347427 6:0.49177821 7:-1.2751369 8:-0.019985266 9:0.7170479 10:-1.2474621 11:1.0060619 12:0.095129712 13:2.5878889 
0.41915838440292835 1.6124766206061785 0 2.3740370693977613 1:0.79358784 2:-0.66741068 3:0.24622746 4:-1.6816896 5:-0.53367282 6:2.3809815 7:-3.394318 8:0.5209205 9:0.67379118 10:1.6323612 11:1.0748371 12:-2.7145489 13:-0.51340326 
0 4.8687194175424366 0 0 1:1.1114688 2:-0.47102571 3:-1.7380592 4:-2.0603523 5:0.84392346 6:0.35348747 7:0.25854113 8:-0.23721869 9:-1.1988185 10:1.9868963 11:0.12630778 12:0.309825 13:-0.65023719 
0 10 0 0 1:1.0227321 2:0.40266267 3:-0.7379878 4:-0.65194632 5:0.28212243 6:0.15712827 7:-0.69523882 8:-1.1303028 9:-0.5462605 10:-0.81789627 11:-0.86626244 12:-0.89898349 13:0.043767962 
0 10 0 0 1:1.2274078 2:-0.039333007 3:-1.1105247 4:-1.6067502 5:-0.48277499 6:0.25369074 7:-0.9824794 8:-0.5878346 9:-0.85992546 10:1.1487331 11:0.87021027 12:1.7131499 13:0.25508329 
0 0 0 0.6144864980162269 1:1.2571042 2:-0.0028141283 3:-1.4464392 4:-1.1209553 5:1.03246 6:2.270549 7:0.49952652 8:-0.54251624 9:-0.98085234 10:-1.1728223 11:-0.015044462 12:0.46892314 13:-1.5278748 
0 10 0 0 1:1.7105431 2:0.52191462 3:-0.098862783 4:-1.2015674 5:-0.71302673 6:0.56531407 7:0.91410246 8:-0.86196701 9:-1.4456414 10:0.088592305 11:1.0044902 12:0.90951936 13:0.91199256 
0 8.1604317824192449 0 0 1:1.4333828 2:0.069383999 3:-1.2608064 4:-2.0953406 5:-1.9637919 6:0.82942256 7:-0.24905815 8:-1.047947 9:-0.31104578 10:-0.068644645 11:2.3536596 12:-0.67031986 13:2.854855 
0 5.9277258507195736 0.36060328293559391 2.3491641147997027 1:1.6610015 2:-0.026922067 3:-0.94640612 4:-1.2284174 5:-1.4786015 6:-0.39023639 7:0.5735796 8:1.1730615 9:-2.4249619 10:-1.3298885 11:-0.050867349 12:-1.6734603 13:-0.13688979 
0 10 0 0 1:1.2221104 2:0.37650324 3:-0.7810766 4:-1.0109392 5:-1.3123687 6:-0.37169883 7:-0.69768537 8:-0.78064703 9:-0.81333106 10:0.086000849 11:-0.21638883 12:2.2651539 13:1.3060312 
0.69553985152794218 4.3451466707722153 0 0 1:0.92834183 2:0.58215112 3:-0.034465267 4:-0.55108259 5:1.0880364 6:1.1253617 7:0.40423715 8:-0.11475831 9:1.4060447 10:1.5412165 11:0.41725621 12:1.4334774 13:-1.0122088 
0.70395559827064957 0 0 0 1:1.3015108 2:-0.59974252 3:-0.24271256 4:-2.4795907 5:0.056515244 6:0.61062851 7:-0.11162946 8:-1.0024865 9:-0.81020612 10:0.82699213 11:-1.6242763 12:0.2897335 13:-0.45407331 
0 10 0 0 1:1.1305627 2:0.1969017 3:-0.80897475 4:-0.34181458 5:-0.90085707 6:1.1980981 7:-2.281869 8:-0.61971286 9:-1.2087995 10:1.0797139 11:1.8916522 12:-0.23536645 13:2.1661567 
0 10 0 0 1:1.4802649 2:1.0133175 3:-0.89916703 4:-1.6125497 5:-1.802291 6:-0.92806249 7:-0.32941463 8:-0.020832696 9:-0.42213177 10:-0.89399458 11:1.0352464 12:-0.5394284 13:1.6391724 
0.38721348919866977 0 0 0 1:1.4397138 2:-0.64571834 3:-2.2540635 4:-2.589227 5:3.626175 6:1.1618239 7:-0.98990688 8:-0.72487973 9:-0.60387591 10:-1.4030373 11:0.58192245 12:-2.5680083 13:0.39139675 
0 10 0 0 1:1.2858115 2:-0.12162798 3:-1.7838142 4:-0.11625911 5:-1.327001 6:0.64729052 7:-1.2429837 8:-1.1651118 9:-0.66516644 10:1.0071935 11:0.58262359 12:-0.64426235 13:0.23824889 
0 10 0 0 1:1.6227397 2:-0.28725613 3:-1.4307485 4:-0.11216103 5:-0.97894295 6:0.27150548 7:-0.99180234 8:-0.080176434 9:-1.0729899 10:1.2823598 11:1.1836985 12:1.6314533 13:-0.64470104 
0.093253903762522836 0 0 0 1:0.61823644 2:-0.97164296 3:-0.57867276 4:-1.4444194 5:0.23275372 6:-1.4170867 7:-0.87336811 8:0.58324679 9:-1.5090256 10:0.9125186 11:-1.417286 12:-1.1170306 13:-0.91451732 
0.34721307599313084 0.85671160699768356 0.7050296189946953 0.05777767820237082 1:1.4111277 2:-0.67616388 3:-1.4320211 4:-2.7111129 5:0.27604056 6:-0.99752143 7:1.6742301 8:-0.57209802 9:-3.6658435 10:2.268807 11:-0.050295558 12:0.035650401 13:0.60716864 
0 10 0 0 1:1.444085 2:0.34528266 3:-0.28761522 4:-1.0751566 5:0.31391162 6:1.123409 7:-0.41455533 8:-0.62546237 9:-1.3445598 10:1.2781074 11:0.52381907 12:0.80561768 13:1.4254797 
1.0354293722378223 0 9.1506804047275132 6.2841093378851269 1:0.77901028 2:-1.0124512 3:-0.41054609 4:-2.1124855 5:1.0864988 6:-0.52869189 7:1.4320219 8:-1.1948006 9:-0.8006114 10:-0.8872461 11:-0.15946491 12:-0.63839756 13:-1.3831581 
0 0 0 10 1:1.1791941 2:-1.1246458 3:-0.94199017 4:-1.3911962 5:-0.087347036 6:-1.2058634 7:-0.67801722 8:0.13680507 9:-1.2317699 10:0.010180907 11:-1.1937451 12:-0.72007832 13:0.42275534 
0 10 0 3.2968161396553488 1:0.95771619 2:-0.83666484 3:-1.5653867 4:-0.97941154 5:-0.6606628 6:0.49194901 7:-0.86951526 8:-1.5934033 9:1.0476854 10:0.3991494 11:-1.2485257 12:-0.81407051 13:0.10481322 
0 0 0 0.86795870106190354 1:1.3106197 2:-0.7957687 3:-1.8080564 4:-0.74789844 5:-0.5929213 6:2.1239277 7:1.2468612 8:0.25183331 9:-0.29000421 10:-0.05356342 11:0.053081129 12:-2.98635 13:2.5922788 
0 0 0 2.3953951069102768 1:1.0082637 2:-0.71121385 3:-1.5950145 4:-1.5982284 5:1.119648 6:0.14137462 7:-0.6925441 8:0.63998731 9:-0.40311233 10:0.7920608 11:0.48475632 12:0.55631651 13:-1.0323141 
0 10 0 0 1:1.818259 2:0.30974964 3:-0.89355791 4:-0.62384934 5:-0.13537516 6:1.0397275 7:-0.45892141 8:0.349474 9:-1.3131521 10:1.4158701 11:2.6186289 12:0.24465289 13:1.365721 
0.115377983099081 0 0 0 1:1.7804305 2:-0.92913879 3:-0.83891758 4:-0.88192905 5:-1.4181234 6:3.9683385 7:2.0591678 8:-0.2286438 9:0.8659321 10:0.36212296 11:-0.04923253 12:0.13603042 13:0.94632092 
0 4.05350008201368 0 0 1:1.4443286 2:0.22035861 3:-0.27512711 4:-1.4986389 5:-0.64214474 6:0.38059205 7:1.3889836 8:0.34797744 9:-1.7902153 10:-0.94303429 11:-0.497898 12:0.64494903 13:0.05999213 
0 2.8394991901847844 0 0 1:1.4206649 2:-0.19669585 3:-0.090386117 4:-1.7244356 5:-1.3035111 6:1.5178048 7:-0.78633262 8:0.15933491 9:-1.4306212 10:-0.95039767 11:3.1137706 12:-0.75417529 13:1.2178215 
0 10 0 0 1:1.5186614 2:0.3357366 3:0.69961242 4:-0.20060132 5:0.46954154 6:1.3479098 7:0.31878036 8:0.65248961 9:0.16166191 10:1.5227422 11:-0.38011239 12:0.61387486 13:-0.0043983639 
0 0 0 6.2384111294477416 1:1.3073266 2:-0.66552822 3:-1.4354605 4:-0.96320538 5:0.34895669 6:1.6075185 7:-0.29480056 8:-0.60389555 9:-0.86352491 10:-0.57681461 11:1.1901042 12:-2.7298672 13:0.73681338 
0 5.7037128917307509 0 6.344616485158169 1:-0.1015932 2:-0.69353685 3:0.21751895 4:-1.340009 5:-2.3545132 6:-0.39429566 7:-0.86745408 8:0.35152519 9:-1.0962824 10:1.6240008 11:-0.86183466 12:-0.61281165 13:-0.079395241 
0 0 0 10 1:1.1675553 2:-1.1210728 3:-1.8800186 4:-1.6877533 5:1.3959688 6:0.0086380568 7:-0.46237031 8:0.6882876 9:0.33417472 10:0.31677851 11:-0.83365283 12:-0.32167249 13:-0.85822874 
0 10 0 0 1:1.4299851 2:0.77782862 3:-0.4165038 4:-1.2436739 5:-1.1349949 6:-0.93164827 7:-0.36548362 8:0.043340027 9:-0.15044875 10:0.19295664 11:0.8493319 12:-0.43067899 13:0.93033098 
0 8.8155490216343839 0 0 1:1.3896493 2:-0.22219777 3:-1.4736836 4:-1.3552319 5:-0.61911711 6:1.6661973 7:-2.176674 8:0.06681604 9:-2.6734952 10:3.554085 11:-0.11921316 12:0.38613447 13:0.39261951 
0 0 0 10 1:1.3964243 2:-0.59305488 3:-1.4848351 4:0.47490493 5:0.42530403 6:0.12822802 7:1.4639454 8:-0.71311636 9:1.5357146 10:0.16295502 11:-0.74119569 12:-0.65244155 13:-0.53966421 
0 0 0 0.055595515329606861 1:1.0179392 2:-0.67462448 3:-0.82258755 4:-1.8293365 5:1.3736545 6:1.125678 7:-0.19378392 8:-0.025442903 9:-1.6980088 10:-0.484991 11:-0.83541663 12:0.95303046 13:-2.0245205 
0 3.791839180670451 0 0 1:1.5145194 2:-0.44175854 3:-1.0043263 4:-0.64415856 5:-0.27284092 6:0.98296483 7:1.2953347 8:-1.6608236 9:-0.058752671 10:0.37997117 11:0.42858756 12:0.60329822 13:0.85697335 
0.025053484810098607 10 0 0 1:1.3157005 2:0.014620698 3:-0.060161832 4:-0.73896047 5:0.60890841 6:0.64290155 7:-0.2144475 8:-1.7062065 9:-1.1310856 10:1.5747194 11:0.24301784 12:0.93547426 13:0.32233948 
3.1238630635333906 10 0.32874965313376603 0 1:1.3378596 2:0.25614842 3:-0.24607823 4:-1.0056022 5:-0.16353142 6:-1.0919487 7:-2.8327958 8:-0.40103241 9:-0.14897303 10:1.9146125 11:0.21186962 12:0.030014409 13:-0.33718634 
6.5534857148818348 3.1552638917256837 4.135253951371638 1.6546241513585647 1:0.36895565 2:-1.2188293 3:-0.21992357 4:-2.2936994 5:-0.83502336 6:-1.066421 7:-0.49004964 8:-0.53242659 9:1.2771075 10:-0.23570575 11:-0.5843021 12:0.63590195 13:-0.7025232 
0 2.3625655189535699 0 0 1:1.3814566 2:0.14504462 3:-0.87931499 4:-1.8312882 5:-0.079723059 6:0.044916333 7:-1.6728497 8:1.6406661 9:-1.9118389 10:1.9114456 11:-0.91202573 12:0.46335939 13:-1.2552132 
0 10 0 0 1:2.2454854 2:0.36112129 3:-0.93207264 4:-1.7527846 5:-0.45278062 6:0.4932254 7:-0.22566557 8:-1.428769 9:-0.86920295 10:1.0134425 11:-0.46661929 12:-0.091918736 13:-0.22835337 
0 0 0 0.017026715408393733 1:1.0617821 2:-1.2590095 3:-0.15974706 4:-2.0770665 5:-0.39959169 6:1.7866572 7:-0.84776451 8:0.85340932 9:-0.73118808 10:1.3828475 11:1.8658252 12:1.8171176 13:1.1441689 
0 0 0 10 1:1.075942 2:-0.99721754 3:-0.051306713 4:-1.0814901 5:0.34886599 6:2.7151522 7:0.3217285 8:1.3675074 9:-1.4848635 10:1.5173543 11:0.77362025 12:0.45387964 13:-0.85355068 
0 0 0.97195635065954866 2.5538862396618383 1:1.4823381 2:-0.071708505 3:-0.57631502 4:-0.7032022 5:-1.5231228 6:1.2925618 7:-0.068331466 8:0.4428214 9:0.012523708 10:0.18054538 11:-1.2964437 12:-1.7032832 13:2.6763177 
0 2.4478974692871449 0 0 1:1.531474 2:0.60689371 3:-0.71104599 4:-1.1723115 5:0.21753799 6:1.370479 7:0.69813349 8:-1.0407238 9:-0.23631261 10:-0.30761803 11:-1.4789574 12:1.9881592 13:-0.76559882 
0 3.3654232769940551 0 0 1:1.3070512 2:0.2043817 3:-0.26077876 4:-1.5345478 5:-0.56698159 6:0.94306961 7:-0.57565221 8:-0.68325662 9:0.17577041 10:-0.22058238 11:0.96978185 12:0.0096618584 13:-0.90844533 
0 10 0 0 1:1.8175843 2:0.8674368 3:-0.31744685 4:-1.6242728 5:-1.1335804 6:-0.35926546 7:0.60652373 8:0.080940366 9:-0.45051157 10:-0.47319772 11:-0.59403081 12:0.29945784 13:0.32314437 
0 6.4863968783556238 3.9496047477177316 10 1:1.1147468 2:-0.41178491 3:-0.31568076 4:-0.3597773 5:0.63709977 6:1.3195277 7:0.5295855 8:0.093151871 9:-1.5618679 10:0.10635851 11:-2.9497649 12:0.15002682 13:-0.92123494 
0 8.3710958420313926 0 0 1:1.7250491 2:0.39306708 3:-0.69406217 4:-1.6038074 5:-0.18368269 6:1.0591552 7:1.046461 8:-0.28679605 9:-0.47691893 10:0.2091543 11:-1.4790975 12:0.91960205 13:-0.83343008 
0 9.0010311798592717 0 10 1:1.0521541 2:-0.46349131 3:-0.97571941 4:-0.084962891 5:0.077088456 6:1.6772026 7:-0.95540033 8:0.55428585 9:-0.2677537 10:0.83229522 11:-0.12724006 12:-0.63096616 13:0.47271305 
0 10 0 0 1:1.7191403 2:0.61273031 3:-0.089594221 4:-1.5960089 5:-1.269595 6:-0.15050539 7:0.56381487 8:-0.16208529 9:-0.96455396 10:-0.28955015 11:0.54783784 12:1.3669268 13:1.0520585 
1.4569906533974852 0.33135128612957043 3.4913832135086547 0 1:1.0203276 2:0.082909713 3:0.41057072 4:-0.33848118 5:-0.12489931 6:0.27763886 7:0.72870615 8:-0.1774374 9:2.098872 10:0.74973655 11:0.40883749 12:-0.31430317 13:0.035771706 
0 0 0 9.4539263933209874 1:1.6125625 2:-0.23455628 3:-1.0667935 4:-1.5937465 5:1.1812694 6:1.4069465 7:0.34919301 8:0.10243606 9:-0.78028801 10:-0.15296679 11:-1.730267 12:-0.46364234 13:-0.58214809 
0 0 0 3.3186494070876535 1:1.8931707 2:-1.0409842 3:-1.1063501 4:-2.0900966 5:0.80424286 6:1.4264076 7:0.31651687 8:0.034597742 9:-1.0257681 10:0.85236678 11:-0.050438387 12:-0.31339648 13:0.79486291 
0 10 1.318036947293078 4.5932313637532713 1:1.0576236 2:-0.8345925 3:-0.69960816 4:-1.2385078 5:0.17786286 6:1.0475076 7:-2.9200478 8:1.0114893 9:0.58823264 10:0.54670603 11:-1.4599131 12:-0.76522838 13:-0.45549609 
0 4.6424136548834758 0 0 1:1.6795336 2:0.32188124 3:-0.32758995 4:-1.5652674 5:1.422762 6:1.2982799 7:0.43253664 8:0.66136258 9:-0.36541772 10:1.5436513 11:-0.71689116 12:-0.5891848 13:-0.43618755 
0.048412854649866902 0 10 0.5829792077664615 1:0.48004553 2:-0.82514867 3:-0.77085232 4:-0.39334723 5:-1.443532 6:1.1206484 7:1.7461146 8:-0.558002 9:0.33158764 10:-0.47880535 11:0.8897871 12:-0.39074805 13:-0.37004268 
0 5.133082494324599 0 0 1:0.97635724 2:-0.85579745 3:-0.22823053 4:-0.88358049 5:-0.752919 6:2.5532645 7:-1.0261789 8:1.1567564 9:-2.1145907 10:0.28007802 11:2.3046571 12:-0.71510915 13:1.4609393 
0 10 0 0 1:1.1039314 2:-0.25312994 3:-0.66513153 4:0.036559814 5:-1.0245549 6:1.2652956 7:-2.2830722 8:-0.50854607 9:0.57770494 10:1.1987961 11:1.2045278 12:-0.3246292 13:0.72735751 
1.4254316787657462 1.0046396782150799 7.9906702413660904 4.0354211011411039 1:0.67132907 2:-1.0610672 3:-0.61695806 4:-1.0250721 5:-0.13304232 6:-0.025868075 7:1.6172228 8:-0.46560176 9:0.087784894 10:-3.239258 11:-2.4101376 12:1.0352802 13:-1.180529 
0 0 0 3.0970446543814183 1:0.77869523 2:-0.32975752 3:-1.6500734 4:-1.333521 5:0.58803247 6:0.78116501 7:0.097551853 8:-0.76203622 9:-0.35695054 10:0.56386944 11:-1.0155039 12:1.3969661 13:0.05150926 
0 10 0 0 1:1.5472064 2:0.80392592 3:-0.78209342 4:-1.6918912 5:-0.40357856 6:-0.22443687 7:0.30528536 8:1.3370647 9:-0.42214727 10:0.73772019 11:-1.3187453 12:-1.0261687 13:-0.70815395 
0 3.0111820170350776 0 0 1:0.82124363 2:-0.2826649 3:-2.2111195 4:-1.9909874 5:-0.13336658 6:0.5914723 7:-1.9084228 8:1.2637879 9:0.82681982 10:1.1434237 11:0.83306117 12:0.12795846 13:-1.4072427 
0 0 0 0.94397091309033132 1:1.0139901 2:-0.44240718 3:-1.2464341 4:-1.7029052 5:0.99146978 6:0.7824351 7:0.99560899 8:-0.83677828 9:0.28428366 10:0.050016148 11:-0.71808412 12:0.16365062 13:-1.3262818 
0 0 10 6.6671550839668887 1:0.62118589 2:-1.0144976 3:-0.33748842 4:-0.20454314 5:-0.84041822 6:0.90002909 7:2.076022 8:-0.14349583 9:-0.68450061 10:-0.36068776 11:-0.54844478 12:-0.86346015 13:-1.3623013 
0 10 0 0 1:0.58878576 2:0.1138873 3:-0.91531661 4:-0.4357316 5:-0.90168378 6:-0.2819591 7:-0.38780295 8:-1.4737756 9:-1.4995889 10:-0.24946747 11:1.3772736 12:1.0567275 13:0.29489445 
0 10 0 0 1:1.6730364 2:0.69558384 3:-0.42594529 4:-0.60488426 5:-0.82716388 6:1.3209478 7:-0.15655653 8:-1.7700482 9:0.65328022 10:0.94582212 11:0.70879337 12:0.33665067 13:0.3657208 
0 0.46636826057820496 0 0 1:0.83032521 2:0.16097782 3:-1.3233126 4:-2.8457766 5:-0.22722272 6:0.34326672 7:-1.181257 8:1.6274052 9:-1.2394304 10:-0.84348039 11:1.8374031 12:0.28237122 13:3.0245065 
0 0 0 10 1:0.68588812 2:-0.97224434 3:-0.80569554 4:0.079609563 5:1.0092743 6:2.1217502 7:-0.51822241 8:-0.67736266 9:0.37340203 10:-0.39197119 11:-0.30573907 12:-0.23278708 13:-2.1275647 
0 0 1.3813152158551885 0 1:0.42273001 2:-0.68529988 3:-1.0904931 4:-1.7820943 5:0.16114253 6:1.7766891 7:0.43300598 8:1.385481 9:-1.6572349 10:-1.8799028 11:-3.4195555 12:0.79011038 13:-1.943667 
0 10 0 0 1:1.0303777 2:0.20712 3:-0.1817664 4:0.4448949 5:0.135676 6:0.41191162 7:-0.45818856 8:0.10282539 9:-0.87172563 10:-0.46455139 11:1.3256087 12:-0.041084402 13:-0.0094352394 
0.060385693500837216 0 0.74628134094952936 0 1:0.82772706 2:-0.76730471 3:-1.6318477 4:-1.2064776 5:1.6107146 6:2.4714218 7:0.43361892 8:-2.3694293 9:-1.3097149 10:-2.9269198 11:0.20913996 12:-0.0045813016 13:0.67616996 
0 0 0 1.9417848916176088 1:0.99264676 2:-0.96584962 3:-1.1369876 4:-1.6726619 5:0.32865112 6:3.0419333 7:-2.2360745 8:-0.49466532 9:0.80297682 10:-2.030097 11:1.1714931 12:0.21574872 13:-0.82901983 
0 4.0921848772966056 0.46597517715549402 0 1:1.5480567 2:1.0060236 3:-0.14351228 4:-2.4158312 5:-2.5452051 6:-0.85172003 7:-1.6668154 8:0.6377016 9:-0.066887723 10:0.070297616 11:0.93410305 12:-1.6893933 13:2.4616181 
0 1.3240693786087667 0 0 1:1.0535999 2:0.8465503 3:-1.418729 4:-1.0842347 5:-1.4371638 6:-0.20211451 7:-1.1843125 8:-0.039261652 9:0.15374804 10:0.99900303 11:0.25662498 12:-0.2543864 13:1.2139709 
0 0 0 1.729412595216151 1:1.2138186 2:-1.6363227 3:-1.033001 4:-2.5050623 5:0.5463162 6:1.5572438 7:-1.1267237 8:-1.3412579 9:-1.9847413 10:-0.39302588 11:-0.20709235 12:-1.9909562 13:0.40153061 
0 2.3917339056446263 0 0 1:1.0963293 2:-0.2117942 3:-1.3487081 4:-2.2313001 5:0.77837735 6:0.49578321 7:-1.2242853 8:-1.9292892 9:-0.76938997 10:-0.23486827 11:0.13126662 12:0.039823611 13:-2.172458 
0 0.68003459562531876 0 0 1:1.5431624 2:-0.38167681 3:-0.63285256 4:-0.75113344 5:-2.0361141 6:0.9423453 7:0.0077409205 8:-0.3240531 9:-0.36452243 10:-1.1599084 11:0.80944612 12:-1.40018 13:0.92406748 
0 2.9777140447013797 0 1.0913986503954825 1:1.1863043 2:-0.2026777 3:-0.61947495 4:0.072515561 5:0.29644359 6:-0.31401774 7:-0.85191861 8:-0.035887597 9:-1.1314882 10:0.7847924 11:-0.32208082 12:-2.3921688 13:-0.97700565 
0 0 0 7.3109175940834561 1:1.4278662 2:0.22744347 3:-0.80235222 4:-0.44373741 5:1.7393219 6:0.52671084 7:-0.20453111 8:-0.14386786 9:-0.3304739 10:0.38007266 11:0.25532429 12:-0.503024 13:-0.7699081 
10 10 10 10 1:0.66110349 2:-0.13400454 3:0.46713811 4:0.15522426 5:-0.053867157 6:0.063073297 7:-0.10820495 8:0.02347325 9:-0.96862353 10:0.28953809 11:-0.076544293 12:-0.14008095 13:-1.2713612 
0 10 0 0 1:1.0006321 2:0.21641935 3:-1.3330344 4:-1.5070264 5:0.065061941 6:0.39112173 7:-1.3293955 8:0.061496279 9:-2.5303422 10:0.55877336 11:-0.33855893 12:0.49113927 13:-1.338846 
0.68852561595064599 0 3.962651221554343 10 1:1.0430159 2:-1.9234148 3:-0.65512048 4:-1.9198436 5:1.4626031 6:-0.080448846 7:0.46493823 8:-0.84421034 9:-0.38159262 10:-0.3371625 11:-2.177644 12:-0.78555294 13:1.1611515 
0 3.8347478944526316 0 0 1:1.5493772 2:0.64142715 3:-1.1709194 4:-0.59913186 5:-0.91484799 6:1.006262 7:1.1920153 8:-0.01864288 9:0.15804898 10:-0.1635013 11:1.0839812 12:-1.1247201 13:1.4150071 
0 3.1109344322612413 0 0 1:1.0074936 2:0.083937846 3:-2.3872519 4:-1.4488376 5:-0.29989791 6:0.59425317 7:-0.40551658 8:-1.5853497 9:0.12007971 10:-1.6386449 11:0.6930933 12:-0.58033285 13:-1.3033413 
0 1.1415564848284032 0 0 1:0.92736649 2:0.61670082 3:-0.80769988 4:-0.61634734 5:-0.66602691 6:2.3772526 7:-0.5186129 8:-1.4021257 9:-0.4319346 10:-0.75574729 11:0.10301362 12:-2.2672747 13:1.527536 
0 0 1.1403436004431762 4.4325308219981832 1:0.85327719 2:0.19385191 3:-1.808203 4:0.52774242 5:0.59834272 6:2.5857104 7:-0.62153912 8:-1.4623774 9:1.1024348 10:-1.7258808 11:1.0933878 12:-1.7082507 13:1.0592224 
0 10 0 0 1:1.1420794 2:0.0043311665 3:-0.95327986 4:-1.1466438 5:0.17638033 6:-0.092787769 7:-1.5140095 8:-0.37096628 9:-0.14555338 10:2.4932823 11:0.65559611 12:0.30576741 13:0.45731957 
0 10 0 0 1:1.2820296 2:-0.19872309 3:0.26655603 4:-0.55481097 5:0.13847188 6:1.4244166 7:-1.8159604 8:-0.69554725 9:0.021311658 10:0.93983642 11:0.5816042 12:-0.40034613 13:0.44695833 
0 10 0 0 1:1.6420094 2:0.73502967 3:-0.42466989 4:-0.84221205 5:-0.43859578 6:0.62289985 7:-0.43107164 8:-0.5119296 9:-0.25053863 10:0.8419545 11:-0.77220765 12:-1.3541382 13:0.36344251 
0 10 0 0 1:1.4074751 2:0.37499922 3:-0.4372435 4:-1.1044055 5:-0.28193727 6:0.82675178 7:1.0800907 8:0.19874241 9:-0.63765919 10:0.78856196 11:-0.18098818 12:1.3069261 13:2.0723327 
0 10 0 0 1:1.3435422 2:-0.67754732 3:-0.77015468 4:-1.2249489 5:-0.40995972 6:1.2389176 7:-0.93404731 8:0.46947035 9:-0.75425953 10:1.2437972 11:3.3716199 12:-2.1881839 13:0.19308647 
2.1130394082772654 0 6.2428262593491386 0 1:0.48450556 2:-0.80109782 3:-0.72297336 4:-0.31205939 5:-1.2205806 6:1.0467747 7:1.7487539 8:-0.83591565 9:-0.011446596 10:-0.26129781 11:0.2696539 12:-0.49097096 13:-0.68358826 
0 0.038917564713542969 5.9658071676745417 10 1:0.98749976 2:-0.5991632 3:-2.1379921 4:0.20846054 5:0.048356965 6:1.4728502 7:1.3888452 8:-0.72536797 9:0.23003219 10:-0.24410309 11:-0.89543053 12:0.25994575 13:-0.42686357 
0 0.62713015068925537 0 0 1:1.1174048 2:0.10213202 3:-0.54041668 4:-1.1710896 5:-2.204434 6:0.62850533 7:0.82537449 8:-1.3752221 9:1.4676769 10:0.62239106 11:0.85617608 12:0.74367706 13:1.9272663 
0 0.23153658282287806 0 0 1:1.3657735 2:0.17452678 3:-0.2239331 4:-0.30831159 5:0.86556082 6:1.1057213 7:0.50579989 8:-0.12836418 9:1.6480678 10:0.86765133 11:-0.043809278 12:0.12472799 13:0.26189416 
0 2.0067704267390742 0 0 1:1.4089663 2:0.034142993 3:-0.54305082 4:-1.5189196 5:0.030160878 6:1.2181155 7:-0.24018444 8:0.67057034 9:-0.79610386 10:1.809295 11:1.310676 12:1.4355196 13:-0.34658601 
0 0 0 10 1:1.4205717 2:-0.11679724 3:-0.68877205 4:-0.5072143 5:2.338593 6:0.57348094 7:-0.43151936 8:0.48664686 9:-0.90830672 10:0.39102324 11:0.39938139 12:0.11381085 13:0.33145386 
0 10 0 0 1:2.0459626 2:0.49246497 3:-0.80498838 4:-1.6817541 5:-0.076961745 6:-0.48778806 7:-1.3407083 8:-0.017267631 9:-0.7606288 10:0.53495052 11:-0.13094373 12:-0.040026645 13:-1.1339689 
0 0 0 0.74088055272333897 1:0.90384024 2:-0.43855095 3:-2.3618208 4:-2.037602 5:-1.0257345 6:2.0218159 7:0.21068544 8:0.49714247 9:-0.32080292 10:-1.2658491 11:-0.72071838 12:1.4635007 13:-0.27670169 
0.2905368917236838 1.4352706196348537 0.4297417225135805 3.4774890844440378 1:0.65175649 2:-1.1884627 3:-0.40866259 4:-2.3310757 5:1.3173479 6:-0.65103871 7:0.14284532 8:1.0899334 9:2.5922756 10:0.07090388 11:-2.5830329 12:-0.29290044 13:-1.8489792 
1.7012357915455487 1.6331109317364427 0.33629560023619459 0 1:0.9707532 2:-0.79279822 3:-0.42163513 4:-1.3299694 5:-0.6111022 6:-0.17035551 7:0.31193216 8:-2.0275853 9:-0.52293149 10:-4.0857233 11:-1.7393542 12:1.8750144 13:0.094163438 
0 10 0 8.684361470554764 1:1.7649522 2:-0.52094958 3:-0.6995075 4:-0.6988428 5:0.33836415 6:1.2340269 7:0.039123074 8:-1.0447759 9:-0.95349371 10:-0.36846862 11:1.0524484 12:0.88842665 13:-0.15372651 
0 0.45849823637390663 0.054899962994184537 0.19883791469457973 1:0.61890641 2:-1.1568912 3:-0.81261193 4:-1.1814111 5:2.1577615 6:3.1934902 7:-0.064412475 8:-0.16177155 9:-0.27077816 10:-2.1174297 11:2.6489603 12:-2.4221636 13:0.75828352 
0 2.5841653603031349 0 0 1:1.0704872 2:0.0087062547 3:-1.5507531 4:-2.1148898 5:0.10195514 6:0.85227527 7:0.38893253 8:-0.044185166 9:-0.61595752 10:0.96036444 11:-1.9790117 12:1.2704596 13:-3.4273188 
0.43387513908524206 0.63448386285878489 0 7.5917275645294939 1:-0.22744206 2:-0.56257567 3:-2.7433394 4:-1.0873334 5:2.8138439 6:0.73876942 7:0.4566436 8:1.1071131 9:1.4476968 10:1.2566508 11:0.41870045 12:-1.2460755 13:-0.025435801 
0 7.7107460716436016 0 0 1:1.087286 2:0.48349766 3:-0.25766187 4:-1.117855 5:-1.257316 6:-1.1059309 7:-0.48919895 8:-0.67081993 9:0.57322861 10:0.90427514 11:1.9312439 12:-0.021373658 13:2.0831998 
0 1.7644051491328203 0 0 1:1.088103 2:-0.1980767 3:-1.6413655 4:-1.2710409 5:-0.088448102 6:1.9576766 7:-1.3893382 8:-0.1185954 9:-0.092409621 10:-1.3143428 11:0.37906255 12:-0.15806203 13:-1.0225603 
0 10 0 0 1:1.2352099 2:0.29423704 3:-1.9465983 4:-0.27105238 5:-0.32547035 6:1.7882829 7:-1.9582284 8:0.090968268 9:-0.89016636 10:1.2976183 11:-0.39727878 12:1.2986608 13:-0.11647926 
0 2.411950546994293 0 0.16373383454579465 1:1.1840441 2:-0.18009976 3:-2.2020257 4:-0.28577936 5:-1.9593833 6:0.86246709 7:-0.66413742 8:-0.76422664 9:0.60539991 10:1.8990444 11:1.4301567 12:0.68368823 13:3.500625 
0 0 7.5007002279537858 2.9367796986333206 1:0.84495476 2:-0.36525375 3:-1.6399229 4:0.60274635 5:0.91153909 6:0.39019935 7:-0.10373815 8:0.067498383 9:-1.9497486 10:-0.30630274 11:-0.42840436 12:1.0972185 13:0.85674454 
0 0 0 1.9241618192557803 1:1.2861757 2:-0.39467004 3:-0.52563424 4:-1.1233134 5:0.07775809 6:1.2943665 7:0.062576675 8:0.72376607 9:-0.65214543 10:-1.8138983 11:-0.62700228 12:-0.36689651 13:-2.085312 
0 3.1581765297014583 0 0 1:1.5398975 2:0.53467367 3:-1.0196455 4:-1.859774 5:-0.56155058 6:0.28936258 7:-1.8113973 8:0.93983679 9:-2.3580548 10:1.3792022 11:-0.54931441 12:0.99716894 13:-0.44552404 
0 8.5699713605745007 0 0 1:1.8243163 2:0.24191473 3:-0.16513485 4:-0.59972803 5:-1.2229714 6:1.2056127 7:-0.1673734 8:0.75691082 9:0.084879654 10:1.1355381 11:-0.27235313 12:2.3888421 13:0.08197977 
0 10 0 5.2873977734624766 1:1.3192679 2:-0.83997799 3:-0.57221843 4:-1.01588 5:0.70225918 6:-0.040716269 7:-0.69819978 8:0.085100674 9:-0.76371354 10:2.5176206 11:-2.0619194 12:-1.6590719 13:-0.25209164 
0 0 0 1.4731592143713641 1:0.85034141 2:-0.85052565 3:-0.83668988 4:-0.67728907 5:-0.21306805 6:1.1886614 7:-1.3746622 8:-1.1436255 9:-2.6531343 10:1.252464 11:-2.3144828 12:-0.11553668 13:-1.3272651 
0 6.2145487369370063 0 0 1:1.3093068 2:0.037580308 3:0.40399186 4:-1.9213013 5:-1.8609897 6:0.50197448 7:-0.11567955 8:-0.032839157 9:1.3304648 10:-0.94492632 11:0.73258655 12:0.74162307 13:1.2700081 
0 1.8920144063230722 0 0 1:0.9156103 2:0.59784311 3:0.0081265781 4:-0.56083517 5:0.20860338 6:1.7683574 7:1.0301864 8:0.61255228 9:0.38509962 10:-0.72720265 11:1.0457755 12:-0.11197298 13:-1.1299572 
0 10 0.91409237288786793 0 1:0.93815283 2:0.027487228 3:-0.46619875 4:-0.37530939 5:-1.4366843 6:1.3801375 7:-0.80760223 8:0.83899288 9:-0.64793091 10:-0.46564396 11:0.51944496 12:-0.93976338 13:0.83974809 
2.7538036006925353 2.9269013587742263 0.48175950787816169 0 1:1.2108591 2:-0.98978781 3:-0.55726001 4:-0.41608294 5:-1.8090901 6:0.020594582 7:-1.997169 8:-0.19984407 9:-0.079775948 10:0.84095577 11:-2.1803262 12:0.91085955 13:-2.1856484 
0 0 0 10 1:1.2318535 2:-1.8594712 3:-0.92367353 4:-1.544651 5:1.0313748 6:1.4061353 7:-0.52836767 8:-1.3834026 9:-0.79214373 10:0.14818527 11:-0.52342489 12:-0.37574135 13:0.39295638 
0 10 0 0 1:1.4183974 2:-0.10329508 3:0.5895912 4:-1.9843133 5:-1.0053173 6:0.5558661 7:-0.91316791 8:0.79590535 9:-1.2170343 10:-0.2801401 11:1.8415495 12:0.21935711 13:0.88057329 
0 0 0 0.24703021328569535 1:0.53594784 2:-0.24251518 3:-1.2364332 4:-1.7235373 5:0.73981151 6:3.0203298 7:0.80319762 8:1.7209326 9:1.1591287 10:-0.044317359 11:1.6660193 12:-1.0590052 13:0.24882196 
0 0 0 0.95674243308278106 1:0.52940006 2:-1.8107405 3:-1.5768278 4:-1.783651 5:-0.10464647 6:2.7983896 7:-2.1807424 8:-0.22364006 9:-0.14936561 10:1.1236541 11:1.0502466 12:-0.29091583 13:0.01717726 
0 0.83697396390633139 0 0 1:1.7262206 2:0.8428748 3:-0.37749959 4:-1.2397466 5:-1.1480105 6:1.2789044 7:-1.1384568 8:0.73504856 9:-0.89912345 10:-0.7045431 11:2.2439735 12:-2.3695485 13:1.2444627 
0 7.1506838002104676 0 0 1:1.4966274 2:-0.45321816 3:0.53280424 4:-1.4018418 5:-0.67104065 6:2.1262453 7:-1.017307 8:-0.39124075 9:-1.3744971 10:0.55084795 11:2.2152429 12:-0.56655339 13:1.0882865 
0 0 0 10 1:1.0069917 2:-0.28873209 3:-1.4997921 4:0.065750876 5:0.84010961 6:0.051206052 7:0.068153771 8:0.34004653 9:1.429641 10:0.42505388 11:0.21684373 12:-0.37250637 13:-0.27400909 
0 10 0 0 1:1.5850845 2:-0.30960446 3:-0.36080253 4:-0.56661309 5:-0.22814395 6:0.28706213 7:-1.882767 8:-0.35230887 9:-0.55639551 10:1.9469369 11:-0.45768491 12:-1.897003 13:-0.77291425 
0 0 0.55374354360726785 0 1:0.6868283 2:-1.4757325 3:-2.2440108 4:-1.7195825 5:1.3545298 6:1.2792558 7:-0.68806384 8:-1.360541 9:0.60894403 10:-1.4715723 11:0.73347354 12:-0.23444865 13:0.09851777 
0 5.7232172331006321 0 0 1:1.9128017 2:0.88077617 3:-0.72986991 4:-1.9532528 5:-0.63735908 6:1.1236097 7:0.14574997 8:0.20986905 9:-0.11140562 10:-0.95952023 11:-0.4678029 12:0.050392766 13:-0.27351945 
0 4.287933654705534 0 0 1:0.47226805 2:-1.2047628 3:-1.2270702 4:-2.7515182 5:1.1764125 6:0.69221061 7:-0.18984365 8:1.2006529 9:0.36719821 10:2.314216 11:-1.3726246 12:0.76741251 13:-1.0526631 
0 10 0 0 1:1.2453544 2:-0.46039338 3:-0.030467008 4:-0.40635116 5:-0.21858362 6:1.0914193 7:-1.2446648 8:0.20376293 9:-1.0445289 10:-0.19754286 11:1.8980575 12:-0.80822669 13:1.1211379 
0 0 0.32618486302345145 0 1:0.74714543 2:0.53730785 3:-0.11860328 4:-2.068866 5:-2.0629964 6:1.0392106 7:-0.49074868 8:-0.84235001 9:1.2401521 10:-0.082538362 11:0.50111611 12:-0.54238479 13:1.7662036 
0 10 0 0 1:1.5461744 2:0.80096829 3:-0.58871043 4:-0.13772646 5:-0.016952828 6:1.9350242 7:0.85883869 8:0.91394664 9:-1.1370002 10:0.59402402 11:1.1960234 12:0.99589568 13:0.84694447 
0 10 0 0 1:1.3173166 2:0.16882694 3:-0.48728198 4:-1.027422 5:-1.0385658 6:0.17186464 7:0.31121722 8:-0.10081191 9:-0.59718633 10:1.4111344 11:0.8032962 12:0.085889712 13:0.54508089 
0 7.2986897040094822 0 0 1:1.4946661 2:-0.35949788 3:0.080650558 4:-0.72113639 5:-0.58315842 6:1.8657219 7:-1.4270639 8:-0.041230074 9:-0.054076715 10:2.7576469 11:1.4361764 12:1.5326478 13:-1.1288011 
0 0 0 9.2890422446161729 1:1.1326587 2:-1.1123217 3:-1.5532581 4:-1.7092569 5:1.035151 6:1.0194124 7:0.50446177 8:-0.22428317 9:-0.84246873 10:1.5727477 11:0.50606382 12:-0.58026906 13:0.70366046 
0.86492862109861124 0 0 0 1:0.79977926 2:0.063622049 3:-1.2451428 4:-1.880267 5:-1.6230603 6:0.33032171 7:-1.3637714 8:-0.086664076 9:0.68868951 10:-0.53626472 11:-2.2757847 12:-1.3455067 13:0.027641496 
0 10 0 0 1:1.3670361 2:0.0077322682 3:-1.62792 4:-1.1340154 5:0.25711684 6:0.96633342 7:-1.5315744 8:-0.48956746 9:0.016673966 10:1.4268777 11:0.013390249 12:-0.75781478 13:0.71007262 
0 7.4239203864626244 0 0 1:1.373083 2:-0.17712474 3:-0.38328465 4:-0.45804872 5:-0.0082950902 6:-0.097109169 7:-2.3545486 8:0.42881249 9:-1.307884 10:1.653471 11:-0.42195679 12:-1.504131 13:-1.209574 
0 0 0 10 1:1.0959004 2:-1.0903753 3:-0.87645116 4:-0.5162975 5:0.42479111 6:1.5666344 7:-0.42867907 8:0.392787 9:-0.01124641 10:-0.032967671 11:0.34003548 12:-1.8765508 13:0.64666803 
0 0.27270267414240024 0 0 1:1.5947823 2:0.84147989 3:-1.0502737 4:-1.6007526 5:1.3212637 6:1.1925331 7:-0.91310222 8:1.6816278 9:-1.4239875 10:-0.28119841 11:1.6854078 12:-0.88449997 13:0.54609864 
0 2.0356172936205006 5.3176932315348635 10 1:0.61899236 2:-0.53877401 3:-0.69872907 4:0.40108389 5:-0.073358053 6:-0.16811834 7:-0.29404774 8:-0.77929988 9:-0.45308339 10:-0.16771122 11:-0.55201103 12:-0.87861055 13:-1.4393725 
1.304351807831575 0 6.6403319612750513 3.2681917169581554 1:1.2561216 2:-1.1044475 3:-0.384601 4:-0.84055798 5:-1.1319147 6:1.4585025 7:-1.0690229 8:-0.31265998 9:-1.3336219 10:-1.9407052 11:-0.14530349 12:-0.99202805 13:-0.979557 
0 0 0.16583785331860079 6.0845378116354567 1:1.1780987 2:-0.41066272 3:-0.94830194 4:-1.2986015 5:0.073541948 6:0.55163788 7:1.8788334 8:-0.58304781 9:0.10040481 10:-2.5273985 11:-1.1009737 12:-1.0153302 13:-0.8637379 
0 10 0 0 1:1.3101681 2:0.35851952 3:-1.3183944 4:-1.1658845 5:-0.84180649 6:1.0244035 7:-1.0142724 8:0.014545359 9:-2.497925 10:0.2423102 11:-0.37081416 12:-0.94471542 13:0.24047222 
0.080687478574637525 0 0.051143623003814816 3.3631172599081651 1:1.3373483 2:-0.91247651 3:-1.3172193 4:-0.79207543 5:0.42062782 6:2.962825 7:1.9834825 8:0.72363584 9:-1.1352652 10:0.96853946 11:1.2579088 12:-2.7621395 13:2.7175029 
0 4.1443366073626757 0 0 1:1.7417983 2:0.97198339 3:-0.0070669628 4:-0.46321351 5:1.0645027 6:1.2558879 7:0.44675469 8:0.2245667 9:-1.8422039 10:-1.0463622 11:-0.61290904 12:0.59578722 13:0.96960177 
0 0 7.8224605768400242 0 1:0.98975972 2:-0.39359111 3:0.016183493 4:-1.3801146 5:-0.38560858 6:0.11860223 7:0.97281003 8:1.1486841 9:-0.9225763 10:-0.68291683 11:-1.2237322 12:-0.64753966 13:-1.2203091 
0 5.7653440200691239 0 0 1:1.7651628 2:0.39883525 3:0.045798504 4:-1.0450706 5:-0.35163985 6:2.084011 7:-1.1648374 8:-0.86038482 9:0.5241184 10:0.40680497 11:2.6005084 12:-0.29405632 13:1.94218 
0 3.1591686041556146 0 0 1:1.4652002 2:0.033497495 3:-1.5187492 4:-1.5362592 5:-0.8347668 6:-0.12868917 7:-1.1285069 8:-0.20621811 9:-0.74522189 10:-0.074422906 11:1.4042124 12:0.25593308 13:-1.4205644 
0.70934376349901929 7.027329596476279 0.28330673765728204 0 1:0.984326 2:-0.57135108 3:-0.59432762 4:-0.8639641 5:0.49041097 6:0.53734253 7:-1.6982686 8:-0.24210679 9:0.19712305 10:3.0476397 11:-1.8149065 12:-0.062344099 13:-1.4458535 
0 10 0 0 1:0.77377966 2:-0.059705586 3:-1.7094876 4:-0.50872542 5:-0.85615739 6:0.25204631 7:-0.5792147 8:-1.5534185 9:1.0674302 10:0.31396919 11:1.9080565 12:-2.3030072 13:0.89805176 
0 2.0914591597892147 0 0 1:1.2492212 2:-0.40590695 3:-0.20128194 4:-2.3643696 5:0.86341265 6:-0.83119365 7:-1.3662843 8:-0.07192748 9:0.70348688 10:1.8753048 11:0.023422209 12:-0.40933633 13:-1.1399639 
0 0 0 10 1:1.0395462 2:-1.9435419 3:-1.3820441 4:-0.67084369 5:-0.81030707 6:2.8008258 7:-1.2436445 8:0.84947681 9:-0.71204576 10:1.2399401 11:-0.1650741 12:-2.2026497 13:0.97659344 
0 0 1.0611330774867949 2.6627857308737237 1:0.9893068 2:-1.0986621 3:-1.1536995 4:-0.34151373 5:1.1239803 6:2.1612617 7:0.67082085 8:-1.0572676 9:-1.3091177 10:0.29233334 11:-1.7237159 12:0.4725339 13:-2.1384811 
0 10 0 0 1:1.1129398 2:-0.32237178 3:-1.8449507 4:-1.6193805 5:0.23755119 6:0.13886335 7:-0.86057999 8:-1.5340685 9:-1.6398385 10:1.4404391 11:-1.2517413 12:-0.45460192 13:-0.4098459 
0 8.5571713522408039 0.68665363021879222 0 1:1.3295066 2:-0.32077221 3:-1.0031513 4:-0.61435011 5:-1.0133599 6:0.60763622 7:-1.3941754 8:-0.11052351 9:-0.06684501 10:0.071871632 11:0.86058117 12:-1.6670321 13:-2.0243589 
0 0 0.29669956411137971 0 1:0.22190213 2:-1.8694682 3:-1.89089 4:-1.4175975 5:-0.24047541 6:2.2713815 7:-2.5242723 8:1.1233627 9:-0.71420234 10:0.98566349 11:0.51066774 12:-1.8008155 13:0.63261444 
0 1.8247300738353063 0 0 1:1.3512439 2:-0.16338819 3:-0.26556776 4:-1.6594389 5:-0.81293296 6:2.3597997 7:-0.29273451 8:0.27387251 9:-0.60930411 10:1.2830524 11:-0.089257665 12:-0.94966496 13:0.62737028 
0 0 1.1061480747822168 0 1:1.4514739 2:0.38777891 3:-0.49609984 4:0.14984371 5:-1.2612318 6:0.76938029 7:1.4118552 8:1.781578 9:-0.98695572 10:1.0824187 11:1.8179978 12:-1.4296872 13:1.4190426 
0 7.4771686054351711 0 0 1:1.3758039 2:-0.25289675 3:-0.96610071 4:-1.7191593 5:0.21994637 6:-0.43627244 7:0.47678978 8:-1.6220019 9:-0.43133054 10:-0.98774387 11:-1.9683512 12:-0.54327034 13:-1.7038441 
0 10 0 0 1:0.91960894 2:-0.42205445 3:-0.41956316 4:-2.1309838 5:0.57527268 6:-1.1024851 7:-1.4963137 8:-1.7215061 9:1.0408916 10:0.90718178 11:-0.34271442 12:-0.54439028 13:-0.79403704 
0 10 0 0 1:0.90786542 2:-0.031077898 3:-0.13255801 4:0.82015569 5:0.66560904 6:-0.026771674 7:-0.3307406 8:0.65442618 9:0.18954403 10:0.53943148 11:2.0579533 12:-0.49043728 13:-1.1700421 
2.1080942298450478 10 1.2910910533222244 0 1:0.77157417 2:-0.35958429 3:0.49376879 4:-0.13865894 5:-0.58933804 6:0.048599291 7:-0.48737429 8:-1.0320345 9:-0.20063814 10:-1.7522767 11:2.9891109 12:-0.87477561 13:1.4225526 
0 0.67799246192744889 0 0 1:1.3198301 2:-0.27588263 3:-1.1142144 4:-0.69196592 5:-0.98364329 6:0.75571729 7:0.58972506 8:-2.2197871 9:1.7910472 10:-0.07420431 11:2.0728206 12:-1.1823132 13:0.32350212 
0 0 0 4.5510437581366752 1:1.6896028 2:-0.32862348 3:-1.5876372 4:-0.26633679 5:-0.83019651 6:0.11153625 7:-0.61217245 8:0.022745015 9:-0.41953324 10:2.0711681 11:0.96421527 12:1.3777076 13:-0.53557171 
0 10 0 0 1:1.1338019 2:0.35113515 3:-0.82765915 4:-0.59805798 5:0.46610135 6:0.95868264 7:-1.0537443 8:0.50356627 9:-0.44998643 10:1.8155965 11:0.30181941 12:0.86345844 13:-1.0109573 
0 0.3309416390832719 0 0 1:1.0858969 2:-0.61770374 3:-1.2172464 4:-1.3359926 5:-0.44895029 6:1.2311834 7:-1.1300266 8:-0.01998193 9:0.55868725 10:1.1979295 11:-0.54384987 12:-1.1622834 13:0.095760717 
0.49619956739523863 3.5793181372216774 0 0 1:0.89697554 2:-0.43801525 3:-0.58515138 4:-1.2814289 5:-1.430123 6:0.4979981 7:-0.63761888 8:-0.97832496 9:1.5909363 10:-0.030705378 11:2.1347466 12:-0.31297383 13:-0.24976788 
0 3.4433824015959327 0 10 1:1.5305421 2:0.17400796 3:-0.53268292 4:0.16331339 5:0.77663761 6:1.7105304 7:-1.3062341 8:0.52548769 9:-0.73830192 10:0.85405387 11:-0.42140283 12:-0.38299537 13:0.57978112 
0 10 0 0 1:1.6492177 2:0.62043826 3:0.0010553435 4:-1.4630647 5:-0.21852361 6:1.547232 7:-0.29565409 8:0.25599472 9:-0.63779944 10:1.0278857 11:0.60730601 12:0.099689935 13:1.4424908 
4.5075732385681837 0 3.8275087225813929 0 1:0.32116876 2:0.25428428 3:-0.95413248 4:-0.16216158 5:-1.3516685 6:-0.45734776 7:-0.085473049 8:-0.69622347 9:-0.52447609 10:-0.37876961 11:-0.064317661 12:0.87718029 13:1.2503474 
0 0 1.5551729750728451 0 1:0.72851139 2:-1.0566711 3:-0.49951146 4:-1.555999 5:0.43606151 6:-1.190583 7:-1.6172777 8:0.91753843 9:-1.6490197 10:1.3251892 11:-0.87764149 12:-1.0410175 13:-1.3993394 
0 10 0 0 1:1.3476624 2:0.5221565 3:-1.0246925 4:-1.3259638 5:0.14208478 6:0.7731012 7:0.085952902 8:0.16972466 9:-1.1309469 10:0.79247974 11:0.58781788 12:0.061709347 13:-0.80061944 
0 0 0 1.4253430456778011 1:1.1728843 2:-0.8817811 3:-0.16671839 4:-0.9989787 5:-0.75627891 6:0.20202453 7:-1.1286493 8:0.16214158 9:-0.51351748 10:1.9766254 11:-1.350519 12:1.8515622 13:-0.23799714 
0 10 0 0 1:1.1206181 2:-0.1505358 3:-1.6753147 4:-0.4907919 5:-0.24073628 6:1.1866713 7:-0.82691529 8:0.32201302 9:-0.35161639 10:0.24804497 11:-1.3917948 12:-1.2412635 13:-0.69292747 
0 10 0 0 1:1.3655247 2:0.70928693 3:-1.2728038 4:-0.76510233 5:0.66540379 6:0.21533023 7:-0.30196769 8:-0.51068252 9:-2.3062241 10:0.27168564 11:-0.054478422 12:1.1617518 13:-0.30046206 
0 10 0 0 1:1.738574 2:0.7757448 3:-0.90726603 4:-1.2320361 5:-1.1665592 6:0.79654277 7:-0.71477931 8:-0.11513063 9:-1.0950232 10:0.65188053 11:0.30138334 12:0.8128617 13:0.80061311 
0 10 0 5.5815974875212362 1:1.2241432 2:-0.23672053 3:-1.2763886 4:-0.63125118 5:-0.3021461 6:1.2528024 7:-3.0114896 8:-0.59081436 9:1.1148119 10:0.10083919 11:1.0343821 12:0.11642484 13:-0.74680279 
0 0 10 10 1:1.2187516 2:-1.8455165 3:-1.2123338 4:-0.45176977 5:0.71616536 6:1.2450151 7:-0.27178706 8:0.18753706 9:-0.61802328 10:1.2476758 11:-0.82602966 12:-0.568107 13:0.86956705 
0 0 0 1.5813109457396248 1:1.2538811 2:-0.87664645 3:-2.1874282 4:-1.4413818 5:0.63342119 6:0.58651285 7:-0.22008082 8:-1.6150512 9:0.62319878 10:-0.33390172 11:-0.89068333 12:-2.1816995 13:-0.91493234 
0 0.35654996917050291 0 0.47493662406035259 1:2.1708286 2:0.12144629 3:-1.092237 4:-0.77849184 5:-0.27553907 6:1.8227105 7:-0.73572412 8:-0.56995409 9:-1.6372718 10:0.11519275 11:-0.42912694 12:-0.1420172 13:0.44798924 
0 10 0 0.28354863851039741 1:1.3191553 2:-0.46921301 3:-0.5391811 4:-1.5470871 5:-0.8008195 6:-0.084627822 7:-1.1005193 8:-1.1642122 9:-0.97421968 10:0.17814244 11:0.27827081 12:0.03461372 13:1.1786995 
0 7.3842667744147068 0 0.0072756419260978818 1:0.73688778 2:-0.10779821 3:-1.8599456 4:-1.7243462 5:0.24933649 6:0.14100744 7:-1.96687 8:0.60989533 9:0.10436447 10:0.20658564 11:1.4178187 12:-0.92888166 13:-1.2612634 
0 0 0 7.6895244170042174 1:1.356608 2:-0.9433564 3:-0.81158585 4:-1.2358253 5:0.37990617 6:2.3646034 7:1.6268892 8:-0.12954436 9:-0.33729466 10:0.84187229 11:-0.94548335 12:-0.58341006 13:0.8108034 
0 0 0 0.97395239504605458 1:1.987193 2:0.043169885 3:-0.49395705 4:-2.8904422 5:0.3595616 6:0.28088213 7:0.93516817 8:0.69079215 9:-0.95818526 10:0.23613793 11:-2.3862996 12:-0.55371216 13:0.88589381 
0 4.3068198481187192 0 0 1:1.4468332 2:0.16314297 3:-1.3739646 4:-0.98960747 5:0.13147909 6:1.6225968 7:-1.3094195 8:1.8275637 9:-0.73005354 10:1.4654946 11:-0.67298984 12:-1.2233075 13:-3.0057525 
0 0 0 0.88590671576045787 1:1.7824125 2:-1.1929024 3:-0.92822461 4:-0.31755782 5:-1.9125716 6:-0.42661435 7:-0.070540105 8:0.52206473 9:-0.56344714 10:1.8544531 11:1.6491621 12:0.58451765 13:-0.81451599 
0 0 0 1.8150223978806104 1:0.74747287 2:-0.29681606 3:-2.3805018 4:-1.1058109 5:1.1636068 6:2.8375623 7:-0.59141747 8:-1.7032037 9:1.056785 10:-2.5815562 11:0.38927263 12:-1.6763963 13:-1.1568183 
0 3.4675819334674012 0.15130036991724666 0 1:1.4071804 2:0.065646119 3:0.34816793 4:-2.1387314 5:-2.7969651 6:3.0450383 7:-0.49869929 8:0.85473301 9:1.3604922 10:0.25786497 11:0.6115055 12:0.35648478 13:2.2471896 
0 3.1903237830711233 0 1.552812816464703 1:1.2908007 2:-0.74103107 3:0.61378632 4:-1.4123619 5:-0.73931154 6:-0.0081110705 7:-2.6027821 8:1.9209177 9:-1.3562671 10:2.697698 11:2.0940158 12:-2.9323194 13:0.15308048 
0 0 0 0.51061629994980995 1:1.1687748 2:-1.2877657 3:-0.69899932 4:-1.9413871 5:-0.73886398 6:3.9143153 7:-0.76538169 8:1.2188985 9:-2.3558409 10:0.75893343 11:1.7835556 12:0.22866503 13:0.90597076 
0 10 0 0 1:1.666708 2:0.74504061 3:-0.25365037 4:-0.76526061 5:-1.3836946 6:0.45395315 7:0.34930644 8:1.1218393 9:-0.04605231 10:0.87046077 11:1.1119956 12:0.11052474 13:1.8766669 
0 4.99955723152146 0 0 1:0.81736087 2:0.50741531 3:0.064885953 4:-3.0281122 5:-0.98518879 6:0.86952556 7:-0.48740143 8:0.69005347 9:-0.36795212 10:-0.44362749 11:-0.55601799 12:-0.83829771 13:2.3550112 
0 0 0 10 1:1.5712967 2:-1.3299333 3:-1.0800268 4:-0.19863982 5:1.1827325 6:2.5428584 7:0.0083122386 8:-0.79744056 9:-0.68767213 10:0.39234588 11:-1.064649 12:0.011574836 13:-1.3415205 
0 10 0 0 1:1.6344717 2:-0.099831524 3:-0.22652892 4:0.13580999 5:0.72975592 6:0.49210755 7:-0.56617894 8:-0.23242531 9:0.49189942 10:2.0652276 11:1.2719443 12:-0.49521015 13:-0.1683827 
0 10 0 0 1:1.6467036 2:0.061207063 3:-0.0053855206 4:-1.0569119 5:-0.75319218 6:1.3446751 7:-1.0844746 8:-1.5143859 9:0.0092762743 10:-0.17538839 11:1.6048165 12:-0.56128078 13:-0.15229467 
0 9.8875365237787936 0 0 1:1.7330724 2:0.67616427 3:-1.4677349 4:-1.0772834 5:-1.6743492 6:0.20739414 7:-1.899959 8:1.1246953 9:-1.654723 10:-1.001261 11:-1.0190263 12:-0.24806252 13:-1.0286647 
0.3649227072112689 0.59838612169776961 1.9283675206821407 10 1:1.197781 2:-0.447198 3:-0.84869004 4:-0.53632366 5:2.130691 6:1.1846653 7:0.97836371 8:-1.018116 9:0.62593323 10:-0.370211 11:-2.9138719 12:-0.044751635 13:-1.5747189 
0 0 0.89410748290356556 0 1:0.71497961 2:-1.5883307 3:-1.2088408 4:-0.87937651 5:0.64313388 6:1.2716873 7:-1.3481217 8:0.013505028 9:0.80089661 10:2.7498547 11:-2.2825945 12:2.1816098 13:-1.5281436 
0 2.7090337324233227 0 0 1:1.2837007 2:-0.069531999 3:0.51777101 4:-1.9077106 5:-1.8174418 6:2.5410374 7:-0.17638131 8:0.47557954 9:1.6217889 10:0.17155728 11:0.61717322 12:-0.11408248 13:2.2945023 
0 0 0 0.42782321109487886 1:1.0921249 2:-1.8234883 3:-1.2530768 4:-1.6467998 5:0.8442059 6:1.0722912 7:-0.78050676 8:-1.4362885 9:-1.1350111 10:-0.17374425 11:-1.0740322 12:-0.63600116 13:0.19912687 
0 0 0 2.1270497100549708 1:1.4301729 2:-0.5053344 3:-1.0689293 4:-1.4799853 5:1.0434531 6:-0.1940884 7:-0.019066607 8:-1.2423643 9:-0.1696326 10:-0.55130695 11:-1.3095036 12:-1.2220584 13:-1.4964862 
0 10 0 2.655728294986667 1:1.4008936 2:0.42663986 3:-1.1313088 4:-0.25297039 5:-0.091303066 6:0.92133808 7:-0.52367182 8:-0.066951979 9:-1.6706709 10:0.81068627 11:0.35158208 12:-2.6761074 13:1.5859971 
0 0 2.9834180231119602 0.7510524306681694 1:0.80575981 2:-1.2920557 3:-0.61877472 4:-1.7729261 5:1.3715241 6:0.064181198 7:2.3574186 8:0.27761725 9:-0.37003947 10:-1.0586212 11:-0.0054034252 12:-0.95580684 13:-1.1704146 
0.5483987882779493 0.66086196031941424 0 0 1:0.46826421 2:0.92484085 3:-1.1328279 4:-2.6009 5:-0.41257592 6:-1.0579083 7:-0.2252602 8:2.3166835 9:-0.75595808 10:1.2413279 11:-0.07556383 12:-1.2578911 13:-0.215387 
0.38257943654393711 3.5007019574355649 0 0.43063813361133296 1:1.00714 2:-0.12053419 3:-1.2243255 4:-2.4133407 5:1.2381627 6:-0.47294878 7:-0.95329668 8:-2.0882901 9:-0.21814643 10:0.32143594 11:0.61035949 12:0.9485826 13:0.97965397 
0.68483973726950587 0 0 0 1:0.59283599 2:-0.93597547 3:-2.373242 4:-1.4666973 5:1.9656154 6:0.64234408 7:0.46735174 8:-1.7685817 9:1.8606273 10:-1.8135479 11:0.80241009 12:-1.5016571 13:-0.86131203 
0 0 1.0545592913523514 2.495272297343444 1:1.0503549 2:-0.19008855 3:-2.071295 4:-0.52451603 5:-1.339088 6:0.39166235 7:-0.61752352 8:-0.34987852 9:0.77994274 10:0.69040638 11:1.0860226 12:-2.452708 13:0.90166313 
0 7.4345844086513804 0 0 1:1.4178515 2:0.11369648 3:-1.2732915 4:-0.8993468 5:0.1487015 6:1.2255526 7:0.38126807 8:0.8925147 9:-1.0894616 10:-0.26741414 11:0.071117591 12:-0.097764626 13:-0.94554495 
0 4.7162703829016364 5.3946448910549734 3.5115131375601765 1:1.1978891 2:-1.0828294 3:-0.55390042 4:-1.3227372 5:0.05235132 6:-1.3231673 7:-0.70194991 8:0.66630125 9:-1.5774468 10:-1.0411061 11:-2.5942283 12:-0.63758745 13:-0.0086964656 
1.7967103149976074 10 0 6.6726967250539566 1:1.4358578 2:-0.57834661 3:-0.43832495 4:-0.78705911 5:-0.07325654 6:0.68951259 7:-0.55229973 8:-0.68078407 9:1.7064852 10:1.1709024 11:0.15658761 12:-1.1341159 13:-1.0816628 
0 0 1.1928959974447133 0 1:0.70609971 2:0.077602506 3:-0.25986158 4:-3.5011955 5:-0.90407183 6:1.0298367 7:-0.097521636 8:0.96924108 9:0.11731391 10:-0.11680539 11:-0.35618105 12:-0.037216943 13:1.9024398 
0 9.0913002431798997 0 0 1:1.6248794 2:0.25547042 3:0.1572188 4:-1.6767482 5:-1.0589202 6:0.19868046 7:-0.10881771 8:-1.0479406 9:0.29664601 10:0.88878132 11:0.87282759 12:0.19427632 13:0.24823874 
0 0 0 0.66649437342522944 1:1.6163133 2:-0.40969232 3:0.1697121 4:-2.1523544 5:0.91823865 6:2.6594874 7:0.79352616 8:0.32657803 9:-1.3130252 10:0.46820209 11:1.4569832 12:-0.96072395 13:-0.96344886 
0 10 0 0 1:1.5745478 2:-0.52343395 3:-0.46537942 4:-0.65495914 5:-0.48084269 6:0.03646376 7:-1.6656384 8:-1.564709 9:-1.2928075 10:0.37553692 11:1.5789929 12:0.16728979 13:-0.39827083 
0 0.73943226533482431 0 0 1:1.4767909 2:0.92276491 3:-1.7007995 4:-0.82944735 5:-1.4924411 6:0.43665964 7:0.1204114 8:-1.2523701 9:0.63592062 10:-2.0111472 11:-0.032674417 12:-0.32937261 13:1.2198453 
0 10 0 0 1:1.5010145 2:0.66298309 3:-0.71703746 4:-0.61523099 5:-1.0561222 6:1.079249 7:0.010326727 8:-1.9343266 9:0.42263027 10:0.028942206 11:0.46213529 12:0.91991046 13:0.79160683 
0.0079860920060100225 0 0 0 1:1.2090639 2:-0.25274468 3:-0.032524817 4:-1.5509098 5:-0.97533049 6:2.7763577 7:-0.78256698 8:0.95115827 9:-0.33888946 10:2.1343161 11:1.3435689 12:2.2838084 13:-0.88786615 
0 10 0 0 1:0.96636843 2:-0.89927517 3:-0.25785786 4:-1.4983322 5:0.90277796 6:0.22338015 7:-1.7174246 8:-0.45279435 9:-0.1540843 10:1.9527949 11:-1.7112867 12:-0.32829383 13:-0.77277884 
0 10 0 0 1:0.98587598 2:0.80583045 3:-0.25086813 4:-1.3905623 5:-0.89999795 6:-0.71273512 7:-0.48412297 8:0.48380533 9:0.54726882 10:-0.72818318 11:2.1603179 12:-0.5647886 13:0.633389 
0 5.4886259131362776 0 0.094135672697934325 1:1.4911696 2:0.58512873 3:-0.50682537 4:-0.71702233 5:0.25994074 6:1.6101174 7:0.2113732 8:-0.32705909 9:-0.77953996 10:-0.035886526 11:-1.6175122 12:1.7410734 13:-1.7365553 
0 10 0 1.7569016675020777 1:1.8395791 2:-0.089567692 3:-1.2685504 4:-1.0220588 5:1.0612323 6:-0.66928123 7:-0.50367501 8:-1.5774025 9:0.25291347 10:1.0909815 11:0.74717574 12:0.64948252 13:-0.81454713 
0.13437832579800038 0 0 0 1:0.83460529 2:-0.13264735 3:-1.208213 4:-3.1924914 5:0.74066106 6:0.2608788 7:-1.1106952 8:1.143267 9:-0.70406795 10:-1.2751682 11:1.4911916 12:0.77136437 13:2.9380952 
0 10 0.24968318579254284 0 1:0.72283266 2:0.35255994 3:-0.024620779 4:-1.5120663 5:-1.5908241 6:0.61049845 7:-1.4245529 8:-0.64720875 9:-0.31487345 10:-0.66895194 11:1.850439 12:0.024507025 13:2.0076913 
0.05859660601986387 1.2444104026829388 0 4.0299166530633554 1:1.0081397 2:-0.7036635 3:-0.094837017 4:-1.8502269 5:1.1640733 6:0.50783688 7:-1.5430915 8:-1.7938693 9:0.69181302 10:2.1056949 11:-0.0146638 12:-0.040173703 13:-0.57188799 
0 10 0 0 1:1.6866751 2:0.57341916 3:-0.30554514 4:-0.75755424 5:-1.0098534 6:0.19786624 7:-0.80801925 8:-0.65049518 9:0.53509756 10:-0.28718659 11:-0.50359312 12:-0.30768295 13:0.80568891 
0 6.6329844922074086 0 0 1:1.1946913 2:0.00090505322 3:-0.80596634 4:-1.6729881 5:-0.96650017 6:1.5418682 7:-0.28670671 8:0.059582385 9:-0.75057348 10:0.27211454 11:-1.3292989 12:-0.072091571 13:-1.8791877 
0 10 0 0 1:2.1195325 2:0.29186999 3:-0.8592651 4:-1.1290298 5:0.08698609 6:0.65657294 7:-0.45424968 8:-0.65645066 9:-1.6726344 10:0.80190546 11:-0.10754447 12:0.63997127 13:-0.020790317 
0.050425861310109635 0 0.72132681986161407 0 1:1.3964963 2:-0.68508188 3:-1.5581997 4:-0.60231541 5:-0.047698073 6:2.6294656 7:1.6425446 8:0.015104305 9:-0.45756363 10:-0.54063974 11:0.73749576 12:-4.1313482 13:2.5677889 
0 0 0 10 1:0.51577992 2:0.01210968 3:-1.4612611 4:-0.39230913 5:1.1613844 6:-0.19298946 7:0.28517909 8:0.45096591 9:1.5092489 10:-0.088003884 11:-1.5638832 12:-2.3104389 13:-0.27976456 
0 4.4488587990550945 0 0 1:1.3362932 2:1.0430685 3:-0.3761703 4:-1.3122671 5:-1.3123071 6:1.0211105 7:-0.74627596 8:1.6088857 9:0.45560562 10:0.28669892 11:0.95693951 12:-0.34304685 13:1.6504757 
0 10 0 0 1:1.4668574 2:0.56306882 3:-0.36483159 4:-2.258522 5:-0.84954383 6:-0.13759326 7:-1.0048899 8:0.48202733 9:-0.88679367 10:-0.50023048 11:-0.023090438 12:-0.012673449 13:-0.64445477 
0.76397083983098979 0 0.41214247842031493 1.3218725158805043 1:1.2359641 2:-0.79731875 3:-0.55413334 4:-2.9221215 5:-0.1631892 6:0.42868785 7:0.52067905 8:-1.0071738 9:-1.133217 10:-0.21331252 11:-2.267835 12:1.0238742 13:1.0565396 
0 1.6539192942455683 0 0 1:1.4516169 2:0.47994059 3:-0.8072325 4:-2.3873556 5:-0.83223662 6:0.82724284 7:-0.77055449 8:0.2358714 9:-1.2607858 10:1.0747104 11:0.34099751 12:0.45286162 13:-0.75337584 
0 0.84044947463990682 0 0 1:1.1681981 2:-0.46659645 3:-0.9646037 4:-3.3082191 5:0.79939784 6:-0.20125082 7:-0.72533597 8:-0.33673514 9:-0.56558957 10:1.7923724 11:0.87351422 12:1.8060902 13:-1.1924074 
0 2.6768009008603748 0 0 1:1.1332974 2:-0.77037948 3:-0.65961513 4:-2.2904657 5:-0.30964754 6:-1.5080613 7:0.48127082 8:0.15148866 9:0.18682671 10:1.2878015 11:-1.441306 12:0.8437196 13:-0.50216943 
0 9.5372428462915426 0 10 1:1.572222 2:-0.35224276 3:-1.1208515 4:-0.5664739 5:1.1862385 6:-0.67565809 7:-0.7914153 8:0.065777228 9:0.96478235 10:0.12975684 11:-0.64594829 12:0.28923477 13:0.008333905 
0 1.4004305043162293 0 0 1:1.3503601 2:0.12549647 3:-1.3389838 4:-1.0245849 5:-1.0121228 6:1.0725073 7:-1.2498696 8:1.3758246 9:0.57774385 10:0.94730183 11:-0.55727353 12:-1.0201119 13:-1.2731796 
0 4.1600502332866904 0 0 1:0.66129621 2:-0.92877201 3:-1.1911045 4:-1.3457195 5:-0.77696552 6:0.87941034 7:-0.57865576 8:0.19575227 9:-1.2713352 10:2.0277939 11:1.8007301 12:-0.91833222 13:2.2023714 
0 0 0 0.055566324680757589 1:0.34734304 2:-0.034556342 3:-2.3553008 4:-1.069371 5:0.73828497 6:0.64685154 7:-0.39313547 8:1.8772511 9:0.020723753 10:1.1820311 11:0.15568672 12:-0.52582844 13:1.5851255 
0 0.50984765458650461 0 4.5495181453999409 1:1.1859099 2:-0.8910683 3:0.3991974 4:-0.32183611 5:0.62826229 6:2.3958555 7:0.066670325 8:0.89335522 9:-0.96199692 10:1.1691469 11:0.7003105 12:1.1139442 13:-1.2147946 
2.3372825522484728 8.836027545032767 0.076130225799945744 8.7962131179614342 1:0.77226626 2:-1.1406354 3:-0.95020911 4:-1.7775425 5:1.0946004 6:-0.85582233 7:-0.89604227 8:-1.3433844 9:-0.49502984 10:0.51568126 11:-2.0858973 12:1.0914784 13:0.82730648 
8.5703069803759711 2.2890726746034558 10 1.6727992744429963 1:0.10770857 2:-0.81124353 3:-0.20903185 4:-1.050277 5:-1.6968339 6:-0.19130237 7:-0.20927572 8:0.88280316 9:-1.5072611 10:1.042476 11:0.40119196 12:0.14019212 13:-0.94075932 
0 0 0 10 1:1.4196386 2:-0.76620847 3:-1.3657737 4:-0.28576501 5:0.34820728 6:1.6283909 7:1.4199359 8:-1.2664449 9:0.82136742 10:0.23246147 11:-0.68075558 12:-0.63781773 13:0.44488207 
0 1.8054463828673386 0 0.23171443158622362 1:2.029657 2:0.00039777947 3:-1.0944531 4:-3.1178863 5:-0.45420727 6:0.20726983 7:0.58361631 8:-0.08653677 9:-2.2151093 10:1.3579629 11:-1.4704422 12:1.352204 13:0.50535387 
0 0 0 1.0684318397021046 1:0.12176408 2:0.4933138 3:-1.2430842 4:0.76539026 5:1.7503274 6:0.19620165 7:0.8744329 8:-0.18157309 9:-0.28902253 10:0.33173736 11:0.51436196 12:-0.2926814 13:-0.70886802 
0 1.8014213383996542 0 0 1:1.6873334 2:0.33402014 3:0.71953084 4:-1.7550863 5:-1.639419 6:2.3380866 7:-0.94125881 8:0.73735514 9:1.2397206 10:0.75943543 11:1.2919057 12:1.3271033 13:0.42002475 
0.87133676095409196 5.0640150700624735 0 0 1:1.3470443 2:-0.18669358 3:0.040544543 4:-1.3426277 5:-1.5996108 6:1.8838543 7:-0.15113481 8:-2.9625467 9:0.023132346 10:1.0461143 11:0.80107567 12:1.610944 13:0.18549818 
0 1.2091567273443267 0 0 1:1.6839814 2:0.51801789 3:-1.1949319 4:-1.7616812 5:0.15714866 6:0.64304596 7:-0.23455243 8:1.8469023 9:-2.7493841 10:0.68201231 11:-0.87364439 12:0.45128699 13:-0.65729885 
0 0 2.0655418408638981 10 1:0.90759751 2:-1.4404309 3:-1.6168288 4:-0.66125499 5:1.5073548 6:1.4277986 7:-0.24688331 8:-1.0980858 9:-2.2265741 10:-0.33865214 11:-1.8303889 12:-1.4242266 13:0.92058521 
0 0.22623036751885339 0 0 1:0.83170849 2:0.4033273 3:-0.14321487 4:-1.4585312 5:-2.021218 6:0.70607303 7:-0.9754246 8:-0.16956834 9:1.0179306 10:-1.9147801 11:1.9304682 12:-2.6623041 13:1.5074255 
3.4022233822462997 0 1.4237350124785468 0 1:0.82666732 2:0.9940824 3:0.12469368 4:-2.0332468 5:-1.4221962 6:-0.10661317 7:-0.93378387 8:-1.0794487 9:0.85326677 10:-0.16204734 11:2.1035903 12:-1.4865804 13:0.1619547 
0 1.8527569278319158 0 0 1:1.2759255 2:1.0990742 3:-0.0096334088 4:-1.319053 5:-1.4645123 6:0.9702999 7:0.018434003 8:0.71099745 9:1.0058532 10:-0.056194313 11:2.2333568 12:-0.10604772 13:2.3679169 
0 1.3548646708783443 0 0 1:1.2591773 2:0.17552851 3:0.34475496 4:-2.1720527 5:-1.721218 6:0.48355062 7:-1.3080631 8:0.091218789 9:-0.33151452 10:0.11610554 11:1.442325 12:-1.4229761 13:2.0311656 
1.6921398448089666 10 0 0 1:1.511433 2:0.024813008 3:-0.21065182 4:-1.1285502 5:-0.77007121 6:0.2724217 7:-1.3672146 8:-0.94888388 9:-1.1797433 10:1.5184581 11:-0.39658632 12:-1.1932413 13:-1.1684776 
0 3.2197098497944774 0 0 1:1.1858243 2:0.44690229 3:-1.1903759 4:-1.1860266 5:-1.2291066 6:0.14596357 7:0.48922045 8:-0.6403164 9:0.077476276 10:-1.2010622 11:-0.11026252 12:-0.61029213 13:1.2359132 
0 10 0 0 1:1.6929385 2:0.75010129 3:-0.061350153 4:-2.2250434 5:-0.73372406 6:0.36882391 7:-1.2117653 8:0.58915928 9:-0.67113457 10:-0.4036513 11:0.22212834 12:0.53489274 13:-1.0773218 
0 10 0 0 1:1.1633229 2:0.20113784 3:-2.1125625 4:-0.74160686 5:-0.50775485 6:0.4598649 7:-0.36852634 8:-0.4083013 9:-0.36877988 10:0.87656138 11:0.37344877 12:1.8591016 13:-0.17749 
0 0 0 0.34259405520718222 1:0.75592894 2:-0.63992323 3:-2.6418634 4:-1.4098073 5:1.8223037 6:1.1282012 7:0.96788617 8:-1.4708302 9:1.223919 10:-1.737967 11:0.53150993 12:-1.2650388 13:-1.7077093 
0 10 0 0 1:1.6373339 2:-0.056639366 3:-1.0603078 4:-0.27169405 5:-0.99006929 6:-0.030139393 7:-2.488179 8:-0.35050249 9:0.88899368 10:-1.1068481 11:0.83404232 12:-0.3647822 13:-0.74937574 
1.0073319004871111 1.6506319365231967 1.0960905283391795 0.65465213367311936 1:1.0751959 2:-0.04182411 3:-1.848196 4:-0.60113891 5:0.10012857 6:-0.72962265 7:0.20706189 8:-1.6003379 9:1.5670246 10:1.7152814 11:1.8346758 12:2.8639717 13:4.1299873 
0 0 0 4.9963140865627933 1:0.84364639 2:-1.0078516 3:-0.278681 4:-2.4376355 5:-0.43760547 6:1.4839988 7:0.27056695 8:1.4965243 9:-0.23604433 10:0.6596878 11:1.2915408 12:-1.3922271 13:0.53982513 
0 0 0 2.697957587838832 1:1.6478252 2:0.14733808 3:-1.1059279 4:-1.8771778 5:-1.0514412 6:2.4370576 7:0.89231215 8:-0.012493902 9:2.7017761 10:-0.24893551 11:0.57381827 12:-1.5815625 13:0.73734446 
0 0 0 3.4233615885138629 1:1.2448409 2:-0.45129129 3:-0.67593214 4:-1.017651 5:-0.19554598 6:1.5499094 7:0.0019062173 8:0.30496007 9:-1.1530011 10:-2.1371572 11:-1.0184487 12:-0.14404843 13:-1.933651 
0 10 0 0 1:1.3850339 2:0.16305245 3:-0.11878758 4:-0.21834671 5:1.0942444 6:1.3048675 7:-0.9630294 8:-0.30169471 9:-0.43341151 10:1.3360437 11:0.96374297 12:0.53747936 13:0.42556716 
0 10 0 1.3173437429243608 1:1.6831115 2:-0.26982505 3:-0.74892578 4:-0.68263546 5:0.37464418 6:0.41605796 7:0.30108476 8:0.11419459 9:-0.45840892 10:1.8363391 11:1.4599986 12:0.79893466 13:0.75398462 
6.756664903881636 3.1405687795773987 0.10195438549007145 2.1544524371645557 1:0.1648202 2:-0.036593738 3:0.39115841 4:-0.54678729 5:-1.9278604 6:-0.34390611 7:-1.563374 8:-1.8178451 9:-1.2343912 10:-0.1309151 11:0.46771433 12:0.17831574 13:-1.1821051 
0 0.14691191768645256 0 4.8471278616080102 1:0.9983563 2:-1.0037349 3:-1.3766076 4:-0.8690503 5:1.3854095 6:-0.021394895 7:0.59017192 8:-0.39026683 9:-2.6131382 10:3.0259236 11:-1.8476972 12:-2.1572133 13:-0.078088157 
0 10 0 0 1:1.1366765 2:0.11099355 3:0.0048901288 4:-1.3248621 5:-0.19484426 6:0.63995408 7:0.22642116 8:-0.48221289 9:-0.48770799 10:0.78503836 11:0.84921389 12:-0.3559647 13:1.5482617 
2.5483020860876922 3.290569524408264 2.6490696763298622 0.8411790885442374 1:0.19298938 2:-0.50791636 3:0.95913651 4:-1.7043667 5:-2.8274418 6:-0.45128694 7:-0.93337142 8:0.29164883 9:-0.89966381 10:1.1076299 11:-2.1337769 12:-1.3984862 13:-0.061895671 
0 9.093527527634091 0 0 1:0.83188148 2:0.42631022 3:-0.0049468011 4:-0.53958584 5:-0.11181015 6:2.3953069 7:0.25320687 8:0.56221589 9:-0.86622162 10:-0.26601316 11:0.38753144 12:-0.53041217 13:0.16901431 
0.75209257294962473 0 0 0.070658932600668439 1:1.0651377 2:-0.574359 3:-1.6408153 4:-0.30460526 5:-1.0755159 6:2.6831223 7:-0.76515125 8:-0.28410677 9:0.47460068 10:2.1771346 11:0.20178876 12:-1.6895304 13:-0.86671874 
0 5.4589039435845779 0 0 1:1.4163034 2:0.36321967 3:-1.136215 4:-0.10908031 5:-0.0045271731 6:1.2478069 7:-0.18071602 8:-0.93635273 9:-1.1828253 10:0.72430458 11:1.0689114 12:-1.4652297 13:2.2118829 
0 0 0 8.3655633747233278 1:1.3928692 2:-0.28076287 3:-1.6245397 4:-0.74673388 5:0.53537193 6:1.70449 7:0.49765533 8:-0.82274476 9:-0.9713323 10:0.23650817 11:-0.38265709 12:-0.14406665 13:-0.65099659 
0.97008971305328695 5.8458914077849613 0 0 1:1.10316 2:-0.17526824 3:-1.8538726 4:-0.3633293 5:-1.1688221 6:1.7551124 7:-0.70219654 8:-1.1032954 9:0.24145564 10:2.3142196 11:0.60122406 12:-0.73206475 13:-1.1207827 
0 6.8168445933644755 0 0 1:1.3303165 2:0.59478029 3:-1.5695158 4:-0.98611814 5:-1.4116553 6:-0.3237489 7:-0.048728744 8:-1.5380617 9:0.84935204 10:-0.99491386 11:0.98546946 12:0.15132012 13:2.1082654 
0 0 0 0.97309405931813242 1:1.7444882 2:-0.35164767 3:-0.65107291 4:-1.1984385 5:0.70964717 6:1.7141263 7:2.8366846 8:-0.20350556 9:0.50610168 10:1.4167784 11:0.71260123 12:-0.86286598 13:-1.9439804 
0 0 0.4110571888704227 0 1:0.97708637 2:-0.17949637 3:0.11602602 4:-1.5379248 5:-1.0146487 6:1.4661379 7:-0.24078214 8:2.2279315 9:-1.2543156 10:-1.0449904 11:-0.87646098 12:-0.23532702 13:-2.1474759 
0 0 9.5025353537662003 10 1:1.2501228 2:-1.6151698 3:-1.6656826 4:-0.6287494 5:1.1095944 6:1.1028252 7:-0.24635686 8:-0.66229548 9:-0.77229642 10:0.60729389 11:-0.39179496 12:-0.40621093 13:-0.52057955 
0 4.2670001584522561 0 7.8688928852221345 1:0.95510254 2:-0.50172868 3:-0.25297131 4:-0.41366727 5:1.7362027 6:0.21649592 7:-0.33784605 8:-1.8988238 9:-1.5229948 10:0.453874 11:-1.7110524 12:-0.96495137 13:-1.6392768 
0 10 0 0 1:1.6022177 2:0.22100402 3:-1.1268931 4:-1.9569792 5:-0.67633582 6:-0.62534708 7:-0.56408175 8:-0.41744842 9:-0.56286488 10:1.2861711 11:0.22614758 12:-0.063325671 13:-1.0799623 
0 0.21988939039429989 0 0 1:1.4128084 2:-0.65801326 3:-0.69993389 4:-0.84262692 5:-1.3194758 6:1.4298973 7:-2.0496503 8:1.5313381 9:-1.2216332 10:2.7948685 11:1.1496403 12:1.0098062 13:0.54773878 
0 6.506826543140706 0 5.3457002628837866 1:1.038433 2:-0.53887558 3:-0.3307487 4:-0.72617215 5:0.0051311514 6:1.106314 7:-0.2017639 8:-3.0169376 9:1.2441393 10:-1.2937448 11:1.7607886 12:-0.34534354 13:-0.57200808 
0 0 1.7546379091540556 0 1:0.75688915 2:0.94373049 3:-0.13961635 4:-1.6953143 5:-1.3135334 6:0.31205802 7:-0.76417323 8:-1.5005246 9:-0.16338572 10:-0.2504964 11:1.3831487 12:-0.97982474 13:0.80981282 
0 4.7224097958273736 0.63894732607680937 0 1:0.62117033 2:-0.50799498 3:-1.0501795 4:-1.0028861 5:-0.18476792 6:0.252293 7:-2.0914913 8:0.15072345 9:-1.3186889 10:-1.1066055 11:-0.70165648 12:-2.2956496 13:-0.19458201 
7.7841775254213417 10 4.8533572203025646 0 1:0.097737421 2:-0.1410118 3:-0.78999255 4:-0.23217587 5:-0.32634226 6:-0.25578964 7:-0.29938276 8:0.58059804 9:1.1301569 10:1.1427971 11:0.49619066 12:0.65023416 13:0.91270043 
0 10 0 5.054221464034331 1:1.3660487 2:-0.72060634 3:-0.24294069 4:-0.67955803 5:0.17170208 6:0.55217414 7:-0.47069198 8:-1.6151461 9:2.2461379 10:1.142798 11:1.325296 12:0.61773986 13:-0.16087699 
0 0.66588057146956348 0 0 1:1.216538 2:-0.70876954 3:-1.3332181 4:-0.26462696 5:-0.11241675 6:0.014472682 7:2.7120562 8:0.66381474 9:0.2001824 10:-1.4373873 11:-0.26731416 12:-1.2695384 13:-1.2767424 
0 0 0 1.9422534186130989 1:1.3537856 2:-0.54456903 3:-1.4748917 4:-1.0280318 5:-0.3982613 6:1.983433 7:1.3868775 8:0.2708306 9:0.18124828 10:0.83902182 11:0.26529821 12:-2.6330839 13:1.9740569 
0 0 0.76547926227751584 0 1:1.4103038 2:-1.2793518 3:-1.3565897 4:-0.64683168 5:1.8849019 6:2.187691 7:-0.27257246 8:-1.4351258 9:-0.34056487 10:0.30755457 11:-0.23788474 12:0.41484002 13:0.12434321 
