svm_type c_svc
kernel_type rbf
gamma 0.10000000000000001
nr_class 9
total_sv 12291
rho 0.52024427403499685 1.218196686480272 0.97790028380422522 0.60910091539277544 1.1538625864752075 0.97232495060037105 1.0720109671493578 0.51947304755382795 0.74675088713562787 0.76394128539347506 0.1427550642541722 0.68070316750602822 0.77592145135373813 0.88198294781516606 0.20930119581361795 0.19529558502292449 -0.14258690975748703 0.026374666943513134 -0.095943549184312651 0.051682787092962326 -0.32242930970802047 -0.085939287580262896 -0.0076696707983304078 -0.0067561217056338095 0.17372659894008147 -0.066283919997833743 -0.05172454378333903 0.34724721440177325 0.43792359077095011 0.12246665267038281 0.080267084627883969 -0.013181341751225461 -0.17456496877175745 0.20640816589256025 -0.22019453439411751 -0.27123117353224235
label 0 1 5 4 3 6 8 2 7
nr_sv 926 914 1607 1682 857 1189 1730 1817 1569
SV
3.8935777129022413 0 0 0 0 0 0.31932106745910577 0 1:-1.7495854 2:0.17777142 3:1.759037 4:1.0480798 5:-0.4870664 6:0.28975562 7:0.40827575 8:-1.3630562 9:-0.24616063 10:-1.1416222 11:-1.6132909 12:-0.10605003 13:1.7631471 
6.638412771238265 10 10 10 0 8.9781675863321979 10 10 1:0.92603189 2:-0.63938493 3:-1.0517567 4:-0.34724851 5:-0.10358132 6:-0.32089871 7:-0.22747112 8:-0.16142241 9:0.19876778 10:-0.46619139 11:-0.83467668 12:-1.0469146 13:-0.10900885 
10 0 0 0 0 0 0 0 1:-1.2427432 2:-0.049468755 3:0.90679972 4:1.3022241 5:-0.71359338 6:-0.8183659 7:1.1659412 8:0.16468868 9:0.66160538 10:-0.019021232 11:-0.32954677 12:1.2225379 13:0.1638726 
0 0 0 7.1707066565663871 0 0 0 0 1:0.80164449 2:-0.46780624 3:-0.15131627 4:-0.48781564 5:-0.2516276 6:-0.80874875 7:-0.60925903 8:0.35894298 9:0.056823825 10:-0.82205709 11:-0.030542697 12:-0.5587878 13:-0.74703398 
0.14413247702930934 0 0 0 0 0 0 0 1:-0.8482105 2:0.14329151 3:1.5497817 4:1.4124916 5:-0.99909917 6:-0.48850034 7:1.0533763 8:0.39713001 9:0.033470624 10:0.0015361011 11:0.90835505 12:1.4313571 13:1.0240812 
2.3117125057472401 0.38981835172724061 2.5270612404824537 0 0 0 0 0 1:0.3513312 2:-1.0045397 3:-0.30713465 4:0.60702753 5:2.0437203 6:0.0031487085 7:0.65737516 8:0.7474381 9:-0.23683048 10:-1.5920455 11:-0.94451765 12:-0.63726389 13:-0.11649206 
0 0 0 0 3.9298653277409858 0 0.41991250355825499 0 1:-0.53555377 2:0.33300424 3:1.1769057 4:-0.40145558 5:-0.54849236 6:-0.56356505 7:-1.4933304 8:-1.2677071 9:-1.2305467 10:-2.294453 11:0.46028232 12:-1.0316343 13:-0.083511264 
0 0 0.62779096121738498 0 0 0 0 0 1:0.091901372 2:-0.71664323 3:1.0900288 4:-0.02563711 5:-1.39239 6:-0.88548924 7:1.1341423 8:-0.2142097 9:0.67337028 10:0.41671067 11:0.64670186 12:0.3257948 13:0.91513643 
1.6648427922884552 0 0 0 0 0 0 0 1:0.065423992 2:-0.73420126 3:-0.16023446 4:-0.15098416 5:0.24725853 6:0.42283039 7:0.37170693 8:0.80113099 9:-1.4552821 10:-0.17506187 11:0.46141947 12:0.9351478 13:-0.49066541 
0.93588514653863364 0 0 0 0 0 0 0 1:-1.6245284 2:0.38751717 3:1.4107868 4:0.33675672 5:0.97860181 6:0.38384569 7:0.14217757 8:-0.51010427 9:-0.25783638 10:-0.1405487 11:0.53439255 12:0.042677737 13:-2.3214205 
0 0 0 0 0 0 0.41818927256763183 0 1:-0.10297897 2:-0.61727796 3:0.56960351 4:0.3239601 5:0.65195792 6:-0.094949482 7:-0.058324407 8:1.4304437 9:-1.1397698 10:-1.8945999 11:-0.74965345 12:1.732808 13:1.1064476 
1.93557452541118 0 0 0 0 0 0 0 1:-1.358816 2:0.079102516 3:1.2243568 4:-0.13244626 5:0.76573619 6:1.7452173 7:-0.36982474 8:-0.072642027 9:0.87828163 10:0.34377027 11:0.18261536 12:-1.2302489 13:-0.40834826 
0 0 0 0 1.1755874101133468 0 0 0 1:-0.068473629 2:0.12249231 3:1.7604095 4:-0.83062325 5:-0.097901303 6:-0.8135184 7:-1.0402221 8:0.22300331 9:-0.54491753 10:1.330851 11:0.71055896 12:-0.50081727 13:0.21532986 
0.11812955885686303 0 0 0 0 0 0 0 1:-1.4026398 2:-0.41248347 3:0.87810913 4:2.2026682 5:0.028744145 6:-0.68565367 7:0.38179636 8:-0.91605839 9:0.28517659 10:-1.2256966 11:-0.082173899 12:0.56617608 13:-0.32004314 
0.66997792358898189 0 0 0 4.5790896284505394 0.30980119890853952 0 0 1:-0.60365577 2:0.076499125 3:1.5800524 4:0.84651293 5:-0.32226624 6:-1.6016828 7:1.5722946 8:-1.4554618 9:-0.046821287 10:-1.3149168 11:0.30136786 12:0.77172838 13:-0.34553811 
2.5228415101295889 4.6742495844420437 2.7027224568581909 4.3096419208061958 4.2701189673165807 10 10 3.0651279861689642 1:1.3476354 2:-0.65420946 3:0.40972607 4:-1.2065372 5:0.074593477 6:-1.3007343 7:-1.0104823 8:-0.168101 9:1.6444627 10:-0.40594818 11:-1.2475223 12:0.97204625 13:-1.2525133 
2.2424919661737168 0 0 0 0 0 0 0 1:-1.1535836 2:-0.096914004 3:0.89647125 4:1.0782882 5:-0.69204465 6:-0.37560339 7:0.75195319 8:-1.1792562 9:-0.34525724 10:-0.68379835 11:-0.27929912 12:0.17581586 13:-0.10746896 
0 0 0 0.022499038588788278 0 0 0 0.65976396227827594 1:0.24559057 2:-1.5637127 3:0.27220353 4:-1.3168098 5:-1.1945671 6:-2.4664171 7:1.8818275 8:2.155843 9:-0.26810435 10:2.7459586 11:-0.97342299 12:0.49254329 13:-1.6032718 
0 0 0 0 0 1.152968001681951 0 0 1:0.46435032 2:-0.44600683 3:1.0811329 4:0.8508918 5:0.025202896 6:-0.56720652 7:0.038509332 8:0.56842553 9:0.41287526 10:1.1361491 11:0.69651439 12:0.48788343 13:1.160533 
10 0 0 2.8513046255405863 0.49976591929277209 0 0 0.95508673070071959 1:-1.6776804 2:-0.47540707 3:-0.22922672 4:1.5980665 5:-0.62811911 6:-0.42800929 7:-0.23561555 8:0.26802016 9:0.45872093 10:0.34287921 11:1.3144888 12:0.10142554 13:-1.0423843 
2.113335243732962 0 0 0 0 0 0 0 1:-0.86340091 2:0.58693607 3:1.9515775 4:-0.47180607 5:0.12710051 6:0.95307004 7:-0.72639731 8:0.57179183 9:-0.81722126 10:-1.325214 11:0.87360736 12:-0.084860152 13:-0.43104501 
4.4607927413366344 2.2559002592089632 2.0504400828361447 5.653074253540999 0 4.2300635643926352 8.8983788680187033 1.2521000545178027 1:0.56749827 2:-0.63393728 3:-0.18817744 4:-0.23638339 5:-0.33081905 6:-1.4535902 7:0.18063597 8:1.0500782 9:-2.0682857 10:-0.56080675 11:-0.89878939 12:-0.30669641 13:-0.83633695 
0 2.4203353360482018 4.2312521905244145 10 1.9382707540076591 2.1473402187306738 0 0.80645575669230296 1:0.44639522 2:-0.91853977 3:0.017419046 4:0.28852056 5:-0.25575358 6:-1.5066464 7:0.68253126 8:2.2415905 9:1.6033538 10:-0.18578045 11:1.4660753 12:1.8150024 13:0.33826994 
0.29163755422704346 0 4.1540940249697575 0 0 0 0.1691313764822526 0 1:0.25658249 2:-0.68870365 3:0.12923492 4:0.20750276 5:0.77022602 6:1.063813 7:-0.34711334 8:-0.14780039 9:0.8493512 10:-0.63844288 11:-1.5898239 12:0.25774812 13:2.2913875 
0.94150757591116152 0 0 0 0 0 0 0 1:-1.376612 2:0.35189472 3:1.1525712 4:1.0388198 5:0.20881037 6:0.15295616 7:0.15949943 8:-0.60666124 9:-0.86271435 10:-0.99427241 11:1.5611383 12:0.49673099 13:-0.090761457 
1.1538670057012019 0 0 0 0 0 0 0 1:-1.3990159 2:-0.28806022 3:1.0764832 4:0.58096954 5:-0.18931972 6:0.78944921 7:-0.63133929 8:-0.23212029 9:0.74268429 10:1.3205474 11:1.701525 12:2.4316939 13:0.728572 
10 0 0 0 0 0 0 0 1:-1.6898625 2:0.1933999 3:0.6716041 4:1.1608777 5:-0.27130158 6:0.85694494 7:1.9009787 8:0.76127775 9:0.9915926 10:0.61421443 11:1.0046109 12:1.343323 13:0.59514723 
10 1.6864933300904965 0 0 2.4957244682727189 0 0 0 1:-0.43302488 2:0.74905115 3:1.9958078 4:-0.41439722 5:0.06180816 6:-0.083370409 7:0.48986912 8:1.1630696 9:0.52531267 10:0.99217771 11:1.7612845 12:0.603816 13:-0.056322743 
3.2282510796467476 0 0 0 0 0 0 0 1:-2.3672939 2:-0.32491312 3:0.65014725 4:0.66681211 5:0.33398022 6:1.5325579 7:2.1767866 8:1.4241186 9:1.6355119 10:0.99417438 11:0.3569415 12:-0.21068236 13:1.4165488 
4.3538336693704691 0 0 2.506608636639768 0 0 0 0 1:0.13661646 2:-0.6113231 3:0.66533768 4:1.281513 5:1.8329663 6:0.25414118 7:-0.07302824 8:1.7761133 9:0.10831314 10:-1.2444698 11:0.29918425 12:0.059512515 13:-0.12406156 
0.50533996224728617 0 0 0 0 0.44670660913344801 0.070096244082209533 0 1:-2.154942 2:-0.25955527 3:0.26210131 4:-0.32856666 5:-0.5390152 6:0.60668098 7:0.19844331 8:0.72859768 9:1.0574211 10:2.7544573 11:2.2687751 12:1.5950286 13:0.85493469 
6.1248010538891746 0 0 0 0 0 0 0 1:-1.4005563 2:0.6129205 3:1.3154848 4:0.38146352 5:-0.043610192 6:0.52761062 7:0.32458959 8:0.45616206 9:-0.71908086 10:1.4804105 11:0.31014268 12:1.0216428 13:0.60577786 
0.78571826887781215 0 0 0 0 0 0 0 1:-1.4133697 2:0.42123668 3:2.0364096 4:1.119164 5:0.44579832 6:0.44300067 7:-0.18037663 8:-0.47593028 9:-0.77951522 10:-2.1500372 11:-0.93882262 12:-0.20216008 13:0.61395241 
1.0223734245792959 0.15452257154123444 0 0 2.8547107602651343 2.8385429189468385 2.3737719960807797 0 1:0.53110071 2:-0.059037425 3:1.6121226 4:-0.069891865 5:0.21510734 6:-2.575006 7:-1.3309087 8:-1.1442334 9:-0.87597555 10:-0.32733792 11:0.57372549 12:1.586263 13:-0.20480351 
0 1.8399304864455099 0 0.083514830757827022 2.2688074855925202 0.77602917134897786 0 0.46826930839468306 1:-0.79692749 2:-0.67019899 3:0.58684854 4:1.7810105 5:-0.77616593 6:0.93887048 7:0.89671483 8:0.23450052 9:0.79158109 10:2.3145503 11:1.2044279 12:-1.3432956 13:-0.19929788 
0 10 3.6014950953068214 7.2982179336680382 3.1384515440329812 5.3799686048750592 0 1.2262126325884612 1:1.156115 2:-0.84470047 3:0.81071015 4:-0.03073731 5:-1.0082804 6:-1.5093666 7:-0.077671196 8:0.31630844 9:0.6690161 10:0.88958219 11:0.93911629 12:-0.5177166 13:-0.69936227 
10 0 0 0 0 0 0 0 1:-1.5274344 2:0.17703033 3:0.42617287 4:0.75351377 5:-0.78376041 6:-0.2894319 7:1.4787931 8:-0.019950958 9:0.94021089 10:0.0055977437 11:0.47087046 12:0.37443133 13:-0.21447646 
1.9225691199530417 0 0 0 0.085230977675977454 0 0 0 1:0.320085 2:0.12908461 3:1.6795383 4:-0.2773671 5:-1.0123964 6:-0.6868018 7:0.036620631 8:-1.7873753 9:-1.1803347 10:0.81139585 11:0.66238259 12:0.39435543 13:-0.17476933 
5.6525488250886191 5.8616197818525748 0 0.42453283462775671 2.4569341498248032 0 0 0 1:-0.030204299 2:-0.53666935 3:1.3524846 4:-0.94475929 5:-1.12783 6:0.56861181 7:1.2634637 8:-0.71093281 9:0.9490339 10:0.9947107 11:-0.014508221 12:-0.32740662 13:1.3771227 
1.5820186186379674 0 0 0 0 0 2.4340776109185422 0.051199913448105046 1:0.40260517 2:-0.08394973 3:1.0468242 4:1.473396 5:1.7343926 6:0.81565604 7:1.1488278 8:0.12716357 9:0.5955807 10:-1.0808618 11:0.37784307 12:0.49809107 13:0.041559619 
0 0 0 10 0 9.1359310511775025 3.198381637971393 0 1:1.0917659 2:-0.55958446 3:0.81438942 4:0.82794552 5:-0.7687178 6:-2.3392737 7:-1.2880567 8:-0.11978334 9:0.66206177 10:0.28380295 11:-0.25523694 12:1.1147102 13:0.79470247 
7.2345168929352237 0 0 0 0 0 0 0 1:-1.6628557 2:0.10742128 3:0.84894773 4:0.94334018 5:0.29298343 6:-1.117941 7:1.797966 8:1.0247838 9:-1.4108806 10:-1.4729273 11:-0.25313076 12:-0.56252365 13:-1.0930236 
4.6357938674379868 0 0 0 0 0 0 0 1:-1.5142065 2:0.39784468 3:2.0320318 4:0.83626847 5:1.0054445 6:-0.48237353 7:1.3013492 8:0.68256499 9:-0.62861034 10:0.33924768 11:-0.8158466 12:-0.60433198 13:1.9229177 
10 0 0 0 0 0 0 0 1:-1.6412229 2:0.32337336 3:1.0270681 4:0.77788216 5:1.7617456 6:1.314433 7:0.11244595 8:1.1147233 9:0.14013431 10:-1.2609639 11:-0.048506612 12:1.0692789 13:0.49447506 
3.2158236476937807 0 0 0 0 0 0 0 1:-1.8980072 2:-0.031761196 3:0.7667392 4:0.84522022 5:0.28836924 6:-0.31190465 7:1.6156966 8:-0.0013476658 9:0.26696814 10:0.78289562 11:0.43540654 12:-0.21861441 13:0.31101784 
10 0 0 0 0 0 0 0 1:-2.0829328 2:0.70556742 3:0.62727783 4:0.034275303 5:1.6765807 6:1.4810174 7:0.055333626 8:1.126024 9:1.9691233 10:0.76243398 11:1.45054 12:0.83652975 13:0.58015117 
2.8504696653740935 0 0 0 5.1435560887553624 0 0 0 1:-0.49712362 2:0.34039035 3:2.4044957 4:0.90775457 5:0.4235127 6:0.75432036 7:-0.081668289 8:-0.59864092 9:-0.69889034 10:-1.0164145 11:0.82643138 12:-1.0225067 13:-0.76587571 
0 0 0 0 0 0 4.8666801299472446 0 1:0.74228238 2:-0.23872012 3:0.42010992 4:-0.072735719 5:-0.19979565 6:-1.9349581 7:0.26914737 8:-0.11845891 9:0.10326593 10:-0.78076837 11:0.1989898 12:-0.05424076 13:0.60862775 
9.0250988260010274 0 0 0 10 0 0 0 1:-0.8453272 2:0.94717756 3:2.1991518 4:0.25378723 5:-0.43194826 6:0.32540581 7:-0.81468646 8:0.24105371 9:-0.36727781 10:0.31325102 11:0.17455356 12:-0.50676545 13:0.3741665 
0 0.8241674554688545 5.1121359318861055 0 0 0 0 2.1464525608983176 1:0.60520175 2:-0.7072268 3:-0.29361825 4:-1.4130413 5:0.28460843 6:-0.18265984 7:0.89543754 8:0.26638308 9:-0.38187975 10:-1.109305 11:-2.1738654 12:-0.29196733 13:0.84934599 
10 0.4332752048779287 0 2.3641768453999759 0.01936968254028551 0.36645221448949122 2.3233087945697775 1.6147685723995362 1:-1.271342 2:0.43462351 3:0.15251731 4:-0.01423472 5:-0.4003623 6:0.37668782 7:2.0530316 8:0.49393357 9:0.22099198 10:-1.0752544 11:-1.1881933 12:-0.56762524 13:-0.68992828 
0 0 1.0005399007230515 0 0.18438414804036304 0 0.21715057181107872 0 1:-0.12340207 2:-1.553857 3:0.42663408 4:0.69453325 5:1.8314344 6:1.290374 7:2.0525904 8:-0.2590658 9:0.34826664 10:-2.5107557 11:-0.76333636 12:-0.16203104 13:0.74020943 
3.7339064327757683 0 0 0 0 0 0 0 1:-1.9564227 2:0.13569843 3:0.23088306 4:-0.088805843 5:-0.48500942 6:0.40316365 7:-0.83662235 8:-0.58512529 9:-0.69799347 10:-0.70937621 11:0.64797959 12:-0.88854154 13:-2.2926662 
10 0 0 0 0 2.6496362324793417 0.084894801684945148 0 1:0.36380844 2:-0.41605016 3:0.40734465 4:-0.66480591 5:-0.59832963 6:-1.6154028 7:-1.7458349 8:-0.28888569 9:-1.0037639 10:-1.4186949 11:0.45981735 12:-0.38942906 13:-1.6001555 
10 0 0 0 0 0 0 0 1:-1.7359039 2:0.25320383 3:0.55721581 4:1.1773999 5:0.998976 6:1.3329085 7:-0.83571621 8:-0.075344517 9:0.010110445 10:-0.35248829 11:0.81293236 12:-0.43642932 13:-0.88914435 
10 0 0 0 0 0 0 0 1:-1.2054883 2:0.52892527 3:0.75942858 4:0.37733546 5:1.0698274 6:1.0702474 7:0.72857204 8:-0.16220385 9:-0.40746484 10:0.45721868 11:-0.16967467 12:-1.5232932 13:-0.91537473 
7.24837511928851 0 0 0 0 0 4.2488978277452585 0 1:0.029137388 2:-0.6908488 3:-0.0075102193 4:0.11566921 5:1.0515057 6:1.5089369 7:0.26349992 8:-0.97948119 9:0.46196565 10:0.47280211 11:0.88834397 12:0.1026136 13:0.79757386 
1.219542640460995 1.0502997292964666 0.75780383759158187 0.18917991506423484 0.93805614587484765 1.1121862435098573 0.65436043486223161 0.47293143566342666 1:-2.0413664 2:-0.040873228 3:1.2080483 4:0.58301095 5:2.3263043 6:1.1431328 7:0.57705109 8:1.7191201 9:1.4433443 10:1.1318958 11:3.6275492 12:0.19781564 13:-0.66350318 
0 2.983161264636601 2.9333919924213774 0 0 0 0 0 1:0.62128753 2:-0.64745785 3:0.74237178 4:-0.47889247 5:1.6473613 6:-0.57148465 7:-1.5198445 8:0.14935143 9:0.84302799 10:-0.52289077 11:-1.3021908 12:0.22200104 13:0.20779352 
0 0 0 0 10 0 0 0 1:-0.16437155 2:0.43233525 3:1.7031517 4:0.87833153 5:0.45737447 6:0.53186104 7:-0.23792021 8:-0.77834586 9:0.5904987 10:-1.0061226 11:0.62088378 12:0.56951139 13:0.35265208 
0 1.0003101718561684 0 0 0 0 0 0 1:0.076097189 2:-1.2785878 3:0.09744089 4:0.56023876 5:1.3719605 6:-0.13391474 7:0.30262407 8:-0.56210724 9:-0.41510648 10:-1.0237676 11:-0.67547985 12:-1.5584865 13:0.38104927 
1.8828816387380076 4.4381823581225666 7.8937809968650141 0 2.055968326042648 0.62980506404151493 1.0202954011090695 0.083842938521530325 1:0.038401019 2:-0.80056517 3:-0.2177913 4:0.28589597 5:0.27841869 6:1.135416 7:-2.1199098 8:1.43952 9:-0.45511326 10:-0.16665057 11:-0.52728573 12:1.0969057 13:-0.19571542 
0 0 0 0 0 0.90132706584797473 1.0753135514255678 0 1:0.47168505 2:-0.34767248 3:1.1469744 4:0.30003894 5:1.7658753 6:-1.0459068 7:-0.30700407 8:1.008682 9:-1.2233634 10:-2.0792991 11:-1.5327395 12:-0.63371961 13:0.86355333 
1.3942874710340916 0 0 0 1.9924470172885729 0 0 0 1:0.038615519 2:0.35824019 3:1.702758 4:-0.32577366 5:-0.12406274 6:-0.29952587 7:-0.58575511 8:0.2553131 9:-1.2639254 10:-0.46231319 11:1.4624679 12:0.48469549 13:-0.098316925 
0.19459319491545998 0 0 0 0 0 0 0 1:-2.4381652 2:0.25328045 3:0.42907566 4:0.56787497 5:0.58980784 6:0.93817695 7:-0.17188624 8:1.0190619 9:1.355411 10:-0.42931843 11:1.9627486 12:0.18694308 13:-1.0047031 
0 0 0 0 0 0 1.6544606702442601 0 1:-0.73853923 2:0.52247377 3:1.9536568 4:1.7101152 5:0.80722084 6:-0.31952846 7:0.51630626 8:0.3149264 9:1.3422321 10:-0.27231482 11:0.99946756 12:1.1108799 13:0.19100049 
4.5254854926548758 0 0 0 0 0 0 0 1:-1.4377346 2:-0.1752061 3:0.97982559 4:1.6171107 5:-1.1452015 6:-1.3979574 7:0.61739816 8:-0.24402811 9:-0.39196543 10:-0.48286863 11:1.2216779 12:0.547757 13:-0.55328885 
0.67334813745372901 0 0 0 0 0 0 0 1:-1.6677284 2:-0.0075028651 3:0.99488685 4:-0.3038035 5:0.74203192 6:1.5500754 7:0.045623367 8:0.42498393 9:2.4436736 10:1.0288577 11:1.7026283 12:1.3777783 13:0.7357879 
4.5309868815189649 0 0 5.9327206103771966 0 0 0 0 1:-0.3046587 2:0.12694603 3:0.8899665 4:1.1606351 5:1.6035361 6:-1.1389784 7:-0.78730445 8:0.02683685 9:1.2616961 10:-0.33571977 11:0.2283006 12:0.16556435 13:-0.32089227 
1.20246120973232 0 0 2.3856055979326669 0.63823985458739851 0 0 0 1:-1.3589601 2:-0.80863608 3:0.36275859 4:0.658483 5:1.2483863 6:0.97848606 7:0.36501708 8:0.99937448 9:3.362599 10:1.9625718 11:0.41790504 12:0.70419159 13:0.26605953 
0.97490877654948915 0 0 0 0 0 0 0 1:-0.95233306 2:0.23467563 3:1.7324192 4:1.0344194 5:-0.62573754 6:-1.1159478 7:-0.65057523 8:0.57096363 9:-1.054722 10:-1.7605136 11:-0.52903279 12:-0.15948776 13:0.22476274 
10 1.4528493245109559 0 0.047690016534848736 1.2621742165653926 0 0 0 1:-1.1520944 2:-0.040516185 3:-0.049329387 4:0.39220047 5:-0.34707811 6:1.5872857 7:0.016556437 8:-0.46372416 9:1.6731457 10:0.46241069 11:-1.3769384 12:-0.2321375 13:0.072142026 
4.0415190818427016 0 0 0.62355426963706229 0 0 0.3612288740642064 0 1:-1.5580171 2:0.26737456 3:0.34788607 4:-0.57706289 5:0.12811468 6:0.66335196 7:0.85803645 8:0.18792477 9:0.37529593 10:-1.3861211 11:1.3308016 12:-2.0691934 13:-0.03878963 
0 1.5192854912872922 0 0.0092313449587902198 0 0 0 0 1:0.59939477 2:-0.75532223 3:0.54508593 4:1.0815579 5:0.77430871 6:0.29157729 7:1.19791 8:1.8858276 9:0.054409104 10:-0.22057527 11:-0.29244405 12:0.18826548 13:-0.32921886 
5.7971961165440815 0.21812508613071774 0 0 1.0761984471227108 0 0 0 1:-0.90491012 2:1.0417363 3:1.4771401 4:-0.02183217 5:0.17806377 6:0.73098855 7:-0.47089113 8:0.9259397 9:0.20922749 10:-0.67695024 11:0.041379643 12:-1.0292969 13:-2.2881747 
10 0.88493975993946183 10 10 4.6001391685829827 10 10 10 1:0.96714843 2:-0.11472296 3:-0.22740312 4:0.33333673 5:-0.028031748 6:-0.2073284 7:-0.39627057 8:0.5684423 9:-1.7904422 10:0.32470022 11:-0.0093689279 12:-0.82512594 13:0.26976473 
0.064177433601195849 0 0 0 0 0 0 0 1:-2.0069597 2:-0.18550955 3:1.0040175 4:0.23963789 5:1.3798841 6:1.068099 7:0.0094797703 8:0.3976083 9:1.4212421 10:1.1224128 11:1.0935883 12:-0.18102178 13:1.0357671 
2.5299352988435819 0 0 0 0 0 0 0 1:-1.4142921 2:-0.7174856 3:0.27241752 4:0.42227188 5:-0.96414868 6:1.3522854 7:1.446163 8:0.58243986 9:0.22421837 10:1.3885709 11:1.4456963 12:1.1683893 13:0.088653537 
0 1.6939868187787772 0 0 0 0 0 0 1:-0.24797056 2:-0.032626616 3:1.0013224 4:0.27575099 5:-0.600417 6:-1.2274542 7:-0.051017899 8:0.88045501 9:1.5681284 10:-0.6654191 11:-0.062929974 12:0.050756063 13:0.43919953 
1.0450240522330156 0 0 0 0 0 0 0 1:-1.8015931 2:0.33504365 3:1.9599225 4:1.7149627 5:0.18629568 6:0.13522077 7:1.4898401 8:-0.12074913 9:-0.79320236 10:-0.16106747 11:-1.5169302 12:-1.5984849 13:-0.14202692 
10 0.35454723640555397 0 0 3.7997067238582609 2.8920685478427921 6.6808933308569651 0 1:0.61402575 2:-0.11743654 3:1.1303374 4:0.66068789 5:-1.3113299 6:-1.8498217 7:-0.16809466 8:-0.034600906 9:-0.29626133 10:0.55712515 11:0.048435093 12:1.5100933 13:0.79733975 
2.7547015871913834 0 0 0 0.73643007447553799 0 0 0 1:-1.2768473 2:0.95698628 3:0.44268298 4:-0.95579409 5:-1.1653705 6:-0.3050465 7:-0.99827939 8:-0.15793568 9:0.36105763 10:-0.18100938 11:1.235898 12:-0.45915015 13:-0.49288766 
1.030425354092664 5.4957911276482765 0 0 0 0 0 0 1:-0.018975616 2:-0.24942495 3:1.0688798 4:-0.60020718 5:-2.0051205 6:-0.76461675 7:0.071053386 8:-1.2057899 9:-0.2168765 10:0.72079715 11:1.2156849 12:1.052698 13:0.45211159 
10 4.4672286969207313 0 0 10 0 0 0 1:0.29500886 2:0.30245343 3:1.3438253 4:-1.2053495 5:-1.3379957 6:-0.49665255 7:-0.74911341 8:-0.6712911 9:-1.2439244 10:-0.59214972 11:-0.012249379 12:0.96172639 13:-0.19176001 
0 0 0 0 10 1.08485498720854 0.76569837319489842 0 1:0.71092569 2:-0.17147494 3:1.6520803 4:0.99724157 5:-1.2095742 6:-0.91018648 7:0.16378359 8:-1.2767144 9:-1.3827669 10:-0.41886049 11:1.3043105 12:0.081718428 13:-0.024945055 
0.7902965334705947 0 0 0 0 0 0 0 1:-0.962758 2:0.22774444 3:2.6094133 4:0.51795923 5:0.3040214 6:2.2871685 7:0.57643181 8:-0.37728659 9:-0.0089761876 10:-0.91936859 11:-0.067427032 12:-0.1194216 13:-1.173637 
0.32543093406376583 0 0 0 0 0 0 0 1:-1.560991 2:-0.11828724 3:2.0682947 4:0.94351635 5:0.60214407 6:1.7285466 7:0.49296263 8:0.69711699 9:1.725106 10:1.2268947 11:-0.20112983 12:0.61915262 13:2.7187783 
0 0 0 0.16793826031876333 0 0 0 0 1:-1.1331956 2:-0.21238631 3:0.72579916 4:0.593574 5:0.21922409 6:-0.87882342 7:0.64330208 8:0.42318417 9:0.62748401 10:-0.97993306 11:0.78179235 12:-0.87023604 13:-1.6562444 
0 0 0 1.7525069348251614 0 0.5282208395324508 0 0 1:0.35300539 2:-0.74661493 3:0.63683744 4:1.2569734 5:1.2968667 6:-0.77513905 7:0.36560707 8:0.085336922 9:-0.15097199 10:-0.56298055 11:1.7471614 12:-0.41044623 13:0.46167743 
0 0 0 0 0 0 0.39833192969869019 0 1:-1.3650353 2:0.81809242 3:2.4364085 4:1.647112 5:-0.59595582 6:0.70734797 7:0.36219783 8:-1.4449259 9:0.57118574 10:-0.55957622 11:-0.31261242 12:1.2537355 13:0.79933372 
0 10 10 10 0 10 4.1696947629873113 0 1:1.3075752 2:-1.0316301 3:0.16757152 4:0.47975878 5:-1.0578757 6:-0.64204595 7:0.21839106 8:0.86927731 9:1.7918605 10:0.82164422 11:-0.59700407 12:0.30660966 13:0.86508556 
8.6489796892935402 0 0 0 10 0 0 0 1:-0.1158674 2:-0.049700845 3:1.2973783 4:-0.6121758 5:-1.4470226 6:-1.1422446 7:0.14744513 8:-0.30777306 9:-1.0224419 10:-0.19905228 11:-0.85677942 12:-0.85146314 13:-0.26342235 
10 0 0 0 0 0 0 0 1:-1.669761 2:-0.081635192 3:1.413787 4:-0.061478214 5:0.41340928 6:1.8855058 7:-0.95271327 8:0.92943 9:1.4491271 10:-0.19747063 11:1.2073003 12:0.61253697 13:0.32095504 
10 0 0 0 4.9405163721298289 0 0 0 1:-0.0084064248 2:0.11086785 3:1.8152982 4:0.36929282 5:-0.92365583 6:-0.86043992 7:-1.5986905 8:-0.17204901 9:-0.16765469 10:0.56321754 11:0.51549383 12:1.0558125 13:0.83744745 
6.3596677667287738 0 0 0 0 0 0 0 1:-0.60751181 2:-0.53392175 3:0.22966415 4:0.10344865 5:0.43566749 6:0.60870518 7:0.22782218 8:0.44273762 9:0.39976254 10:0.24982216 11:0.15134335 12:0.83228363 13:1.4089242 
3.7199751609355975 4.5995420793696624 6.9427565364172459 6.8633406372801806 2.9183792985776513 2.1745609952125911 3.2061952181926476 1.6052199733655643 1:0.35487268 2:-0.31036491 3:-1.4643548 4:-1.069065 5:-0.50859979 6:-0.56955084 7:-0.1981813 8:1.7877156 9:-0.43450834 10:-0.89026596 11:-0.4525583 12:0.043954307 13:-0.044954001 
0 0 0 0 1.0358640404588084 2.4052823582231042 0 0 1:0.17714541 2:-0.42573623 3:2.0738496 4:-0.52503212 5:-1.0216443 6:-1.267925 7:0.57026389 8:-0.5411651 9:-0.77166111 10:0.61861285 11:-0.091065273 12:-1.5952149 13:0.5286613 
5.8809850181994232 0 0 0 0 0 0 0 1:-1.290369 2:0.7497537 3:0.88246912 4:-0.22790628 5:0.87956045 6:0.63464579 7:-0.50107924 8:0.31749265 9:-0.40405256 10:-1.4145989 11:-1.0272951 12:-1.7298186 13:-0.45223086 
0 0.7214428831617532 0.14128616983747264 0.34639777814723455 0.99201257099690898 0 0 0 1:-1.4285863 2:-0.52450602 3:0.5209566 4:-1.1269675 5:-1.1231154 6:1.7585976 7:0.37385369 8:1.2864173 9:0.86502288 10:0.4895866 11:2.0636887 12:-0.54103882 13:0.30963617 
4.158973605530246 5.5888180731319412 2.3214567258737264 0 10 0 0 0 1:0.10641616 2:-0.2349171 3:1.1448289 4:-0.66203985 5:-2.3248138 6:-0.42606577 7:0.12188918 8:-1.2058818 9:-0.015643403 10:1.2531417 11:-0.22811915 12:-0.66465397 13:0.2554672 
10 0 0 0 0 0 0 1.9056980971055295 1:-0.90515018 2:1.0645005 3:0.70475339 4:0.0054367365 5:0.71726651 6:1.1624539 7:0.71556539 8:0.42808536 9:-1.4638228 10:-0.15464316 11:0.59741974 12:-0.098815884 13:-1.7381689 
4.313022600392828 0 0 5.0603045176045489 0 0 2.1544446062702707 0.30823479355506211 1:-0.60714989 2:-0.13023126 3:0.59388901 4:1.1088609 5:1.1658304 6:-1.2468545 7:-0.027179358 8:0.20395794 9:1.8525886 10:-0.38302886 11:0.2375674 12:1.7037482 13:0.84229801 
1.1818237422457838 0 0 0 0 0.27600340609587981 0 0 1:-1.1889537 2:-0.83140087 3:1.5749084 4:2.1033338 5:0.24930659 6:-1.6947633 7:0.062401134 8:0.25188675 9:0.66095505 10:-1.1756791 11:-1.7200295 12:-1.2416279 13:1.0874574 
7.9052088370828786 10 0 0 1.7980054407320456 0 0 0 1:-0.0091728621 2:0.24219323 3:1.2004322 4:-1.4544111 5:-1.0597539 6:0.58097561 7:0.24469124 8:-0.71676616 9:-0.43796567 10:0.38829575 11:0.00032152262 12:-0.42370677 13:0.04627822 
10 0 0 0 10 0 0 0 1:-0.67977596 2:0.89877473 3:1.3379542 4:-1.0631308 5:-0.68091304 6:0.27133463 7:-1.3898975 8:-1.0017301 9:-0.011695134 10:-0.14077697 11:0.55716127 12:-0.15038759 13:0.49068383 
8.753483511081285 5.7838166173164849 3.1360141068086143 0.90674443573515218 10 5.7496112707251177 0 2.6479947849807823 1:0.42994123 2:-0.74113726 3:0.69514384 4:-0.77193757 5:-1.4256476 6:-1.9312714 7:-1.6168427 8:0.56474802 9:-0.021876235 10:1.3326866 11:-0.25714772 12:-0.64696317 13:-1.013289 
1.4359691549199818 0 0 0 0 0 0 0 1:-2.0159887 2:-0.19908198 3:0.27589377 4:0.57071841 5:-0.58103446 6:0.57294224 7:0.51917322 8:0.59189526 9:-0.35506982 10:0.52537607 11:2.2717748 12:-1.2446998 13:0.63631703 
0.9219903783270722 0 0 0 0 0 0 0 1:-1.0457937 2:0.042722555 3:0.67164852 4:-0.30707382 5:-1.7144737 6:-2.1601255 7:-0.5848583 8:-1.428092 9:-0.040623051 10:0.86829158 11:2.0273017 12:0.9617964 13:1.3987934 
1.3451855950547755 7.3222908205246826 0.32940856677652902 0 10 0 0 0.35507406937002334 1:0.21722873 2:-0.012671444 3:1.0191421 4:-0.6583394 5:-2.5186223 6:-1.3100864 7:0.38713032 8:-1.5800101 9:0.38988019 10:1.2262076 11:2.1721502 12:-0.73087921 13:-0.18555306 
3.5323404267015079 0 2.1595381362789761 0.61850312222317982 1.48693936148275 0 0 0 1:-0.27569034 2:-0.36882944 3:0.15550735 4:0.57570163 5:0.095792927 6:0.31629054 7:-1.1024652 8:0.5728565 9:1.3882721 10:-0.31160408 11:-2.0303472 12:-0.3207092 13:-0.51004317 
0 0.75142002292717991 0 0 8.2452929224544409 3.820941742107792 1.7765919736264391 0.40818085291771561 1:0.75956336 2:-0.97922961 3:1.6330117 4:0.10366492 5:-0.73302675 6:-1.9096104 7:0.37207811 8:0.14115233 9:-1.9541834 10:-0.13946033 11:0.57350407 12:-0.80369142 13:0.81527761 
0 9.4313933299338597 0.89736483281290014 0 0 0 0 0 1:-0.12304219 2:-1.2856632 3:-0.35624292 4:-0.297661 5:0.78793251 6:1.0098093 7:0.7690872 8:1.2912183 9:-0.56665533 10:1.0328116 11:0.47147269 12:-0.42688574 13:0.63794253 
0 0 10 10 0 0 10 0 1:0.8785292 2:-0.51666823 3:0.54372018 4:-0.031561984 5:-0.044193932 6:-0.73776544 7:0.23400444 8:1.1914934 9:-0.80204499 10:0.31152891 11:0.35500608 12:-0.34566715 13:-0.15121073 
10 0 0 0 0 0 0 0 1:-1.0780847 2:0.86164175 3:0.27654617 4:-1.1570459 5:-0.43959303 6:-0.050093339 7:0.089359098 8:1.1935551 9:-0.69082509 10:-0.038759621 11:-0.35939124 12:-0.40007448 13:-0.56396811 
0 0 0 0 9.4750954447888294 0 0 0 1:0.12116403 2:0.049787603 3:1.8483062 4:0.091612268 5:-0.44627446 6:0.64056397 7:0.41942596 8:-0.031536842 9:-0.79774033 10:0.29816824 11:-0.07635405 12:-0.29011894 13:-1.1241549 
3.7154650418048858 1.1092401357681028 2.1399246773358946 1.1629858993039597 1.545327437837563 0.87253641364003975 2.5545653827071595 1.4725931643479693 1:-0.30008751 2:-0.81378229 3:-0.76133648 4:0.51788382 5:2.4584898 6:-0.1292939 7:0.011042116 8:0.91425968 9:0.37253304 10:-0.31276512 11:1.891008 12:0.64258458 13:2.4774106 
0 0 0 0 1.7866825280021288 0 1.00064695931947 0.13851469607760403 1:0.62800197 2:-0.73234238 3:0.31341726 4:-0.22728754 5:-0.67810482 6:-1.2036389 7:-1.236671 8:-0.69086385 9:2.2459836 10:0.13555013 11:-0.81377353 12:0.49992887 13:1.5544223 
0.041402595164854152 0 0 0 0 0 0 0 1:-1.6037472 2:0.26959031 3:0.93116398 4:0.62509213 5:1.0995879 6:-0.51172268 7:-0.4769152 8:0.65531949 9:-0.15669224 10:-0.91876906 11:1.1628522 12:-0.59697845 13:-0.48087644 
10 0 0 0 0 0 0 0 1:-1.5625335 2:0.21816579 3:0.72322262 4:1.0151861 5:0.31323171 6:-0.61024661 7:1.1226696 8:0.43662529 9:-0.75285727 10:0.27252475 11:0.47123648 12:-0.46717183 13:-0.57008988 
0 0.20085440415894659 0 0 0 0 0 0.086046576101478547 1:-2.1854068 2:-0.67257868 3:0.72419833 4:2.4606475 5:0.22296862 6:0.15536398 7:2.0081624 8:1.4939365 9:-0.17160343 10:2.3132224 11:1.3904843 12:-0.50322405 13:-0.16168971 
1.4453950324863631 0 0 0 0 0 0 0 1:-1.564376 2:0.11324501 3:0.67188857 4:1.1167287 5:1.0389012 6:0.48981685 7:0.096059581 8:1.0741195 9:1.2329903 10:-1.5953331 11:-0.76966128 12:0.90502502 13:-1.053557 
10 0 0 0 0 0 0 0 1:0.12795283 2:0.71398025 3:1.185068 4:-0.54496093 5:0.071217725 6:-1.4993542 7:-0.156764 8:0.47364309 9:0.032006192 10:-0.16858367 11:0.93590105 12:0.25343695 13:-1.0951132 
1.9512085698931989 0 0 0 0 0 2.8446546780222226 0 1:-0.23945429 2:0.20435935 3:1.4104095 4:0.75675882 5:0.12313841 6:-0.18021746 7:0.90734974 8:1.6516036 9:0.80284974 10:-1.2551442 11:-0.033771675 12:1.2790323 13:0.29689688 
0.048430642838327737 0 0 0 0 0 0 0.14388837660513279 1:-1.7442894 2:0.2740612 3:2.1438343 4:1.8244115 5:0.064377876 6:0.46722487 7:1.4208671 8:-0.10660287 9:-1.7597123 10:-0.77457316 11:-1.3187411 12:0.12786314 13:0.4556422 
4.4499139624053745 0 0 0 0 0 0 0 1:-1.6046582 2:0.39599476 3:1.1860759 4:0.15461286 5:0.9018341 6:0.32351561 7:-0.63497868 8:-0.33413285 9:-0.70014588 10:-0.11403882 11:0.30873603 12:1.3147397 13:0.72108671 
6.3527349513038001 0 0 0 0 0 0 0 1:-1.2867669 2:0.019317825 3:0.42078965 4:-0.98245572 5:0.17991793 6:0.78510056 7:-0.23426003 8:-0.40447082 9:0.2393212 10:0.74605254 11:1.5748338 12:-0.47583267 13:-0.85064044 
6.0017102820087516 0 0 0 0 0 0 0 1:-1.8168858 2:0.18419338 3:0.34739827 4:-0.24179568 5:0.21257213 6:1.6078361 7:0.48484911 8:-0.40498308 9:0.77764989 10:-1.130712 11:0.26569346 12:0.41922629 13:-0.24930321 
10 0 0 0 0 0 0 0.52384762261322704 1:-0.26297104 2:-0.055187968 3:1.0044046 4:-0.79235026 5:-1.2692947 6:-0.019928357 7:-1.1166495 8:-2.1562806 9:-1.0192058 10:-1.0663851 11:-0.016386122 12:0.28753648 13:0.81130224 
0 0 0 0 10 0 0 0 1:0.20446865 2:0.18499261 3:1.8135109 4:-0.1842267 5:-0.56386505 6:-0.91793255 7:-1.0065012 8:-0.38061702 9:-1.4867745 10:-0.12139897 11:0.9966032 12:-0.96411556 13:-0.77265204 
0 7.6173064857121764 0 0 0 0 0 0 1:0.080838804 2:-1.4393217 3:0.28363969 4:0.16937709 5:1.6807705 6:-0.29563901 7:0.3307511 8:0.46812989 9:0.23277517 10:-1.6439113 11:-0.7588461 12:0.39722584 13:0.4783448 
0.22528105236887178 0.15348598150834031 0 0 0.16445245458727506 0 1.0468686836300556 0.71730589062194294 1:-0.82227829 2:0.18883082 3:1.2424773 4:1.3807193 5:-0.6853537 6:1.7877988 7:1.0493278 8:0.72583192 9:-0.16654143 10:1.1708658 11:1.2066254 12:-1.0070391 13:-0.071934082 
10 0 0 0 0 0 0 0 1:-1.0622426 2:0.45693108 3:1.0090232 4:0.64017055 5:-0.43227424 6:0.88700249 7:0.63947981 8:0.13650119 9:-0.65861026 10:-1.2049249 11:-0.74688172 12:0.40780907 13:-0.20313078 
0 8.5814576116203085 0 0 10 0 0 0 1:0.079330878 2:0.11801379 3:1.4772145 4:-1.0165915 5:-1.8426381 6:-0.76933549 7:-0.79549415 8:-0.1024088 9:-0.78025528 10:0.36394156 11:1.0820654 12:0.046528149 13:0.12151664 
10 0 0 0 10 0 0 0 1:0.1411984 2:0.64071433 3:1.4489235 4:0.014623475 5:-0.31110982 6:0.046559694 7:-0.26127759 8:-1.3336728 9:-1.4216216 10:-0.68641165 11:-0.46310345 12:0.48872075 13:0.059653873 
0 0.52853911436171253 0 0 0 0 0 0 1:0.87012785 2:-0.58712809 3:1.1771542 4:1.1349237 5:1.0759404 6:-0.047615377 7:0.36401723 8:0.78974149 9:0.79358125 10:0.13697894 11:-1.1815027 12:0.13393659 13:0.27400303 
2.0434668950739021 3.7834691019494269 4.4910875616507715 1.3216065279221318 0 0 1.2697846168523153 0 1:0.24450457 2:-1.4890587 3:-0.716339 4:0.084685861 5:1.6989831 6:0.71089356 7:0.93738447 8:0.67676173 9:-0.039957499 10:-0.89272044 11:0.64570429 12:3.0222763 13:0.039526513 
10 1.212245977524645 0 3.1436186661693255 0 0 0 0 1:-0.38741461 2:-0.17245379 3:-0.44482547 4:-1.1370081 5:-0.96840338 6:-0.8032086 7:0.54291427 8:0.73612379 9:-0.39255879 10:0.57309036 11:1.2900782 12:-0.35964583 13:-0.56532717 
0 0 0 8.041887990463584 0 0 0 0 1:-0.76022651 2:-0.21816721 3:1.0710873 4:2.0455089 5:0.82863509 6:0.47672776 7:0.53227168 8:0.83865193 9:1.7607132 10:-1.0856852 11:0.55259917 12:-0.41292539 13:-0.12031473 
10 0 0 0 0 0 2.4602022258603355 0 1:-1.534424 2:0.031200887 3:-0.041103145 4:0.68720154 5:0.33004054 6:-0.40444884 7:-0.10486891 8:-0.12958149 9:-0.35564433 10:-1.9445601 11:-0.38428252 12:0.9585788 13:0.85708821 
10 10 0 0 10 10 2.2350212330730117 0.19289192176257702 1:0.5473708 2:0.70668541 3:1.5370552 4:-0.33169713 5:-1.1807642 6:0.1289723 7:-0.51857949 8:-0.77842341 9:-0.72975234 10:0.81952539 11:0.0062326785 12:-0.12568024 13:0.025198964 
0 7.6228188301210755 1.1872139347430166 0 10 0.77627657528186989 10 0 1:0.87425045 2:-0.13626068 3:0.8405476 4:-1.5318877 5:-0.76491687 6:-0.16679236 7:-0.58211935 8:0.014940365 9:0.011368788 10:-0.16208293 11:0.17065793 12:0.70819019 13:-2.099513 
4.5796940259493777 0.87402742139152356 1.9891007050775491 0 0 0.29935785966144679 1.9713782954519867 0.96486378949090612 1:-0.38073444 2:-1.3391645 3:-0.67810259 4:0.054415203 5:0.9836139 6:1.1735416 7:1.4323432 8:-1.1183405 9:-1.6530331 10:-0.83331663 11:0.82793158 12:1.4534032 13:0.073523481 
10 0 0 0 0 0 0 0 1:-1.2546988 2:0.092216072 3:0.47677991 4:0.35581149 5:-0.9898564 6:1.3119755 7:1.1574066 8:0.8622568 9:0.74010104 10:0.23794634 11:0.10021555 12:-0.64143851 13:-0.56011738 
10 0 0 0 0 0 0 0 1:-1.7059515 2:0.44364333 3:0.99069568 4:0.84773755 5:-0.84617282 6:0.6840023 7:0.31400783 8:-0.017777143 9:0.52263981 10:0.25041405 11:-0.043014742 12:-0.064930113 13:0.040861604 
0 2.4026165206111503 0 0 0 0 0 0 1:-0.051384959 2:-1.3102618 3:0.47058965 4:-0.17355019 5:1.1734343 6:1.5259384 7:1.5678393 8:-0.44141239 9:-1.0125334 10:-1.2666377 11:-0.84194138 12:-0.92610912 13:0.27827087 
6.1696246756366779 7.7697121936467806 3.6130255731051628 10 4.088542899723576 1.238964751925389 5.0956817264498504 0 1:0.97096966 2:-1.1368733 3:0.31576961 4:-0.87031375 5:-1.238096 6:-1.5171884 7:0.66847353 8:0.18320321 9:-1.2049857 10:-1.330873 11:0.63790112 12:0.49781929 13:-1.8830951 
10 0 0 0 0 0 0 0 1:-0.66318737 2:0.58030528 3:1.0166071 4:0.32399755 5:-0.37122499 6:-0.76766215 7:0.0030872631 8:-0.61765805 9:0.14676647 10:-1.4148717 11:0.10136008 12:0.10079903 13:-0.11253455 
0 0 10 1.1136293334395624 0 10 10 10 1:0.67741241 2:-0.7569383 3:-0.55516754 4:-0.028708377 5:-0.085369354 6:0.45576322 7:-1.3709446 8:0.4054653 9:0.39691422 10:1.591023 11:-0.69097351 12:-0.70377194 13:0.81136512 
3.2420569011530804 6.0654584763710062 0 0 10 3.5123773200760771 0 0 1:0.40912813 2:-0.31117916 3:1.1282335 4:-1.4198421 5:-2.1424647 6:-1.1748267 7:-0.010155881 8:-0.50758127 9:1.7741656 10:-1.0354037 11:0.089995395 12:-0.58907401 13:-2.0459823 
0 4.9340421297926076 0 10 0 0 0 0 1:0.57264209 2:-0.93198017 3:0.058381415 4:0.64235385 5:1.0963497 6:-0.65447148 7:0.064772729 8:1.2203913 9:0.74646037 10:1.4195878 11:0.27255346 12:-0.30957714 13:0.17888269 
0 0 0 0.86309991358449789 0 0 0 0 1:-1.0472676 2:0.23025234 3:2.0633715 4:1.3033878 5:-0.91512331 6:0.97885832 7:1.6797232 8:1.0678327 9:0.57895971 10:1.6567724 11:-0.22421114 12:0.18973204 13:0.95451437 
1.0717538015370009 0 0 0 0 0 0 0 1:-0.0093816181 2:-0.30439816 3:0.88562048 4:0.15179355 5:-1.2851817 6:-1.6628373 7:-0.31202831 8:0.22205077 9:-0.65155013 10:-0.75460655 11:-0.17398356 12:-0.018248395 13:0.26641521 
10 0.62401542338361371 0 0 0 0 0 0 1:-1.9482105 2:0.79870075 3:1.3175554 4:-0.16251853 5:0.69952429 6:1.9277961 7:0.21848667 8:0.88681751 9:2.0887926 10:0.9249271 11:1.3347977 12:1.0436126 13:0.15306308 
0 4.3742491172376941 0 3.7897845864243429 0 0 0 0 1:0.38871732 2:-1.2967452 3:0.45019325 4:-1.3702518 5:-0.35009514 6:-1.7773202 7:2.0098552 8:2.593666 9:-0.77702152 10:0.4683213 11:-0.7208514 12:-0.72445856 13:-1.7228137 
0 0.49559007575838632 0 0 0 1.7791714390836868 2.9363556687541568 1.2742677464768342 1:-0.24156979 2:-1.3385634 3:-0.67734984 4:0.44352924 5:1.814438 6:1.00953 7:0.30418543 8:-0.73478616 9:-1.4045197 10:-2.4246791 11:-0.24946703 12:-0.6572792 13:0.88484899 
0 0 0 6.2264225552578321 0 0 0 0 1:-0.47168524 2:0.16705841 3:1.7130845 4:1.5937227 5:0.21522736 6:-0.59998555 7:0.24956669 8:0.90811083 9:1.6461904 10:0.32553366 11:0.006418785 12:-0.62560891 13:0.83476189 
10 2.9244927602770763 0.026554062027559101 7.929418575764811 4.6254377380669203 0 0.31882515164869552 0 1:-1.5915122 2:0.86926665 3:0.88176491 4:-1.0348563 5:-0.57114965 6:0.35600514 7:-1.1515697 8:1.0998805 9:1.7932457 10:0.13888317 11:0.6984894 12:-0.20360503 13:0.074657798 
1.751155316269416 0 0 1.1430289273977721 0 1.9599478313658871 0 0 1:-1.0895642 2:0.77601583 3:1.0965203 4:0.28731809 5:-0.39726142 6:-0.23016427 7:1.3293361 8:0.91946574 9:-0.22355549 10:-1.8091696 11:0.074786187 12:-0.49212563 13:-0.2771996 
0.90175305949188533 0.69506595786585335 0 2.1335641627826889 0 0 0 0 1:-0.93827596 2:0.15470872 3:1.6360465 4:1.7008668 5:1.286007 6:0.6525647 7:-1.2513393 8:0.73001922 9:2.2102243 10:-0.31990562 11:-0.47009314 12:-0.57123147 13:-0.66984359 
6.1386022154881328 0 0 0 0.37325448022198748 0 0 0 1:-1.402343 2:-0.20548405 3:0.54154764 4:-0.03655424 5:0.095034358 6:-0.12817628 7:1.5390782 8:0.99058954 9:2.0411359 10:-0.6133296 11:0.99777184 12:-0.51765525 13:-2.2043362 
9.4793657087983529 0 0 0 0 0 0 0 1:-1.1565507 2:-0.059716735 3:0.73128337 4:0.60179035 5:0.8683012 6:0.40468451 7:-0.33734858 8:-1.0739134 9:0.092966095 10:-1.2854217 11:0.55138549 12:-1.135939 13:-1.3173602 
0 0 0 0 0 0.52361714974980234 0 0 1:-1.8342857 2:0.039409241 3:0.96009827 4:0.83499169 5:-0.33313286 6:-1.8683104 7:1.4172231 8:0.56934717 9:-1.4610243 10:0.13117431 11:-1.7848993 12:-1.1387434 13:0.25604625 
10 0 0 7.9512422296222853 0 0 4.3610831088609681 0 1:-0.24623378 2:0.44497288 3:1.0575931 4:0.82103308 5:-0.76507568 6:-0.29824038 7:-0.27481855 8:0.29102715 9:1.5549381 10:-0.058020136 11:-0.26500941 12:1.4205304 13:1.0367116 
10 0 0 0 0 0 0 0 1:-0.41071529 2:0.038895629 3:1.0070112 4:-0.276744 5:-1.558465 6:1.1921336 7:0.88441984 8:0.40800439 9:-1.0393385 10:0.26668994 11:0.55373663 12:0.22714668 13:0.0039293989 
2.1710797977820926 0 0 0 0 0 0 0 1:-1.504239 2:0.237191 3:1.1966119 4:0.58120128 5:0.53974755 6:-0.48871379 7:-0.61586464 8:1.4763511 9:0.20693959 10:-1.568569 11:0.15916047 12:0.64025189 13:0.43186199 
0 0 1.4188961475010238 0 0 0 0 0 1:0.2353272 2:-0.75131361 3:1.2375494 4:0.39767485 5:-0.77857595 6:-1.9849668 7:0.96953104 8:-0.2573705 9:-0.45773048 10:-0.49134344 11:-0.40788912 12:-1.5179584 13:0.74865335 
0 0 0 0 0 0 0.28900779623130196 0 1:-0.18015321 2:0.00076885757 3:0.91046679 4:-0.92528151 5:0.27840275 6:0.16781559 7:-1.0608679 8:-0.90062151 9:-0.55551778 10:-0.34971097 11:1.1918392 12:0.86310378 13:2.0472529 
0 1.1570790142202212 0 0 0 0 0 0 1:-0.99528008 2:-0.12822943 3:1.8813229 4:1.591208 5:0.50181095 6:-2.2233164 7:0.76554529 8:0.87215824 9:1.9598372 10:0.50520313 11:2.3418646 12:-0.40235061 13:-0.96054352 
1.0992809692287435 2.9157893379706201 0.90622308600769552 2.1634476133822558 0 0 0.89909129722118808 0 1:-0.73857946 2:-0.68802815 3:-0.4297642 4:-0.42968615 5:-0.078023305 6:-0.14333541 7:0.48800601 8:1.2614747 9:-1.8119689 10:-1.4882322 11:2.0352276 12:0.42299678 13:1.1611498 
0 0 0 4.8873916326328839 0 0 0 0 1:-0.25976133 2:0.12237282 3:0.83066907 4:0.2660647 5:-0.17746665 6:0.13650938 7:-0.087036473 8:2.0437441 9:0.12945893 10:-0.37471836 11:0.5524257 12:0.15447822 13:-0.25985729 
0.90681916249016126 0 2.4069793532671593 0 0 0.6672486595910081 3.1519295846816711 0 1:0.44904484 2:-0.49309849 3:0.23565243 4:1.378944 5:0.76675078 6:0.79842204 7:0.042142638 8:0.2510973 9:1.2403278 10:-0.33208449 11:-0.25794279 12:-1.2363532 13:1.7258638 
0 0 0 0.17245701790702794 0 1.1673304650696112 1.3372095165630811 0 1:0.1771623 2:-0.67477399 3:0.75294336 4:1.3030479 5:0.69509222 6:0.38993981 7:0.34780061 8:0.45995825 9:0.23363851 10:-1.8820214 11:0.45205032 12:1.1056428 13:1.9970092 
10 0 0 0 0 0 0 0 1:-0.96247488 2:-0.41932323 3:0.59106504 4:0.88500982 5:-0.81818697 6:0.70056694 7:0.22981886 8:-0.71644333 9:0.18268683 10:0.95443446 11:0.69816735 12:-0.044875002 13:-0.10906588 
6.9069376371578288 0 0 0 0 0 0 0 1:-1.5677166 2:0.83767948 3:1.3406138 4:0.48405295 5:0.13828087 6:0.013785538 7:0.18853703 8:0.48843589 9:-0.25406979 10:0.52975042 11:1.3286913 12:0.58692645 13:0.83269891 
0 0 0 0.34188015663741023 0 0 0 0 1:-1.4846999 2:-0.99168392 3:1.0827849 4:1.7880416 5:-0.16027422 6:0.25243723 7:1.0257644 8:1.4825433 9:-0.38825125 10:0.21902497 11:1.3866164 12:-1.0278083 13:-2.2638169 
10 0 0 0 0 0 0 0 1:-0.60926245 2:0.50713697 3:1.2010049 4:0.0095077815 5:-0.3961916 6:0.71628209 7:1.0662156 8:-0.74942644 9:-0.016628568 10:0.05045446 11:0.73792917 12:0.098331779 13:-0.477709 
10 0 0 0 0 0.3494393382106481 0 0 1:0.49065451 2:0.37452831 3:0.61809008 4:-0.55753587 5:-0.58234983 6:-1.450663 7:0.038213071 8:0.56953864 9:-0.62615242 10:-0.63090541 11:0.51485393 12:0.22339873 13:-0.61173966 
10 0 0 0 0 0 0 0 1:-0.92828936 2:0.65941969 3:1.3234118 4:0.50395168 5:1.5303931 6:0.74305922 7:1.336738 8:0.65592014 9:0.68879953 10:0.13024238 11:-1.9101485 12:-0.38022438 13:0.25327411 
2.1427750473181773 0 0 0 0 0 0 0 1:-1.1327872 2:-0.23447992 3:1.235091 4:1.5412995 5:-0.44149571 6:-1.3316334 7:0.8083734 8:-0.20067989 9:-0.40155006 10:0.37671447 11:0.37649916 12:1.0028866 13:0.16823502 
10 0 0 0.296041949053305 0 0 0 0 1:-1.5950796 2:0.16490643 3:1.1946529 4:0.12489165 5:0.3626442 6:1.1273384 7:-0.49041958 8:0.73785754 9:-0.45468715 10:-1.5883527 11:0.54493411 12:-1.1188119 13:0.78957723 
0 0 0 0.62681426459811285 0 0 0 0 1:0.15523593 2:-0.64268728 3:0.57685937 4:1.0409206 5:1.0816079 6:-0.25513095 7:-0.15708662 8:1.5982547 9:0.36584267 10:-0.15773251 11:0.56250877 12:-1.072577 13:0.77732181 
0 0 0 0 0 0 0.52033347725333734 0 1:-1.714119 2:0.34749992 3:0.85579311 4:-0.21593648 5:0.31959425 6:-0.57893275 7:-0.29267044 8:1.3599667 9:1.6649287 10:-0.89166145 11:1.2659108 12:1.0866863 13:-0.46574511 
1.5732829787529199 0 0 0 0 0 0 0 1:-1.0273835 2:0.39133556 3:1.0338314 4:-0.1007819 5:-1.5495588 6:-1.1084638 7:-0.22510364 8:0.69448173 9:-1.2340035 10:-1.6656137 11:0.98983222 12:-0.47411668 13:-0.84958981 
0 0 0 0 0 0 0 0.31446620840025652 1:-1.3145771 2:0.43903894 3:1.1967782 4:0.95875641 5:1.1923114 6:0.90827745 7:0.19755407 8:0.4387473 9:0.95427328 10:-3.097798 11:-1.6509345 12:0.10617 13:-0.82870173 
0.13236511394861569 0.94379055838191417 0 0 2.7036355089153572 1.920113779981939 0.65373804260679969 0.72998813486674496 1:0.31119069 2:0.28009308 3:1.5815204 4:0.0202327 5:-1.7689675 6:-2.4863732 7:0.74263963 8:-0.23797303 9:-1.2690051 10:-1.4064195 11:1.3341532 12:0.93439594 13:0.73091142 
10 0 0 0 0 0 0.90424641089927171 0 1:-0.0066185358 2:0.17369803 3:1.246277 4:0.35877398 5:0.46567942 6:-0.993511 7:0.024476878 8:0.74731757 9:-1.0441173 10:1.107101 11:0.38832455 12:0.68492743 13:0.16611809 
1.019076687945603 5.4530136763761421 7.2874365941441663 2.8487822503620768 0 1.2343660057705024 5.8433545216355718 0.28840571775910023 1:0.62492411 2:-0.90838005 3:-1.1415177 4:-1.414497 5:-0.24323545 6:-0.48534511 7:1.2710807 8:0.40205183 9:1.0290776 10:-0.82388296 11:-1.6900376 12:0.88057692 13:0.13275185 
6.7332866559578983 0 0 0 0 0 0 0 1:-0.85194074 2:0.4960394 3:0.69768892 4:-0.087634135 5:-0.044213533 6:0.21148281 7:0.029622402 8:-0.076720353 9:-0.43148522 10:-1.5876846 11:1.6344161 12:0.49648916 13:-1.3940494 
0.09911879675795271 0 0 0 0 0 0 0 1:-0.72520872 2:-0.29669378 3:1.427166 4:1.1764748 5:-1.8853187 6:-0.96610284 7:0.051418172 8:-0.71647547 9:-0.77000542 10:0.44341202 11:-0.17007671 12:0.0080051145 13:0.45934118 
10 0 0 0 0 0 0 0 1:-0.58553056 2:0.63074531 3:1.1952686 4:0.23077885 5:1.0792753 6:0.094131677 7:0.50775582 8:0.46202285 9:-0.22215398 10:0.17961458 11:-0.96552995 12:0.023669802 13:0.87331311 
3.4418738069954418 0 0 0 0 0 0 0 1:-0.29534739 2:-0.47736144 3:0.62999615 4:-0.19728342 5:-0.78659031 6:-1.717396 7:0.60951903 8:-0.99418454 9:-0.47681708 10:-0.67455955 11:-0.052988463 12:0.40222869 13:0.92138313 
0.38142083225066553 0 0 0 0 0 0 0 1:-1.1495781 2:0.29242164 3:0.58385701 4:-0.038200312 5:0.78108026 6:0.82202318 7:1.6097826 8:0.61070525 9:-0.29871187 10:-2.3980619 11:-0.62533171 12:-0.79408451 13:-2.3761945 
4.2209189606180892 0 0 2.4704388450375712 0 0.67369668174579367 1.3103483570604313 0.64602560343718396 1:-0.56503453 2:-0.37632981 3:0.6134255 4:2.0581791 5:-0.7903254 6:-0.72477885 7:0.8455066 8:1.3508621 9:-1.3189988 10:-0.084903619 11:2.1820204 12:1.4961738 13:0.56638528 
0 9.5203043360797217 0 0 5.6477635328519931 0 0 0 1:-0.055285498 2:-0.14836955 3:0.82317277 4:-1.1926018 5:-0.37276966 6:0.17420607 7:0.71715543 8:0.055500533 9:-0.5605906 10:-0.12515798 11:-0.58125619 12:-0.02795905 13:0.030530625 
1.7083340160013938 0 0 10 1.9023009778931104 2.0365232038391139 10 1.5341984574280114 1:0.88933347 2:0.23599787 3:0.8176719 4:0.40126067 5:0.49683996 6:-1.0830715 7:0.41936475 8:0.97903601 9:-0.63991091 10:-1.7436551 11:0.22518289 12:-0.35173282 13:-0.75351812 
3.2223628816451066 0 0 0 0 0 0 0 1:-1.3166163 2:-0.46947049 3:0.09317771 4:1.3789681 5:-1.1489353 6:-0.81293161 7:0.39522447 8:0.88180543 9:1.3197396 10:0.01350716 11:1.2359126 12:0.97967455 13:0.96637543 
3.3087860715158608 0 0 0 0 0 0 0 1:-1.6335975 2:-0.27789561 3:1.4715576 4:1.2344526 5:0.70825098 6:1.9837085 7:0.18247735 8:1.4971232 9:2.41081 10:0.28407931 11:0.34922931 12:1.5365657 13:1.6482196 
0.087034187930129472 0 0 0 0 0 0 0 1:-0.762004 2:-0.26925114 3:1.3317584 4:0.51414009 5:-1.9196625 6:-1.1084582 7:-0.07365201 8:-1.7046563 9:-1.2012036 10:1.6913553 11:1.7598623 12:1.1727155 13:1.2310311 
0 0 0.93366316900707813 0 0 0 0 0 1:-0.13098235 2:-0.92050144 3:0.70639172 4:-0.45854475 5:0.75080945 6:-0.23967388 7:0.06177737 8:1.5340708 9:1.0126945 10:-1.6020324 11:0.079262233 12:0.87601225 13:-0.55449588 
4.4236919773850021 0 0 0 0 0 0 0 1:-0.8349126 2:0.12464485 3:1.3254388 4:0.96319279 5:0.55081225 6:-0.66152543 7:-0.40374706 8:0.2811121 9:1.0526056 10:-0.20786835 11:-1.0796855 12:-1.9970071 13:-0.94037162 
0.42597607545987692 0 0.15479925472716574 0 0.0065582536176561302 0.31833834487823809 0 0.13538041357764455 1:-1.7628851 2:-0.16988764 3:1.4129391 4:2.0189118 5:-0.21750627 6:-0.065598632 7:2.1243805 8:0.49393167 9:2.564943 10:1.7025849 11:1.2543704 12:-0.36886694 13:1.407007 
4.311092192023108 0 0 0 0 0 0 0 1:-1.7399688 2:-0.1697401 3:0.65523784 4:-0.44149471 5:-0.53501559 6:2.1718987 7:1.2422483 8:1.5080812 9:1.4853607 10:0.7085373 11:1.1748069 12:0.87982762 13:-0.069201513 
10 6.5390350831128332 0 0 9.01428758488019 1.4119693334131245 2.6730628458125443 0 1:0.11402368 2:0.51801046 3:1.3691047 4:-0.32539406 5:-0.75284071 6:-0.022592663 7:-0.49539724 8:-0.79623683 9:-1.2198808 10:0.48689616 11:-0.21825242 12:1.4398228 13:1.6710579 
0 0 0 0 0.051754534718310596 0 0 0 1:-1.2080864 2:0.045036032 3:0.47052738 4:-1.148951 5:-0.33026087 6:1.1116164 7:0.0070930369 8:0.20719902 9:0.44876684 10:-1.0293404 11:-0.15261569 12:-0.85679952 13:-1.8863914 
6.3116337893587149 0 0 0 0 0 0 0 1:-0.67782692 2:0.18697949 3:0.68728697 4:0.040777183 5:-0.073212652 6:-1.7813225 7:0.39874884 8:0.89373956 9:-0.30974102 10:-1.4682065 11:0.33245853 12:0.41755156 13:0.55090524 
10 0 0 0 0 0 0 0 1:-1.4069335 2:0.3862077 3:1.2492449 4:0.34505706 5:1.1087259 6:0.38931049 7:0.08407638 8:0.33131727 9:0.20135417 10:-0.077735878 11:-0.98919118 12:1.0019597 13:-0.57885822 
8.0636579736118659 0 0 0.0036330870101609733 0.83745721153963926 0 1.3764171085374748 1.5542285593230925 1:-1.7549577 2:0.78882286 3:0.6158226 4:0.20675751 5:2.8465324 6:2.2909316 7:0.018285449 8:0.21486748 9:0.11153567 10:0.51155066 11:-0.31625938 12:-0.23388215 13:1.1984768 
1.0203272883935659 0 0 0 0 0 0 0 1:-1.7110263 2:-0.087515927 3:1.7638469 4:0.90835214 5:0.78611708 6:1.7391676 7:0.57162502 8:1.6720511 9:0.60656207 10:0.29635095 11:0.14276521 12:0.45890987 13:-0.14037288 
1.0345634367185612 0 0 0 0 0 0 0 1:-1.2461429 2:0.76123747 3:1.6355018 4:0.18721229 5:1.176795 6:1.2246699 7:-0.46906637 8:0.052631152 9:1.5240277 10:0.021545342 11:0.38187266 12:-0.64416657 13:-0.47461343 
4.284211407060396 0 0 0 0 0 0 0 1:-1.9943336 2:0.26658461 3:1.1376235 4:0.65354261 5:0.82769323 6:-0.922277 7:0.77692113 8:1.3343928 9:-2.1689711 10:-1.0073213 11:1.1949086 12:0.53060231 13:-0.15835545 
4.0034451607908563 0 0 0 0 0 0 0 1:-1.0456671 2:-0.17792692 3:1.590738 4:1.658382 5:0.9571286 6:-1.0238103 7:0.68638289 8:1.3294803 9:0.22767847 10:0.16202037 11:2.8198835 12:-0.13423726 13:-0.7926653 
10 0 0 0 0 0 0 0 1:-1.6031991 2:0.37787916 3:0.7946597 4:0.50926935 5:0.91145468 6:0.097244872 7:0.68899653 8:1.1038881 9:-0.52680194 10:0.66419541 11:0.80187485 12:1.4647663 13:0.81670106 
0.040140787695431168 0 0 0 0 0 0.10730058566342847 0 1:-1.2866924 2:0.21999461 3:1.163733 4:0.87039144 5:0.17044099 6:0.71884484 7:1.1315699 8:-1.3095564 9:-1.6098183 10:-0.4647822 11:-1.4146032 12:-1.0692841 13:-0.88547035 
10 0 0 0 0 0 0 0 1:-1.5616256 2:1.2453025 3:1.5424372 4:0.49251942 5:-0.31679945 6:-0.08870169 7:0.093885702 8:0.41771122 9:-0.28706846 10:-0.056160276 11:1.1734074 12:0.51207686 13:-0.21893165 
0 0 0 0 0 0.61834125697022779 0 0 1:-1.8194564 2:0.047440653 3:1.2022368 4:0.85402099 5:-0.62600208 6:0.59609173 7:1.4651659 8:0.17612714 9:-0.61728467 10:-1.8142281 11:-2.4193734 12:-0.44437949 13:0.96217131 
10 0 0 0 0 0 0 0 1:-1.2582028 2:0.76730883 3:1.0855654 4:-0.2095414 5:0.53395716 6:0.8892414 7:1.2257167 8:-0.76632638 9:0.13511061 10:-0.33837414 11:0.38036768 12:0.7025471 13:-0.41107094 
2.3113845027939184 7.1085075471252557 0.13269075358455143 0.54463772656246323 0 0 1.1058634996087702 2.921354696590226 1:-0.10929846 2:-0.80129554 3:-0.21494126 4:-0.40174636 5:-0.37634747 6:0.89729999 7:0.91284675 8:-0.91020254 9:-1.6922871 10:-1.0383717 11:0.71699052 12:0.79647355 13:0.75615422 
0 0 0 0 10 0.89643039640536759 0 0 1:-0.33817995 2:0.55413839 3:1.5288798 4:-1.3852425 5:-0.58852595 6:0.37396264 7:-1.098457 8:-0.23697881 9:-0.89033544 10:-0.42685834 11:0.71443266 12:-0.73736653 13:0.96225486 
10 0 0 0 0 0 0 0.22600067817630778 1:-1.6014442 2:-0.055617942 3:0.6866501 4:1.6067704 5:1.7213988 6:-0.13531909 7:1.2036295 8:1.361121 9:-0.30896155 10:0.13050956 11:0.81206087 12:0.1834989 13:1.1063384 
10 0 0 0 0 0 0 0 1:-1.4098803 2:0.053032412 3:0.56113088 4:0.77942017 5:0.35255142 6:-1.7831738 7:0.55300943 8:0.17961405 9:-1.6497345 10:-1.0577361 11:-0.19826128 12:-0.051061625 13:-0.82999174 
10 0 0 0 0 0 0 0 1:-1.2165553 2:0.26772332 3:0.51766918 4:-0.2119715 5:0.61232715 6:0.47934006 7:-0.60669946 8:0.26320068 9:1.212567 10:0.69936316 11:0.8167857 12:-0.5327456 13:-0.74763191 
3.9339012783608243 0 0 0 0 0 0 0 1:-1.6871635 2:0.13649848 3:0.89726158 4:1.3208538 5:1.0062251 6:-0.17091224 7:1.7283963 8:1.5519023 9:0.56321076 10:0.74006801 11:1.7778524 12:-0.066561178 13:1.0770203 
5.3467681608112736 0 0 0 0 0 0 0 1:-1.5143565 2:0.27122999 3:0.91031498 4:1.3372798 5:-0.72193442 6:0.86731561 7:1.6967727 8:-0.21475689 9:0.48917343 10:-0.067029392 11:-1.5357575 12:-1.0861652 13:0.24214571 
0.018144629244354279 0 0.73539113223951735 0 0.061655195247453068 0.44568890321007676 1.1962204923707176 0 1:0.31650401 2:-0.9705583 3:0.106135 4:1.3023978 5:2.4073526 6:0.97519866 7:1.3847222 8:-0.59429955 9:0.19113496 10:0.45759011 11:-0.0025842313 12:-1.2825265 13:0.65627477 
0 0 0 0 4.1163229257649236 1.0928412388981936 0 1.3684804410199742 1:0.40181347 2:-0.89552647 3:1.6184967 4:-0.032709134 5:-0.768588 6:-1.9873182 7:0.44219968 8:-0.40404159 9:-1.9386606 10:0.8513215 11:-0.096501843 12:-0.45418858 13:0.88395076 
0.63127998922603301 0 0 0.20022838048107866 0 0 0 0 1:-0.93117899 2:0.16691909 3:1.9960687 4:1.3066734 5:-0.80430775 6:-0.89210011 7:0.32713358 8:1.370545 9:0.16738652 10:0.32937894 11:0.1456442 12:1.9918322 13:0.52008767 
0 0.98937864655787522 0 0 0 0 0 0 1:0.60795327 2:-0.87150986 3:0.13288003 4:1.4958456 5:2.0011593 6:-0.036800143 7:1.3458594 8:0.29405908 9:0.4189775 10:-0.16192403 11:0.99362345 12:-1.1384402 13:0.922931 
0 0 0 0 0 0 0 0.008860938558430587 1:0.17300769 2:-0.87666592 3:-0.12248431 4:0.38763997 5:2.394067 6:1.6969197 7:0.27508462 8:-0.22665431 9:-0.18556588 10:-0.51730775 11:0.37143986 12:0.43432466 13:0.76136321 
0 10 8.3867562268724001 0 10 0 8.5901551975403425 0 1:0.60947908 2:-0.57197852 3:1.5425051 4:0.19944903 5:-1.2485781 6:0.21297092 7:0.41784034 8:-0.25005995 9:-0.083068885 10:-0.54121223 11:0.077042559 12:0.10535182 13:0.79316951 
6.8947602506767875 10 0 2.750388827874144 7.1078219558972986 1.8577943291816383 0 0.93811895439381565 1:0.57136374 2:-0.0037899107 3:0.75621069 4:0.43197568 5:-1.500008 6:-2.0605938 7:-0.31782252 8:-0.030407339 9:-1.3828483 10:1.444898 11:2.2861637 12:0.73639721 13:-0.60269536 
0 0 0 1.6368013129570123 0 0 0 0 1:0.028615061 2:-0.50362089 3:0.75782703 4:0.24734317 5:1.8164984 6:-0.19994285 7:-0.86765836 8:1.0476102 9:2.1742992 10:0.34242406 11:-0.29220829 12:0.40371546 13:0.1793978 
0 0 0 0 6.5139057162796892 0 0 0 1:0.008737951 2:0.030872131 3:2.2762459 4:-0.50588578 5:-0.95864531 6:-0.30175595 7:-0.77079711 8:-0.64841279 9:-0.065928538 10:1.0266354 11:1.3874048 12:-0.033286346 13:-0.49341468 
0 0 0 0 0 0 0 1.1712079970935738 1:-0.40186305 2:-1.4915212 3:-0.79866132 4:0.48302482 5:2.1765614 6:1.3629911 7:0.94330377 8:-0.075758991 9:-0.71059967 10:-1.856293 11:-0.2532663 12:0.31666728 13:0.58168511 
10 0 0 0 0 0 0 0 1:-1.3994378 2:0.57908128 3:1.23803 4:0.9806977 5:0.5760978 6:-0.29845997 7:0.89755328 8:-0.34471746 9:0.19351055 10:-0.12031301 11:1.3179563 12:-0.11931774 13:0.21262754 
9.762750580488186 4.0209938246139538 10 8.4399034086016247 0 6.0556024536747861 10 10 1:1.1513716 2:-0.33654461 3:-0.22563565 4:-0.56385432 5:1.3226888 6:0.54626743 7:0.17799927 8:0.064691847 9:-0.8448185 10:-1.030772 11:-0.6686122 12:-0.20696568 13:-1.0139421 
0 0 0 0.6435817414297722 0.24889357710314747 0 0 0 1:-0.23431669 2:-0.30404638 3:0.66485096 4:-0.23013864 5:-1.5564433 6:-0.46051645 7:0.62957761 8:-0.3818151 9:-0.5737314 10:-1.5217067 11:0.57894371 12:-1.253928 13:-0.48638724 
5.2103401130429212 0 0 2.0224279980440016 0.011619804734967218 0 0 0 1:-1.1744379 2:0.14518243 3:0.033751273 4:-0.81070145 5:0.54165328 6:2.0786585 7:-0.49444954 8:0.76231052 9:0.40751724 10:-2.3666303 11:0.29362983 12:0.27886481 13:-1.1286607 
0 3.78182939662952 4.7959842797460261 0 2.6746889309828568 0.92580587813475901 2.5738566243087657 0.31395813046290749 1:0.61258342 2:-0.56685732 3:0.56127924 4:-0.17531488 5:1.1802347 6:0.49901965 7:-0.13653775 8:0.8480285 9:-0.41274777 10:-0.68759323 11:-2.4168942 12:1.2841354 13:-1.5560517 
0 0 0 2.4744463897283753 0 0 0 0 1:-0.78790993 2:-0.80732388 3:0.64679293 4:1.3876149 5:-1.3191706 6:-0.94443941 7:0.54375729 8:1.3309262 9:-0.086162045 10:-1.0187646 11:-0.15264367 12:1.1147723 13:-0.070647728 
1.722401332011416 4.2074540060488248 0 0 10 6.7568477191297349 0 1.4560586358368159 1:0.37486746 2:-0.43601026 3:1.2126618 4:-0.46819375 5:-0.72098231 6:-1.7613836 7:-1.3473655 8:-0.426179 9:-0.57908019 10:1.6062172 11:0.45012141 12:-1.5368232 13:-0.33199666 
0.34484870571021647 0 0 0 0 0 0 0 1:-1.1810327 2:0.33384551 3:0.77739527 4:0.20592639 5:0.82725737 6:1.1934968 7:0.59784634 8:0.051271736 9:-0.50529078 10:0.5180306 11:-0.59592569 12:-1.2827381 13:-0.95259114 
10 10 2.826379750885498 0 10 10 4.5893360004565356 1.0977636710088845 1:0.69617556 2:-0.17245949 3:0.27028889 4:-1.1085801 5:-2.0092693 6:-1.3540533 7:0.71522701 8:-0.63052416 9:-0.65591521 10:0.41321961 11:-0.20155638 12:0.47708389 13:-1.2380221 
10 0 0 0 0 0 0 0 1:-1.6191189 2:0.48027316 3:0.73219078 4:0.90385847 5:-0.62920561 6:0.64895019 7:1.1791652 8:0.49275855 9:0.89986171 10:-0.45071067 11:0.3438025 12:0.5441951 13:0.67815709 
6.1833704274038555 0 0 1.7599181458477744 3.0789714738516567 0 0 0 1:-0.26922223 2:-0.13823417 3:0.042522756 4:-0.37995411 5:-0.76256346 6:-1.8863785 7:0.29214431 8:0.010822404 9:-1.0887575 10:-1.6834917 11:0.37690627 12:-1.4712809 13:-1.0215019 
0 3.9325614785543057 5.6705192030421347 10 0 0 6.3070386878484452 0 1:1.0037614 2:-0.55527368 3:0.49496358 4:0.94418354 5:0.23910569 6:-0.66570167 7:-0.69964979 8:0.19762451 9:1.9945458 10:-0.44614487 11:-0.73483546 12:0.97754629 13:1.5316631 
10 0 0 1.2971072790314511 0 0 0 0 1:-1.1660887 2:1.0220267 3:0.91004904 4:-0.053885151 5:0.74533895 6:1.2849767 7:-0.031015755 8:0.67715984 9:-0.25858848 10:0.48286019 11:1.2595161 12:-0.95203473 13:0.69951066 
0 0 0 0.15122748686904089 0 0 0 0 1:-0.81797512 2:-0.61312684 3:1.8763359 4:1.4092543 5:1.2540188 6:-0.004813026 7:1.3443737 8:1.6430784 9:1.7886654 10:-0.50168482 11:1.3988753 12:-0.082059234 13:-1.5446629 
10 0 0 0 0 0 0 0 1:-1.7632264 2:-0.33091585 3:-0.05105812 4:0.720687 5:1.2745965 6:0.6562398 7:-0.58870403 8:1.1547695 9:0.32319733 10:-0.69688509 11:0.093430153 12:0.67664222 13:0.27656308 
10 0 0 3.7111372056110317 0 0 0 0 1:-0.30298207 2:-0.053209952 3:0.96570948 4:1.1922617 5:0.4904523 6:-1.6907233 7:-0.95525595 8:0.95193174 9:-0.9855431 10:-0.60550082 11:0.39964536 12:-0.90501417 13:0.47676243 
4.1318669976448685 0 0 0 3.3129744085199762 0 0 0 1:-0.54284452 2:0.92873278 3:1.6515749 4:-0.54817252 5:-0.70760717 6:-0.88455275 7:0.066958646 8:-0.040285473 9:-0.34250138 10:-0.61571407 11:0.12767066 12:1.482017 13:-0.48860396 
0 0 0 10 0 0 0 0 1:0.67066853 2:-0.61131354 3:0.64668386 4:0.64090126 5:-0.74299989 6:-1.534783 7:-0.97347873 8:0.32766744 9:2.2902172 10:0.13728468 11:0.58407068 12:0.48418274 13:0.27384679 
0.39482507923767951 3.0051689316466104 1.0280974603330333 3.3214690141375662 1.0559620845066409 4.9402632679608178 0 0.070765300733503123 1:0.62017182 2:-1.26147 3:0.26888192 4:-0.6834048 5:0.15132935 6:-1.6895309 7:-0.7164499 8:0.39137896 9:1.8755811 10:1.6436443 11:-0.86489167 12:-0.61386174 13:0.519771 
8.7957665637970646 0 0 0 0 0 0 0 1:-0.72729199 2:-0.02618467 3:0.81091067 4:0.54442636 5:-0.13653902 6:0.26667534 7:0.1425233 8:1.9757391 9:-0.30739229 10:0.41674962 11:0.9856678 12:1.3026668 13:0.66987871 
0.15395382423119711 0 0 0 0 0 0 0 1:-1.6004869 2:0.22486427 3:0.67831344 4:-0.09114949 5:-0.57013771 6:0.95624699 7:1.1210991 8:-0.63184736 9:0.017255178 10:-1.3654968 11:-2.041673 12:-0.02646343 13:0.85083563 
0.92268622636142417 3.4929517956628113 1.4719593839219223 0 3.157359108923075 0.83820344760391186 0 1.9294317276049566 1:-0.44479588 2:-0.38405486 3:0.86132067 4:-0.34894053 5:-3.2006602 6:-1.1666415 7:-1.1746025 8:-1.5824115 9:-0.92316523 10:0.99204514 11:1.4375029 12:1.6165688 13:0.39039368 
3.6158128568916279 6.4338111230692343 0 0 10 4.6266309408028832 1.3872526223638539 0 1:-0.37841685 2:0.73010309 3:1.1157745 4:-2.0146007 5:0.39366584 6:-0.81230125 7:-0.2418543 8:-0.21412383 9:-0.68007591 10:-1.1769557 11:-1.3732737 12:-0.056051205 13:-1.3252384 
3.1724298560389301 0 0 0 0 0 0 0 1:-0.33345248 2:0.009733517 3:1.3037886 4:-0.40764306 5:-0.011633132 6:0.23751088 7:-0.76943105 8:-0.78188772 9:-0.1585262 10:0.81527939 11:-0.045554239 12:1.0574884 13:1.0306262 
0 0 0 0 1.765035075782045 0 0 0 1:-0.97218885 2:0.38495719 3:1.6235154 4:1.1740468 5:-0.50443796 6:1.517674 7:0.5026792 8:0.55342647 9:-0.99825176 10:0.65941056 11:0.59457722 12:-0.82439663 13:1.4159683 
0 0 0 0 0.78933199454202863 0 0 0 1:0.061374714 2:-0.07212535 3:1.3882496 4:-0.37903486 5:-2.5615215 6:-1.4374287 7:0.37387814 8:-0.89739377 9:0.1626971 10:1.3982392 11:1.4068873 12:-0.20116098 13:-0.81586273 
6.3137560483739223 10 0 0 10 0 0 0 1:0.095314626 2:0.331373 3:1.4774537 4:-1.7731766 5:-1.4957267 6:-0.030930464 7:-0.70560822 8:-0.72436964 9:0.33116877 10:1.5362612 11:1.3403911 12:0.23543924 13:-0.24774075 
9.0404352931771754 0 0 0 0 0 0 0 1:-1.5437389 2:-0.13009755 3:0.091912001 4:0.023031109 5:-0.23060857 6:0.27920353 7:1.0218379 8:-0.0083680431 9:-0.79497877 10:0.2471845 11:0.87128974 12:-1.024048 13:-0.42449896 
0.34296095231469059 0 0 0 0 0 0 0 1:0.40956142 2:-0.20972289 3:0.0094947186 4:-0.411592 5:-0.59898581 6:-0.49473133 7:0.54002569 8:0.60997915 9:-0.95715927 10:-0.43055163 11:-0.1144013 12:0.0064322857 13:0.39206269 
0 6.1432060813663512 7.5827137464156831 0 0 0 0 2.2063266889242565 1:0.50926883 2:-0.74968215 3:-0.49859319 4:0.15838734 5:0.9091094 6:0.72640707 7:-0.00010233022 8:1.1895565 9:0.031733094 10:0.15164052 11:-0.031004139 12:0.063285887 13:-0.17266826 
5.9111432246709166 0 0 0 0 0 0 0 1:-1.138498 2:-0.26268919 3:0.64536478 4:1.062496 5:-0.26812777 6:1.1129577 7:0.068547193 8:0.85409294 9:1.346312 10:0.58065374 11:1.864871 12:1.1570861 13:1.2496533 
10 2.045792013040292 9.5361043978789901 10 10 10 2.6978930248744697 6.5624428788434273 1:0.657843 2:-0.34322273 3:-0.49310732 4:-1.0737545 5:-1.3094731 6:-1.2645626 7:0.16641825 8:0.73235245 9:-0.45784742 10:0.15337464 11:-0.42108021 12:-0.38528302 13:-1.3342026 
0 1.9339661994192019 3.4182281031288362 0 0 0 5.1779544389565615 10 1:0.76256474 2:-0.42135362 3:-0.035765366 4:0.091232855 5:0.12693166 6:0.44202029 7:0.15667173 8:0.45860454 9:-1.1461237 10:0.61170525 11:-0.024200147 12:-0.58259457 13:-0.068109065 
10 0 0 0 10 0 0 0 1:0.27285698 2:0.85618845 3:1.5553763 4:-0.47083155 5:-0.43749661 6:-0.99937214 7:-0.59137044 8:0.52219347 9:-0.50183477 10:0.46086664 11:1.0109629 12:0.23150534 13:-0.55239477 
0 0 0 0 4.9342132005396229 0 0.45579083667409626 0 1:0.0067271642 2:0.12573351 3:2.1126831 4:-0.16987882 5:0.53280263 6:1.478248 7:0.56143594 8:-0.86699863 9:0.51953693 10:-0.13210021 11:0.99567601 12:0.95055111 13:-0.39322229 
0 9.8838653110861774 10 0 0.69303688953464937 0 0 0 1:0.32621792 2:-1.0890135 3:0.19607062 4:-0.38460583 5:1.0198047 6:0.13348238 7:-0.29491955 8:1.2995082 9:-0.48396435 10:-0.95760471 11:-1.4551914 12:2.175233 13:-1.1793064 
0.0075153045328534718 0 0 0 0.84738650078012789 0 7.5885600359137317 7.1838479285732699 1:0.84949607 2:-0.20727704 3:0.58547893 4:-0.19206096 5:1.7006238 6:1.0487506 7:0.032012822 8:0.48984974 9:1.3020741 10:0.93818486 11:-0.094958322 12:-0.70967912 13:-0.33061588 
0 7.6182375042639947 1.3180717904191626 0 5.6060091174598661 0 0 0 1:-0.12665885 2:-0.95354302 3:-0.49021216 4:-1.8931052 5:-1.1319132 6:-1.0041257 7:0.36566784 8:0.9214319 9:-0.28443863 10:-0.18862803 11:0.50982165 12:-0.56267477 13:-2.1105148 
2.2084561256138344 0 0 0.33294188910851014 0 0 0 0 1:-0.62306156 2:-0.43108034 3:0.99057986 4:-0.44116842 5:-0.49109952 6:1.2346795 7:2.1767444 8:0.30922105 9:0.12272817 10:0.21316365 11:-0.49825627 12:0.13463083 13:1.054128 
0 0 0 6.0924123325412687 0 0 0 0.57308459638828613 1:-0.72157186 2:0.025473635 3:1.8214192 4:1.7227101 5:1.2086857 6:-1.6482352 7:0.55098375 8:0.3179126 9:1.368671 10:-0.1793199 11:1.1455678 12:0.83983433 13:-1.5842135 
0 0 0 2.5865937773152563 0 0 0 0 1:0.49251211 2:-0.79632251 3:0.97636755 4:1.5362525 5:-0.38923825 6:-1.2789476 7:-0.65123778 8:-0.18635901 9:0.90327805 10:0.64297112 11:-0.12040524 12:1.4049176 13:1.5604757 
10 0 0 0 0 0 0 0 1:-1.7404511 2:-0.30641118 3:-0.17412631 4:0.6907572 5:0.44326241 6:-0.31603654 7:0.4618956 8:0.93730059 9:-0.099079685 10:-1.3310796 11:-0.29456514 12:1.5122204 13:0.49094931 
10 0 0 0 0 0 0 0 1:-0.95330658 2:0.071474546 3:0.9035451 4:1.3547387 5:0.67878048 6:-1.3487977 7:0.20243171 8:0.697281 9:1.1780855 10:0.16164111 11:-0.067882523 12:-0.055917493 13:0.90595003 
0.83188322654028357 0 0 0 0 0 0 0 1:-1.2368529 2:-0.3878806 3:0.026697938 4:-0.47782422 5:-1.2137382 6:-1.2867269 7:0.96574431 8:-0.65807393 9:-1.2622324 10:-0.62480857 11:-1.58764 12:-0.66767562 13:1.3032669 
0 0 0 0 0 0 2.7697326054165137 0 1:0.35313665 2:-0.20388502 3:0.67720392 4:0.7688124 5:0.10594747 6:-1.6316515 7:-0.5414892 8:-0.84665406 9:0.17412655 10:-0.31932235 11:0.35320288 12:1.6951436 13:1.1502167 
0.87121448297770399 0 0 0 0 0 0 0 1:-0.54374542 2:-0.47258519 3:0.64646541 4:0.71844576 5:0.69987634 6:1.0031752 7:0.6324884 8:0.69153924 9:-1.1721924 10:-1.8298051 11:0.94128748 12:0.36333907 13:-0.26765892 
0 6.8114398991880991 10 2.3550089920801751 0 0 0 0 1:0.69430739 2:-0.83038029 3:-0.14544022 4:0.59965996 5:0.6098254 6:-0.23188611 7:0.78093196 8:1.2717149 9:0.11717182 10:0.49950999 11:-0.81283725 12:0.2569345 13:1.5392066 
5.897899800581297 0 0 0 0 0 0 0 1:-0.51045208 2:-0.14618346 3:0.58188774 4:0.18766312 5:-0.31613573 6:-0.016611455 7:-1.4984012 8:-0.5792391 9:0.21049694 10:-0.34192935 11:-0.34529806 12:0.38501698 13:1.2063617 
0.32667671491331435 0 0 0 0 0 0 0 1:-1.3037691 2:-0.57592446 3:0.26646513 4:0.37532331 5:-0.78187237 6:1.436017 7:1.7553911 8:1.9747061 9:0.49699567 10:0.16613296 11:-0.46991755 12:1.240357 13:0.43790023 
4.8232156965832083 0 0 0 0 0 0 0 1:-1.7533174 2:0.51143538 3:1.7265296 4:0.41512597 5:1.1758821 6:0.61510406 7:0.13980646 8:1.6253594 9:-0.47663541 10:-1.7449547 11:2.2527425 12:0.53462585 13:-0.48858949 
10 8.3540814894095501 0 0 10 0 0 0 1:-0.3996947 2:0.65055868 3:0.79653919 4:-0.23304541 5:-1.3491258 6:-0.85395466 7:-0.90068205 8:-1.9234057 9:0.35515593 10:-0.25927291 11:-0.17517947 12:-0.55862859 13:-0.41290315 
0 4.6452304510976363 0 0 6.7408200298651302 3.2377098824299142 0 0 1:0.28064133 2:-0.024542814 3:1.5130885 4:-0.84123483 5:-2.3744249 6:0.12223249 7:0.42367466 8:-0.58963978 9:-0.78090675 10:0.1448097 11:0.14113143 12:-0.45759889 13:0.11447032 
0 0 0 0.12283078555634414 0 0 0 0 1:-0.023029283 2:-1.0937023 3:-0.16156759 4:-0.094230428 5:0.90811319 6:1.2292389 7:0.52781496 8:-1.0021246 9:-1.4033911 10:-1.9760692 11:0.60212067 12:0.96227869 13:0.33509485 
9.6961812644849026 1.4415526664327902 0 10 0 8.1408644434406785 3.4335579602462158 0 1:0.38402814 2:-0.06341661 3:0.098359184 4:0.2180385 5:0.33286368 6:-0.59512422 7:-0.95826134 8:0.75874543 9:0.8828756 10:-0.16007644 11:-0.088030909 12:-1.6000501 13:0.63657892 
1.3124018472464227 4.3892646417200245 0.48966118048999524 0 0 0 0 0 1:0.14600235 2:-1.0670826 3:-0.30773236 4:0.033639564 5:1.1784661 6:-0.16496768 7:0.84298418 8:2.0628207 9:1.3682274 10:-1.2418019 11:0.76361032 12:1.4247579 13:0.10230179 
4.6239518090300002 0 0 0 0 0 0 0 1:-1.5656444 2:0.28936419 3:1.62172 4:-0.88481574 5:-0.1550683 6:2.0960759 7:-1.3121819 8:0.063375597 9:0.61413162 10:-0.66233105 11:1.6312073 12:0.44183597 13:-0.46378727 
0.92627896900036777 0 0 0 0 0 0 0 1:-1.6551846 2:-0.55948033 3:0.46421968 4:0.93238863 5:0.95994998 6:0.711167 7:-0.56504221 8:1.002157 9:1.2767094 10:-0.30224872 11:-0.10487193 12:0.25425635 13:-0.39718016 
0.73660237110297433 3.3119113946810859 0 0 10 2.9928956384718877 0 0 1:0.41079774 2:-0.024118627 3:0.7084793 4:-0.86348602 5:-1.077239 6:-0.61344434 7:-0.97608378 8:-0.59397754 9:-1.2626795 10:-0.25289706 11:0.87936639 12:-1.2816895 13:-0.5543681 
0.19998973365991451 0.041082333863121566 0 3.649807533616154 3.0804967980833178 1.5194659766010281 0.38584805302459246 1.0957329279137487 1:0.93478153 2:-1.5250845 3:0.81668365 4:-0.21290128 5:-1.4602067 6:-1.6547011 7:-2.1056107 8:0.54455651 9:2.4459111 10:0.59094797 11:-0.56208564 12:1.4474565 13:0.48941162 
3.6344613536155683 1.9582194958861778 0 0 0 0.062921950279824251 0.075099128209345459 0.029594011508449716 1:-1.2030883 2:0.80851115 3:1.6048978 4:0.50777102 5:0.70958991 6:1.9963636 7:1.2210475 8:2.1227131 9:2.0940463 10:-0.0081619685 11:-0.40888233 12:-0.36301935 13:-0.06734877 
0 0 0 0.36910513738189071 0 3.7130819463396247 0 0 1:-0.20260089 2:-1.1375151 3:0.06834287 4:0.78830165 5:1.7300542 6:-0.053392974 7:-1.1629468 8:0.91196468 9:-0.23300623 10:0.73425083 11:0.94692922 12:1.5058602 13:1.0272419 
0 0 0 7.3144983879987047 0 1.6260294396685351 0 0 1:-0.012054661 2:-0.17879096 3:1.1045634 4:2.0043312 5:0.16185851 6:-0.42999347 7:0.59448969 8:0.53844282 9:0.32578966 10:0.55237223 11:0.51264765 12:-0.1274174 13:0.82482294 
0.069447680947111859 0 0 0 0 0 0 0 1:-1.6416013 2:-0.34540542 3:1.134764 4:1.2174104 5:-1.9143687 6:-1.6605197 7:-0.531713 8:-1.0027293 9:1.2904724 10:-0.62842481 11:0.48938716 12:1.1031011 13:0.85949074 
0.0084471744744672971 0 0 0 0 0 0 0 1:-1.8385202 2:-0.064116983 3:0.058073561 4:-0.75735996 5:-0.44650585 6:0.45727975 7:-0.47134036 8:0.12659861 9:0.88990458 10:0.30182548 11:1.1253094 12:0.58014335 13:0.46007691 
6.8227342076675459 0 0 0 0 0 0 0 1:-1.3878285 2:0.21798478 3:1.9081843 4:1.6055481 5:-0.51038548 6:-1.8470839 7:0.24934193 8:0.10558528 9:-0.77628416 10:-0.57674784 11:1.0460266 12:-0.4295995 13:-0.25779401 
10 0 0 0 4.1540042855486936 1.5701053261311984 0.12923035271837832 0 1:-1.2811092 2:0.67240747 3:0.94878876 4:0.28798077 5:-0.019290314 6:-0.056614254 7:-0.15003157 8:-0.97453026 9:1.1831121 10:-0.18185609 11:-0.21068622 12:1.1687686 13:-1.1842714 
10 0.80200550893760103 0 0.41890410528359356 0.47156034542120889 1.8705634240233555 10 2.110058028526852 1:0.32066396 2:0.070694223 3:-0.16788504 4:-1.2554056 5:-0.33968291 6:-0.0079514414 7:-1.1580498 8:0.49141436 9:0.98730249 10:-1.5079343 11:0.044636864 12:0.61319656 13:-0.30648381 
0 8.6320909533549539 0 0 10 0 0 0 1:-0.0078625049 2:-0.49836921 3:0.28747846 4:-1.1003189 5:-1.1070899 6:-0.15908998 7:-0.0093220214 8:0.51445253 9:0.42662102 10:0.12946735 11:1.0685035 12:-0.39292899 13:-0.36948347 
7.7501286379097456 0 0 1.2202711379147009 0 0 0 2.1890785270961182 1:0.31974934 2:-0.1862276 3:0.3026927 4:0.018778419 5:0.87370784 6:0.26609435 7:0.027981676 8:0.86220468 9:0.43809878 10:0.76726657 11:-0.53486158 12:-2.0773078 13:0.34464521 
0 1.5323199533763521 0 0 0 0 0 0 1:-0.86982835 2:-0.75218002 3:1.1266233 4:0.77674029 5:-1.6674159 6:-0.377225 7:0.58117077 8:0.71539544 9:-1.1409537 10:1.1109287 11:2.2113472 12:1.0303077 13:-1.7452034 
7.3619112562513696 0 0 10 0 0 0 0 1:0.050925758 2:-0.3742152 3:0.59265575 4:0.84908647 5:1.8551224 6:-1.108597 7:0.34990359 8:1.1539135 9:1.1615246 10:0.26074063 11:-0.53227433 12:-0.21102871 13:-0.18320395 
6.6536782707335806 1.7453113133893483 0 3.2097381014709718 0 0.86609326502633077 0.49406372774202917 0.25855501844099221 1:-1.1772009 2:1.0529529 3:0.15233588 4:-0.78721691 5:0.79420387 6:-0.45549482 7:-0.01294363 8:1.7574973 9:-0.59864041 10:0.19380989 11:1.055562 12:-2.1576294 13:-0.28148234 
4.2926161950103356 0 0 0 0 0 0 0 1:-2.4839086 2:-0.4758271 3:0.78802068 4:0.60551012 5:0.57377811 6:0.59047478 7:1.1641122 8:0.39382019 9:1.8005115 10:1.9309564 11:0.98852779 12:0.42099233 13:1.1386199 
0 0.026079303015395919 5.1717343539347054 0 0 2.0019949341685712 4.1824919096583573 1.9513103180359639 1:1.0073253 2:-0.37642429 3:0.21037497 4:0.00068461895 5:2.4622653 6:1.5324691 7:0.26730176 8:-0.75708921 9:-0.61399911 10:-1.3169015 11:-0.80055736 12:0.20169421 13:0.23918116 
10 0 0 0 0 0 0 0 1:-0.91035182 2:0.612257 3:1.5346888 4:0.30213993 5:1.2668304 6:1.3884616 7:-0.14046341 8:0.51723254 9:-0.33900528 10:-0.56185288 11:0.77363759 12:-0.44552331 13:-0.32928537 
10 0 0 0 0 0 0 0 1:-0.89332349 2:-0.13471603 3:0.080402134 4:0.16403256 5:0.73434784 6:-0.18291801 7:0.14558728 8:0.93962404 9:0.032678381 10:-0.53905458 11:1.377865 12:0.82571196 13:0.5464202 
0 0.20705636407456016 0.68497100823259782 0 0.85452937017446262 0.26624680315692867 1.4037472561049156 0 1:-1.3117268 2:0.32537501 3:1.5150024 4:0.9604135 5:0.060417467 6:1.5007121 7:-0.13031428 8:0.097188455 9:1.4313341 10:-1.5611051 11:-0.76719999 12:0.15506976 13:-2.6750683 
0 0.22856475270618173 1.243825777650102 0 0 0 0 0 1:0.13143948 2:-1.0891398 3:-0.13870389 4:0.49461463 5:1.6684832 6:1.6539235 7:0.27837632 8:-0.57632366 9:0.2673947 10:-1.264305 11:-0.7578673 12:-0.89416819 13:-0.27408252 
0 0 0 0.16929773289187142 0 0 0 0 1:-0.43640765 2:-0.36790746 3:0.8250843 4:0.77467895 5:0.049483373 6:-0.56784381 7:1.0317185 8:-0.015066023 9:-0.94925058 10:-2.094088 11:0.45309012 12:-0.63122953 13:-1.2419218 
10 7.7959743964740653 0 10 5.9304418226713125 10 10 4.5558374919446605 1:0.75440744 2:0.12456831 3:-0.15624047 4:-0.47801346 5:-0.80022569 6:-1.2453183 7:0.20890138 8:0.72173203 9:0.30487347 10:-0.67884761 11:0.89759481 12:-0.0091642857 13:-0.30204842 
0 10 10 1.2887804601247641 0 0 0 0 1:0.63414895 2:-1.4065229 3:-0.18244942 4:-0.85504111 5:0.030516308 6:-0.41324942 7:1.2109192 8:1.1045764 9:-0.57825396 10:-0.55495848 11:-0.55226658 12:0.060521451 13:-0.30332198 
0 0 0 0 10 10 10 1.7077776775877362 1:0.82330814 2:-0.27715716 3:0.82305098 4:0.25973619 5:0.37545528 6:0.59826545 7:-0.51198836 8:0.5632781 9:-0.41628287 10:1.7121221 11:-0.062574696 12:0.47023436 13:0.34804164 
0.84020875300557507 7.4021300246793285 8.711694719584246 6.1354328085469501 0.69789472522512708 1.4493541090428694 0 1.0650456262134289 1:0.7084019 2:-0.81111554 3:0.11059731 4:0.37168854 5:0.50727845 6:-1.8881903 7:0.32832228 8:0.36358486 9:1.7176228 10:-0.1570542 11:0.7562332 12:-1.3744029 13:-0.37781254 
0 0 0 0 0 0 0.73371572626607295 0 1:-1.3536376 2:0.17714707 3:2.0429865 4:1.1790952 5:0.2456235 6:-0.48044936 7:-0.51804073 8:0.087519552 9:-0.44659652 10:-3.3439751 11:-0.53903084 12:-0.1447746 13:-0.77400483 
10 0 0 0 0 0 0 0 1:-1.2948241 2:0.81790587 3:1.5909666 4:0.33612441 5:0.39907998 6:-0.2192796 7:-0.67300664 8:-0.52664103 9:-0.722794 10:-0.97240787 11:0.57396329 12:0.82191349 13:-0.19740841 
0 1.9776758824725083 0 0 5.9879756733395233 0 0 0.046446095010109274 1:-0.049965181 2:-0.74515924 3:0.62577034 4:-0.67074959 5:-2.2261237 6:-1.5394625 7:-0.099742754 8:-1.019053 9:-0.06300221 10:-1.3447355 11:1.1545583 12:0.63615031 13:0.90271404 
9.6557738592980957 7.4413763280325922 0 0 10 0 0 0 1:0.21113962 2:0.24525923 3:1.5281141 4:-0.019507724 5:-1.6515723 6:-0.93562771 7:0.0038923506 8:-0.70238328 9:0.1098191 10:-0.11290302 11:0.9025245 12:0.67807898 13:-0.35625087 
10 0 0 0 0 0 0 0 1:-1.6325564 2:-0.30523891 3:0.029041836 4:1.1363971 5:1.1683592 6:-1.3010769 7:0.9631909 8:1.3777886 9:-0.27611036 10:-1.4846726 11:-0.30038964 12:-0.80092549 13:0.23923886 
2.3032218519994783 0 0 0 0 0.42443678662535567 0 0 1:-0.30708779 2:-0.620518 3:-0.069342215 4:0.71364691 5:-0.69537651 6:-1.3642158 7:0.82677562 8:1.0928341 9:0.32036358 10:-0.13159436 11:1.8672545 12:2.6808082 13:2.0448327 
9.0498958587347644 0 0 0 0 0 0 0 1:-1.5930927 2:-0.26288485 3:-0.090539182 4:0.020624704 5:-0.58710701 6:0.28419418 7:2.1882472 8:0.40574744 9:-0.72273848 10:0.19017365 11:1.3984859 12:0.65826026 13:1.2472758 
0 0 2.4849153747969766 6.8160387943422807 0 0 0 0 1:0.54202176 2:-0.98764531 3:0.95113309 4:1.0372741 5:0.11157162 6:-0.44547102 7:0.9617913 8:1.1214098 9:0.23160429 10:-0.25307846 11:0.54778589 12:0.29279876 13:-0.34889761 
4.1772123379897224 0 0 0 0 0 0 0 1:-2.1191943 2:0.26694464 3:0.63205339 4:0.76947877 5:-0.34557964 6:0.86001209 7:1.1487 8:-0.14025268 9:1.457564 10:0.47004718 11:1.8814836 12:0.85292629 13:-1.3123044 
0 2.3142738035803072 0 0 0 0 2.5163677163811156 0 1:-0.83002252 2:0.55841129 3:1.0662943 4:0.33860484 5:-0.88298293 6:0.22340335 7:1.0438085 8:0.42294114 9:1.395374 10:-0.7560674 11:-0.047423559 12:0.23959938 13:-0.45686645 
5.5781744158079896 0.045488785487524067 0 0 1.0212048623745777 0 0 0 1:-1.310333 2:0.83223499 3:1.0839173 4:-0.23739046 5:0.58737213 6:0.85079276 7:-1.0151376 8:0.73968783 9:-0.16555649 10:-0.91591204 11:-1.1449205 12:-2.0234102 13:-0.16636812 
7.2581131426195009 0 0 0 0.077148130162090364 0.53992790959988712 0 0 1:-1.2198877 2:0.48594794 3:1.194917 4:1.3489582 5:0.56452101 6:-1.0522502 7:0.93521341 8:-0.16932853 9:1.2251221 10:0.51117614 11:1.1532443 12:-0.65005045 13:1.0613792 
0 1.2452939309604305 0 0 0 0 0 0.39230733050854771 1:-0.014665179 2:-1.8118075 3:-0.74150688 4:0.9813438 5:1.3265517 6:1.3438352 7:0.10777491 8:1.0086575 9:-0.62210491 10:-1.5711782 11:-0.81193334 12:2.6200406 13:-0.67330777 
1.9274689425018228 0 0 0 0 0 0 0 1:-0.80780167 2:-0.84482361 3:-0.079732208 4:1.8553808 5:-0.44339278 6:0.77189216 7:0.93509403 8:0.79061588 9:0.13906653 10:1.6813 11:0.81391423 12:-0.78337109 13:-0.17957037 
2.2696425753844442 7.8870477347877168 3.3595768232909862 0 0 0 0 0.78506992455380376 1:0.15772176 2:-0.31223154 3:0.77229969 4:-1.0174885 5:-1.9393977 6:-0.56548593 7:0.7937762 8:-1.6348758 9:-0.83469142 10:0.62700673 11:0.29184624 12:-0.77296846 13:0.59271802 
0 0 0 0 0 0.12461051595144972 0 0 1:-1.4221652 2:-0.50075618 3:0.83613217 4:0.066033419 5:-1.5405004 6:0.33326857 7:2.1021858 8:-0.86305028 9:-1.7222181 10:-1.069948 11:-0.36931937 12:-0.52435996 13:1.2291445 
0.15397613715740746 0 0 0 0 0 0 0 1:-1.5923633 2:-0.30093078 3:0.47158378 4:0.27080689 5:-1.6189983 6:0.92026372 7:0.81266725 8:-0.618835 9:0.51801659 10:-0.4092609 11:0.80878239 12:2.6765432 13:0.27762414 
0 0 0 0 6.5108837501056849 0 0 0 1:-0.68761326 2:0.79360579 3:2.0378286 4:0.062631442 5:0.084951635 6:0.57733224 7:-0.63677038 8:0.33034178 9:-0.60406567 10:-0.66558194 11:0.7836938 12:-0.90693892 13:0.14277675 
9.5697237519489669 0 0 0 0 0 0 0.31143870586875572 1:-0.7375588 2:-0.28171543 3:0.38384857 4:1.3132834 5:0.051698877 6:0.15533468 7:1.2382637 8:1.5078582 9:-0.7791722 10:-0.70263237 11:-0.93588243 12:-0.094515032 13:1.5866463 
0.88381623720719094 0 0 0 0 0 0 0 1:-1.5915949 2:0.8937244 3:1.4251299 4:0.17827335 5:1.4189553 6:0.93404597 7:-1.2442316 8:1.0494058 9:1.0852265 10:-0.50392872 11:0.32150264 12:-0.15542924 13:-0.90589179 
1.9050255041033042 3.0617710820069357 3.2338599776587369 2.8404693290740455 1.3587542378434569 0.89157270727109017 0.32478148821443975 0.079880203149315654 1:0.34991412 2:-1.4361794 3:0.52373743 4:1.9789741 5:0.71409739 6:-0.51164025 7:1.3319966 8:1.0383987 9:-1.0396598 10:0.65989231 11:-1.2253365 12:0.83105293 13:-0.62458571 
8.4205184709986742 5.2235632080048795 0 0.99202187811710585 0 0 0 0 1:-1.1677488 2:0.70969424 3:0.27698055 4:-0.99128073 5:-0.075662463 6:0.68760907 7:0.39620642 8:0.15029596 9:-0.26175044 10:-0.47695636 11:-0.34118761 12:-1.052635 13:-1.3389369 
2.9238793992981997 0 0 0 0 0 0 0 1:-0.5899444 2:-0.30073412 3:0.6458388 4:-0.2085879 5:0.096847763 6:-0.94926948 7:-0.50606543 8:1.4962561 9:0.62083189 10:-1.1250416 11:-0.64303635 12:-0.286875 13:-0.28640874 
6.8306620588473042 0 0 0 0 0 0 0 1:-1.6607669 2:0.50166965 3:0.6525014 4:-0.26466736 5:1.0668492 6:1.0342522 7:-0.85212812 8:1.3486131 9:0.3384726 10:-0.20204353 11:-0.31108229 12:-0.57553979 13:0.33108504 
8.8375339963210902 2.033915094508123 2.1008488792933995 3.0337047564633655 7.4966086362752344 10 10 5.1862024612578281 1:0.7933761 2:-0.22557446 3:0.69932792 4:-0.9961101 5:-0.22865017 6:-1.7541287 7:-0.86107584 8:0.59303016 9:-0.5700518 10:1.1526053 11:0.72647328 12:0.85613118 13:-1.1159556 
10 0 0 0 0 0 0 0 1:-0.42966783 2:0.096237467 3:0.75176825 4:0.13850842 5:-0.64054626 6:-1.5214544 7:-1.1287025 8:0.292617 9:0.27135784 10:0.17295647 11:1.0288526 12:-0.054317966 13:0.22140708 
0 0 0 0 0 0 1.6045135599274147 0 1:-1.0667303 2:0.25282623 3:0.15731571 4:-0.48483168 5:0.30635146 6:1.763204 7:-0.25513094 8:0.44970215 9:1.0888591 10:-2.0285061 11:0.66549233 12:1.3746418 13:-0.54262886 
10 0 0 10 0 0 8.5966605578310453 0.34385099934821617 1:0.77676521 2:-0.16145605 3:0.59485033 4:0.450327 5:0.56140007 6:-0.42741214 7:0.48408116 8:1.5337976 9:-0.1691135 10:-1.2855861 11:0.76623314 12:-0.17375814 13:-1.0003385 
1.664879660213278 0 0 0 0 0 0 0 1:-1.3069729 2:-0.21897321 3:1.1352994 4:1.9524296 5:0.39848353 6:-0.84555485 7:1.011785 8:1.3838451 9:-0.58061688 10:-0.15578446 11:1.2869559 12:-0.52421058 13:0.4363253 
0 0 0 0 0 1.0474321308841996 0 0 1:-0.31289663 2:-0.36963478 3:0.78073442 4:-0.27643698 5:-2.1774701 6:-1.8961245 7:1.2945516 8:-0.46332845 9:-1.3708382 10:0.53480838 11:-0.61984677 12:-1.1036727 13:1.1536885 
0.75925320527806606 0 0 0 0 0 0 0 1:-1.5776419 2:0.10725546 3:0.90042743 4:-0.48475591 5:-0.63749468 6:1.3232549 7:1.0676753 8:0.97412701 9:1.0361466 10:1.34348 11:2.6900289 12:1.1337198 13:0.31005516 
10 0 0 0 0 0 0 0 1:-1.0184414 2:0.28468528 3:0.93676577 4:0.47637982 5:0.21151974 6:1.3287287 7:0.34609228 8:-1.1598717 9:0.13869656 10:0.2225383 11:0.36004562 12:-0.25863288 13:-0.31115007 
0.1612503941626508 1.0279226098401064 0 0.8822763430160121 2.3916514937170641 0 0 0 1:-1.175161 2:0.81400936 3:1.6703784 4:-0.46667879 5:-1.4866096 6:-0.61024995 7:1.0279962 8:0.79714237 9:0.39617589 10:-0.35017804 11:0.45830412 12:-1.7156833 13:-1.9048924 
0.041555340439747783 0 0 0 0 0 0 0 1:-1.3032118 2:-0.071103473 3:0.57220573 4:0.98532969 5:-0.016514141 6:0.84289669 7:-0.40826374 8:-0.6947058 9:0.93126552 10:0.64610229 11:-1.4536133 12:-0.055723231 13:-0.42772196 
10 0 0 0 0 0 0 0 1:-0.88683563 2:0.80752327 3:0.33658963 4:-0.86843303 5:-0.36170482 6:-0.55886566 7:-0.36263594 8:-0.52152941 9:-0.77866965 10:-0.27440892 11:0.70204954 12:-0.56563601 13:-0.24175466 
7.7531004509965022 0 0 0 0 0 0 0 1:-0.98701536 2:0.26929309 3:0.18550351 4:-0.36618154 5:0.23013122 6:1.0210318 7:-0.5707134 8:0.72856657 9:0.8203322 10:-0.69714658 11:0.98603355 12:1.1694408 13:-0.62718193 
0 0 0 0 0.57818259090979784 0 0 0 1:0.20465204 2:-0.01093983 3:1.3603112 4:-1.1222979 5:-2.5644687 6:-0.76756647 7:-0.17059813 8:-0.69167352 9:-0.39542438 10:0.64307103 11:0.48641383 12:-0.6825358 13:-1.8698355 
2.8890339132585159 0 0 0.72054980012273318 0 0 0 0 1:0.39336733 2:-0.65118069 3:0.45411878 4:1.0454718 5:1.2442539 6:-0.052628919 7:1.0307739 8:1.4478275 9:-1.1708641 10:-0.721126 11:-0.17953255 12:-0.55186155 13:1.4973979 
4.6922414329728692 10 10 6.6032199131117446 8.6098184191339158 4.7792796018491099 7.2080736520359787 1.3739607635658166 1:0.59811205 2:-1.0080376 3:-0.11044698 4:0.18724262 5:-0.29513155 6:-1.1697924 7:0.56952494 8:-0.96367767 9:-1.396538 10:-0.42721293 11:-0.39094462 12:0.95231978 13:-0.2623681 
6.6587893100043916 0 0.42084629785105149 0 0.38155862266250851 0.16077433140165401 0.43077527756536504 0 1:-1.5616175 2:-0.16709345 3:1.4154682 4:0.75512895 5:-1.2798942 6:-1.0236232 7:0.64372495 8:-0.75771488 9:1.1912495 10:2.6728975 11:2.363372 12:1.883532 13:1.1931444 
0 0 0 0 1.1336436403673822 0 0 0 1:-0.73002003 2:0.13418934 3:1.9965019 4:0.26928983 5:-0.63952259 6:2.0464302 7:1.061498 8:-0.68855598 9:-0.3036718 10:0.54773898 11:1.083122 12:-0.30206627 13:0.92845074 
9.6789176121100482 0.042252788355010347 0 0 0 0 0 0 1:-0.27351997 2:-1.2083478 3:-0.7268604 4:0.64809251 5:1.6934171 6:0.97344422 7:0.067685397 8:1.360704 9:0.0021079294 10:0.62899527 11:0.53499717 12:0.18655867 13:-0.077284324 
4.5372574023188914 0 0 0 0 0 0 0 1:-1.4326889 2:0.30336901 3:0.60670328 4:0.34015395 5:1.5671124 6:0.31364072 7:0.27828744 8:-0.81606761 9:-0.56676932 10:-2.0479425 11:1.6711031 12:-0.44971338 13:0.46911772 
0 0 0 0 0.63546603172950389 0.26720850822309633 0 0 1:0.33216855 2:-0.15866306 3:1.1162914 4:0.48999252 5:0.51501728 6:-0.8874407 7:-2.0852814 8:-1.1342612 9:0.83864324 10:-0.52655943 11:0.57031661 12:1.8134804 13:1.1749198 
0 0 0 0 0.36733435342393272 0 0 0 1:0.35945816 2:-0.48294776 3:1.1600875 4:0.112453 5:-0.66203839 6:-1.3187886 7:-0.88912539 8:0.22220727 9:0.84306052 10:-1.0188132 11:-0.32050354 12:0.45645615 13:-1.3506312 
4.9106572949617089 0 0 0 0 0 0.53876453858750251 0.18288952276932849 1:-2.1794273 2:0.14362064 3:0.74773326 4:0.67131267 5:0.081600486 6:1.6758731 7:1.8792105 8:-0.1260756 9:0.45344627 10:0.81518897 11:-0.14363877 12:2.1909839 13:0.26852655 
3.4747056872802622 7.0635332906888362 0.24331792258712343 0.046583217775500112 10 0 0 0.49860222680934019 1:0.26465407 2:-0.41511825 3:0.79701935 4:-1.3330051 5:-2.441604 6:-0.28859191 7:-0.11696389 8:-1.3138153 9:-0.32736518 10:-0.20544883 11:-0.38470699 12:-0.64467013 13:-0.99816137 
0 1.2316032194766386 0.50005110552056331 0 0 0.87783814334033461 0.76279654613992742 0.25984210853228618 1:-1.4318878 2:-0.096113189 3:0.61046005 4:0.038815196 5:-0.97180987 6:-0.75768889 7:2.0557593 8:-0.621354 9:-2.2461825 10:-0.65627009 11:-1.2282222 12:-1.2158574 13:2.2393985 
4.8599575124327936 0.16883168427470216 3.2170546259658162 5.2205716222821925 0 8.7481770456097028 7.1644926117622489 0 1:1.0625291 2:-0.85909033 3:-0.98550908 4:-0.95368013 5:0.22265575 6:-1.4334387 7:-0.88440547 8:0.29431983 9:-1.4774253 10:-1.2138537 11:-0.18492569 12:0.29510825 13:-0.19038159 
0 3.9950445371424146 0 0 0 0.7618262132742506 0 1.3886254612698432 1:0.13420866 2:-1.3432656 3:0.42327151 4:1.2389172 5:1.5706622 6:0.61813951 7:0.41665 8:0.22631284 9:-2.1728256 10:-0.31457639 11:-0.65190376 12:-0.048024596 13:-1.4573843 
0 0.86286568849425371 0 0 0 0 0 0 1:0.47447368 2:-1.1711664 3:-0.075901193 4:0.1774386 5:1.6672035 6:1.4199914 7:0.59052003 8:0.64959759 9:0.21329091 10:-1.4371086 11:-0.063462378 12:1.5495429 13:-0.63011779 
0 5.2566797339519322 10 0 6.831217014521652 0 0 0 1:0.22786621 2:-0.78884203 3:0.14295051 4:-0.63373136 5:-0.93776723 6:0.05829757 7:-0.02085473 8:0.71879194 9:-0.7217498 10:-0.36094769 11:-0.30366591 12:-0.035253511 13:1.0074597 
5.7181809163002484 0 0 0 0 0 0 0 1:-1.071174 2:0.12344554 3:0.89138811 4:-0.4718101 5:-0.12016443 6:1.7329133 7:0.6862051 8:0.87293275 9:0.69261233 10:0.59987867 11:0.67051535 12:-0.71938222 13:-0.051124601 
0 5.0348696191697888 10 4.1900886102755717 0 0 0 0.93383971451541725 1:0.57870182 2:-1.1283951 3:-0.67062163 4:-0.16573229 5:1.217529 6:-0.3005118 7:0.08111911 8:0.49858401 9:-0.12120567 10:0.77895265 11:-1.817497 12:-0.6722953 13:0.85993416 
10 0 0 0 0.070386468128417784 0 0 0 1:-0.41044128 2:0.65354887 3:1.1482989 4:0.49186098 5:-0.55323814 6:-1.3151666 7:-1.0197676 8:-0.77279541 9:0.98413264 10:0.022467912 11:0.71416739 12:-0.075304279 13:-0.45019695 
0 0 0 0 0 0 0 0.11645636595421652 1:-2.5172901 2:-0.85661026 3:0.77732516 4:1.8210737 5:-0.014666355 6:-1.4843134 7:1.869384 8:0.51271228 9:-1.4206759 10:0.79732824 11:0.83431941 12:-1.2253379 13:1.3342848 
2.5620862917087939 0 0 0 0 0 0 0 1:-1.8725834 2:0.070118262 3:1.2435285 4:1.1452263 5:-0.52230116 6:0.024921137 7:1.6137419 8:-0.30663194 9:-0.3018038 10:1.0858797 11:-1.1900375 12:0.31832428 13:0.32465982 
0 0 0 0 10 0 0 0 1:-0.18344335 2:-0.020195844 3:1.9556522 4:-0.27587708 5:-0.68685369 6:0.26757185 7:0.22967079 8:-1.752416 9:-0.32994562 10:-0.14819445 11:-0.57978514 12:0.34446666 13:-0.35223751 
0 0 10 3.6037702116067289 0 4.7390038596247699 10 10 1:1.1538408 2:-0.4806296 3:-0.5276934 4:-0.06798029 5:0.14594754 6:1.6670713 7:0.025833132 8:0.60587674 9:0.55305836 10:0.94637232 11:0.23490231 12:0.28318963 13:0.80958942 
10 0 0 0 0 0 0 0 1:-1.5929631 2:0.51662696 3:0.85328009 4:0.68732489 5:0.11260943 6:-0.55196168 7:0.76744805 8:-0.66983826 9:0.056141529 10:-0.13331691 11:0.52656133 12:-0.80820323 13:-0.81862386 
0 0 0 0 8.8486051201985987 0 0 0 1:0.43021345 2:-0.94483234 3:0.58209085 4:-0.17309083 5:-0.75086793 6:-2.0485314 7:0.26311055 8:1.1205018 9:-0.62007841 10:-0.17867374 11:0.12512673 12:0.41620559 13:-0.64366539 
10 0 0 0 0 0 0 0 1:-1.7006634 2:-0.25821758 3:0.12935849 4:1.0558776 5:1.4788798 6:-0.43597311 7:1.1165331 8:0.72645079 9:0.25766536 10:-1.3416521 11:-0.49190015 12:-0.55689046 13:0.64304049 
1.5373572121067818 0 0 0 0 0 0 0 1:-1.4342935 2:0.06645766 3:1.1814089 4:0.97932328 5:-0.23796003 6:-1.0568 7:-0.34319942 8:-0.11644663 9:-1.3521009 10:-1.2395445 11:0.64581895 12:-0.75739359 13:-0.68061916 
0 0 0 0 1.8096971008551064 0 0 0 1:-0.78430917 2:-0.4444831 3:2.0770855 4:1.4913743 5:-2.0855 6:-0.68936351 7:-0.64314315 8:-0.23251517 9:-0.52311977 10:0.3704097 11:0.70891477 12:-1.4109373 13:0.083791982 
3.5617739251236515 1.0735799002671509 0 3.454784282575722 10 4.1693259452747675 0 0 1:0.89721327 2:-1.0586449 3:0.39440343 4:-0.64603801 5:-1.3459937 6:-1.5901928 7:0.49836353 8:0.11415696 9:-0.61841352 10:-0.98767755 11:0.99941246 12:0.82264563 13:-1.7649682 
7.605961600277646 0 0 0 0 0 0 0 1:-1.2213843 2:0.3711801 3:1.7737936 4:1.484706 5:-1.0166272 6:-0.31026265 7:1.1459137 8:-0.14109557 9:-0.75606811 10:0.056594407 11:1.0054457 12:1.9651908 13:-0.091614705 
5.7797733621607197 10 0 0 2.3815661624513069 0 6.1235385603915811 0 1:0.33492444 2:-0.17821124 3:0.71267046 4:-0.78039846 5:0.81209368 6:0.99402399 7:1.3960771 8:-0.98984917 9:-0.58097216 10:-0.92536922 11:-0.94255317 12:0.13365194 13:0.44536545 
1.7821555067514641 10 2.8412132715213709 0 0 2.0439449067514794 0 0 1:0.097106927 2:-1.5345813 3:-0.73040675 4:0.51812676 5:1.0811116 6:1.200087 7:0.250174 8:0.17661397 9:-0.42199243 10:-1.1873733 11:-0.45070068 12:1.9823396 13:-0.90021518 
0 0 0 0 3.8009259473868808 0 0 0 1:-0.51665974 2:0.11080675 3:1.6679275 4:-0.12542015 5:-1.1393168 6:-0.60463315 7:-1.082709 8:0.40551152 9:-1.7365311 10:-0.82463499 11:-0.52410375 12:0.053220339 13:-0.11881409 
6.0037971022944978 0 0 0 0 0 0 0 1:-1.1697751 2:0.95273987 3:0.75894775 4:-0.9239702 5:-0.134739 6:-0.44738792 7:-0.33347508 8:0.77524844 9:-0.029948344 10:-0.84624906 11:-0.58191663 12:-0.8986368 13:-0.12409846 
0.20764311844866626 7.2207417708652297 3.1743366822520818 2.0751614729427756 7.8856311164863744 10 10 6.8037457119009215 1:0.77050852 2:-0.065382088 3:0.097779035 4:0.042280175 5:-0.68715985 6:0.68104548 7:-0.71348364 8:-1.21053 9:0.65587037 10:0.63729591 11:-0.87800216 12:-0.88124435 13:0.51351308 
5.9455622960549128 0 0 0 0 0 0 2.2395623096545543 1:0.25872519 2:-0.95654683 3:0.29247678 4:0.65423451 5:1.8876267 6:1.0682424 7:1.604273 8:1.5485502 9:-0.58790543 10:-0.79862752 11:-1.361082 12:-0.33337027 13:0.17004366 
5.6497350151135599 0 0 0 0 0 0 0 1:-1.2831812 2:0.011157493 3:0.81586854 4:0.71298594 5:1.0003986 6:1.380838 7:2.0389528 8:2.5911061 9:0.65801651 10:2.0934951 11:1.8487383 12:1.5393122 13:0.39009953 
4.1855398893204967 0 0 4.1811513323405594 0 4.3102947084133447 0.61756026616387227 0.56898661340377521 1:0.48015958 2:-0.30894077 3:0.38645132 4:1.0192708 5:0.30789235 6:-3.7185727 7:-1.9187403 8:0.5269595 9:0.84453932 10:-0.10669959 11:1.8544479 12:1.4473956 13:0.18952372 
4.0728040215642434 0 0 0 0 0 0 0 1:-0.55030024 2:0.55563566 3:1.0078981 4:0.1961052 5:0.023145516 6:0.28246367 7:-0.19889503 8:-0.63084253 9:-0.01300321 10:-1.8456537 11:1.0345136 12:-0.066852066 13:-0.69605257 
10 0 0 5.0931832701612487 0 0 3.0885372711932231 0 1:-0.31217852 2:0.40483431 3:1.5456933 4:1.0084725 5:0.70286497 6:1.1215993 7:0.25554592 8:0.99193748 9:1.8872432 10:0.44224051 11:0.51981033 12:0.9923069 13:0.27999927 
8.1677991553244187 0 0 0.34932973316956067 0 0 0.12572251181583022 1.2023650468579501 1:-1.8026598 2:-0.21468571 3:-0.66395296 4:-0.21986045 5:0.30448769 6:0.97643862 7:-0.49131016 8:0.65891878 9:0.027068906 10:0.60958364 11:1.8127576 12:1.2548454 13:0.82708483 
0 0 0 0 0 0 0 0.41332703945560983 1:-2.0284879 2:0.21904262 3:1.2029341 4:1.6028752 5:1.1497657 6:1.3876422 7:1.9242735 8:-0.45045985 9:0.76094957 10:-2.2816566 11:-0.16899703 12:0.66673567 13:-0.6121524 
1.2765449300035454 0 0 1.1789100860251176 0 0 0 0.37474903559255501 1:0.51392798 2:0.032255849 3:1.9456957 4:1.5332675 5:-1.3117711 6:-2.2298098 7:-0.33722707 8:-0.044590057 9:-0.098722704 10:0.1659547 11:1.3790802 12:1.1144963 13:2.349063 
1.5328354391550534 1.7781088751616294 0.38887477472203319 0.72692638082634586 1.1502765982680658 1.2813352080402627 1.8887805549596821 0.99733338672978022 1:0.39843956 2:-0.94811383 3:0.62278528 4:-0.32770791 5:1.5779083 6:1.4853431 7:1.8959508 8:2.2410135 9:0.25985535 10:-0.58200744 11:-1.6925336 12:2.8325258 13:-2.2100482 
9.878290589492261 0 0 0 0 0 0 0 1:-1.1689193 2:0.54923429 3:1.1944172 4:0.63806585 5:0.343085 6:1.0736611 7:0.52329821 8:-0.62349636 9:-0.87549952 10:-0.76740487 11:-1.2254017 12:-0.45593944 13:-0.94777618 
10 0 0 0 0 0 0 0 1:-1.6982084 2:0.82375101 3:1.064618 4:0.40997522 5:0.41856555 6:-0.015134123 7:0.2043691 8:-0.023724733 9:0.7443112 10:-0.049297954 11:-0.50076098 12:-0.33118051 13:-1.2981279 
0.57999318343831241 0 0 2.0532114967520454 0 0 0 0 1:-0.037644734 2:-0.55458602 3:0.24195409 4:0.71252408 5:0.46946408 6:-0.45039199 7:-1.6712197 8:0.44726066 9:1.4002477 10:-0.020431506 11:-0.74674148 12:0.82557923 13:0.67952942 
5.0543298804378942 1.3608948064760233 0 0 3.0884064292338067 0.60149091974925528 0.552256124001126 0 1:-0.15781942 2:0.62029229 3:1.4556 4:0.51919755 5:-0.34754827 6:-0.83997294 7:-2.1516694 8:-1.0023112 9:0.83465469 10:-0.7268273 11:1.0274141 12:0.6413543 13:-0.74342492 
10 10 6.1479479156218204 0 10 0 0 4.2305551837907318 1:0.52931817 2:-0.023700511 3:0.73661788 4:-1.2923438 5:-1.5459731 6:0.18805094 7:-0.49064832 8:-0.75382037 9:-0.45600692 10:0.37069799 11:-0.23414434 12:-0.23164966 13:-1.6032413 
0 1.598545021802793 2.2566091648397864 10 1.5519825959013034 6.2439092833287422 1.1758177991169629 0.82872230173822992 1:0.78973271 2:-0.18577324 3:0.15382442 4:0.68223157 5:0.7851593 6:0.20681339 7:-0.64312087 8:0.44303372 9:1.4485327 10:1.7456243 11:-1.3025478 12:-2.1259906 13:0.42708369 
3.2416456670340112 3.6958970499161508 0.23618320409073834 8.6711921244270087 4.7271169916061249 10 2.3353557518753725 3.6502964980896349 1:0.9795065 2:-0.32666325 3:0.88214959 4:0.12384505 5:-0.075851586 6:-1.1807703 7:-0.45121397 8:0.17062781 9:1.1246931 10:2.1613649 11:0.9396035 12:0.12011599 13:1.2891824 
0 0 0 0 10 0 0 0 1:0.31035678 2:0.55418355 3:1.4831719 4:-0.52675426 5:-1.4288171 6:-0.69307961 7:-0.95581275 8:-0.8374385 9:-0.82426229 10:-0.64704763 11:0.65060035 12:0.4319519 13:-0.70413729 
0 10 0 0 10 0 0 0 1:0.51125863 2:0.050899058 3:1.6597607 4:0.3923023 5:-2.275611 6:-0.38736139 7:-0.32354369 8:-0.714343 9:0.089428416 10:0.60614148 11:1.2857288 12:-0.35029692 13:-0.94752025 
10 0 0 0 0 0 0 0 1:-1.3060191 2:0.38971908 3:1.2181555 4:0.39424378 5:-0.21814441 6:-1.3581572 7:0.036621569 8:0.98093947 9:0.45617334 10:0.23605498 11:-0.12344125 12:-0.77364822 13:-1.0852406 
7.6960086315242364 0 0 0 0 0 0 0 1:-1.7387847 2:0.44249794 3:1.0265331 4:0.81985106 5:-0.69903287 6:0.25344725 7:0.79623369 8:1.5493413 9:0.74923035 10:0.9228529 11:-0.018441551 12:-0.43278932 13:0.17455033 
0.44320205033843829 0 0 0 0 0 0 0 1:-0.019928301 2:0.071099575 3:0.99907906 4:0.049928674 5:-1.7158396 6:-0.42068716 7:-0.46324185 8:-0.42271357 9:-0.89478974 10:-0.3110479 11:0.58547667 12:-0.15528923 13:-1.2166476 
0 0 0 0 0 0 0.54357303066004103 0 1:-0.74989914 2:-0.38687556 3:1.8274353 4:1.431305 5:-0.58083154 6:0.49052839 7:0.092090554 8:0.475337 9:0.96536626 10:1.7234692 11:1.5508746 12:2.3420008 13:1.3870059 
0 0 0 1.9586100097298382 0 0 0 0 1:-1.2628704 2:-0.17056345 3:1.1678061 4:1.9623204 5:1.7747071 6:0.83197087 7:-0.82897372 8:1.2034654 9:1.8425387 10:-0.82778695 11:-0.92399983 12:-0.39753456 13:-0.83064275 
0.1014623279182174 0 0 0 3.3830705010182927 0 0 0 1:0.33186871 2:-0.2973559 3:0.27504723 4:-0.92808467 5:-0.46714 6:-0.92424588 7:-1.1806723 8:-0.54803661 9:-0.59753306 10:-0.84911945 11:-0.33177701 12:-0.69062158 13:-0.42728013 
3.3673926281654483 0 0 0 0 0.064166194385259084 0 0.19465336308986286 1:-0.65669414 2:-1.4227007 3:-0.176241 4:0.64584895 5:1.4839511 6:2.0681814 7:0.78807087 8:-0.080413721 9:0.2345457 10:-0.20352218 11:1.5593512 12:-0.75711744 13:-1.4672675 
1.9819088645892722 0.30856590165134812 0 0.97621000905149724 0.62499082900968805 0.43822542425786309 0 0.90596489161289473 1:0.4879068 2:-0.5360993 3:0.75092324 4:0.49402967 5:0.20726701 6:-3.689563 7:-1.1250546 8:0.48128116 9:0.79363706 10:0.79854153 11:2.3464353 12:0.081088379 13:0.7503857 
10 0 0 0 0 0 0 0 1:-0.99183608 2:0.62197366 3:1.0647959 4:0.040234784 5:1.0417135 6:1.8148748 7:-0.5559466 8:0.37370273 9:0.62967419 10:-0.19448143 11:1.5394537 12:0.75563583 13:0.26432011 
10 0 0 0 0 0 0 0 1:-1.2969836 2:0.84148963 3:0.8050151 4:-0.4626376 5:0.79414292 6:0.44108377 7:-0.87022475 8:0.11967754 9:-1.0444354 10:-0.86872778 11:0.29841521 12:-1.6728947 13:-0.73326154 
0 0.01478997290704661 0 0 0 0 0 0 1:0.16852474 2:-0.90614435 3:0.11473259 4:1.0733297 5:0.51175584 6:0.79797855 7:0.16326297 8:2.0098092 9:0.21533703 10:-1.5162143 11:0.34154704 12:0.93894199 13:0.8635003 
10 3.675188929042382 0 10 10 10 10 10 1:0.84437287 2:0.37236848 3:0.065050238 4:0.39763634 5:-0.047855955 6:-0.42087089 7:0.11949935 8:-1.0175067 9:-0.090469254 10:0.17390779 11:0.2419861 12:0.22260974 13:0.3359375 
0.059594777192566763 0 0 0 0 0 0 0 1:0.19478402 2:-0.5325138 3:-0.03001296 4:0.083764126 5:0.66384358 6:0.35834245 7:-0.18354512 8:0.78955436 9:1.6894803 10:0.48721752 11:-0.90555784 12:1.2361532 13:0.97518201 
10 0 0 0 0 0 0 0 1:-1.5670177 2:0.42078505 3:1.0318293 4:0.31288904 5:-0.068707696 6:1.45137 7:-0.016495592 8:0.41793018 9:0.54678408 10:-0.32799015 11:0.36966241 12:0.22594134 13:-0.73573049 
0 0 0 0 0 0 1.7797487310754807 0.1060699477288973 1:-0.49688067 2:0.027416345 3:0.8274882 4:0.33245656 5:0.1157522 6:1.2130732 7:1.7501886 8:0.039874495 9:-1.1611341 10:-1.2725086 11:0.078643855 12:-0.33322782 13:-1.7725296 
0 0 0 4.6042867325653436 0 0 0 0 1:0.71512014 2:-0.76333945 3:0.5021183 4:0.085933142 5:-0.304936 6:-1.7017944 7:-0.19965729 8:1.635913 9:-0.13411266 10:-1.5362203 11:0.5659951 12:0.44489267 13:-0.37699113 
0.86398407333477567 0 0 0 0 0 0 0 1:-1.34894 2:-0.26352149 3:-0.075966741 4:-0.019751638 5:-1.2575825 6:0.15412246 7:0.73741395 8:0.32074112 9:-0.19823768 10:0.35009685 11:1.9411421 12:0.92163815 13:1.3404323 
0 0 0 1.0507342640589628 0 0 0.93280096494667353 0 1:0.23204447 2:-0.13964693 3:0.89987586 4:0.6822961 5:-0.45084633 6:-1.815988 7:1.0587344 8:-0.39828516 9:-0.9590015 10:-1.5483694 11:1.5369778 12:0.78092402 13:0.11518656 
0.56208499488143215 0 0 0 0 0 0 0 1:-1.3497578 2:-0.072722039 3:2.2993795 4:1.4232568 5:-1.2323487 6:-2.6259655 7:1.1928379 8:-0.28179315 9:-0.77631557 10:-0.02926917 11:0.66052182 12:0.96137387 13:1.0592548 
10 0 0 10 0 0 0 0 1:-0.4515897 2:-0.20352016 3:0.61492116 4:1.638614 5:0.32511887 6:-1.6562913 7:0.005180495 8:-0.057310174 9:0.38249962 10:-0.12108028 11:0.24710397 12:0.82251613 13:0.23818585 
0 0 0 0 2.5155481717823505 0 0 0 1:-1.4130376 2:0.93768352 3:0.98453469 4:-0.77467129 5:-1.1670874 6:-0.35842927 7:-0.41316579 8:0.62695128 9:1.0485475 10:0.65557579 11:0.62835988 12:-0.8675521 13:-0.71889154 
0.41361776946706991 0 0 0 0 0 0 0 1:-1.8559344 2:0.32637628 3:0.44225079 4:-0.43901465 5:0.1823388 6:0.97741556 7:0.5908769 8:0.6409184 9:1.0956289 10:0.3195632 11:0.75274363 12:-0.038776333 13:-0.6705492 
2.3144236772502311 0 0 0.36308669236094687 0.10853968888079624 0.24066452949381179 1.2002016483870148 0.59354005958372713 1:-1.1344008 2:0.36745769 3:1.45127 4:0.010602583 5:0.98200211 6:0.40242267 7:2.6986678 8:1.1629014 9:-1.85171 10:0.86812937 11:0.76414856 12:-0.2890299 13:1.4108288 
0 0 0 0 0 0 0.0069643168309447461 0 1:-1.6211113 2:-0.513504 3:1.2295589 4:1.0923151 5:-1.207823 6:1.5525204 7:0.9819333 8:-0.43242429 9:2.7288875 10:0.76088975 11:0.38982246 12:0.53213942 13:0.13862648 
5.458118093174904 0 0 0 1.2314090272078535 0 0 0 1:-0.78097346 2:0.21745046 3:1.2304388 4:0.67267995 5:-0.66835194 6:-1.7888752 7:1.2314889 8:0.46262452 9:-1.2021321 10:1.435322 11:1.3263044 12:-0.89236959 13:0.27337777 
2.9373849043648428 0 0 0 0 0 0 0 1:-1.9863098 2:0.38624692 3:1.0293292 4:0.021106176 5:0.034642722 6:1.8509836 7:0.90693957 8:0.4747222 9:0.84577834 10:-0.10577231 11:1.3896091 12:-0.17830253 13:0.45756923 
0 8.1741145281577623 6.0349066127917803 0 4.4786815693264996 7.3045938742357031 10 10 1:1.2895392 2:-0.0034997878 3:0.77467592 4:-0.57743634 5:0.97709903 6:1.4591392 7:0.89923058 8:0.051077928 9:-0.1858607 10:0.10872583 11:-0.37741166 12:-0.071876204 13:-0.57227185 
0 2.3316900371591633 0.96401461632346563 0.93276750936350183 0.46716592003767943 0.57493599493052217 0.3464544010809511 0.62808434676139713 1:-1.0466438 2:0.51052331 3:1.875002 4:0.33233867 5:-1.9389059 6:0.1078335 7:0.69413475 8:1.1121519 9:2.3552497 10:1.5942744 11:0.05893582 12:0.14003728 13:-1.2264571 
7.1803971770572774 0 10 5.3067382978895123 5.8155642877582885 10 10 2.5486963226286856 1:0.90531996 2:-0.33195486 3:-0.2840361 4:-0.72524815 5:0.017039098 6:-0.59300069 7:-0.31827952 8:0.6938161 9:0.24621163 10:0.16585464 11:-1.4467577 12:0.66697213 13:-0.08107247 
0.044451056384339292 0 0 0 0 0 0 0 1:-1.6475628 2:0.0082785357 3:0.73773464 4:0.69675321 5:-0.64931061 6:0.7912547 7:1.8742846 8:-0.21273579 9:0.91228224 10:-0.18224155 11:-0.99183603 12:-0.10266602 13:1.3740689 
3.6066320407541399 0.13098407733976852 0 0 0 0 0 0 1:-0.65087744 2:-0.21554186 3:1.5465455 4:-0.022156771 5:-2.6112071 6:-0.93933588 7:-1.1889344 8:-1.3320629 9:-0.23253063 10:0.8230721 11:0.33610434 12:1.3482476 13:0.89184071 
10 0 0 0 0 0 0 0 1:-0.68538057 2:-0.4109502 3:-0.10801673 4:-0.2163712 5:1.0698045 6:0.62657217 7:0.10502405 8:0.35414237 9:0.81796131 10:0.21053382 11:0.86347652 12:1.1146071 13:-0.51431845 
1.5318665730919121 0 0 0 0 0 0 0 1:-2.1658099 2:0.096723536 3:1.0833515 4:0.93490192 5:0.29043593 6:0.93722174 7:2.4180956 8:0.99186612 9:0.77179081 10:1.1542127 11:0.97571772 12:0.4240465 13:1.3764942 
